{"layers": [{"tipo": "Dense", "activation": "relu", "weights": [[0.48120376467704773, -0.2531849145889282, 0.4071168601512909, 0.22790004312992096, 0.3005174696445465, 0.3415970504283905, 0.24970659613609314, 0.17431305348873138, 0.16074377298355103, 0.3371155560016632, 0.2767740786075592, 0.4100504517555237, 0.30961254239082336, 0.04064377024769783, 0.5759956240653992, 0.49639517068862915, 0.33169594407081604, 0.17329460382461548, 0.07767120003700256, 0.3942171335220337, 0.4712805151939392, 0.2841172218322754, -0.0913599357008934, 0.33762890100479126, 0.06141166388988495, 0.03809941187500954, 0.4329572021961212, 0.23610682785511017, 0.23324286937713623, 0.011916184797883034, 0.06910038739442825, 0.05504986643791199, 0.4783225655555725, 0.4255494177341461, 0.14569991827011108, 0.11130795627832413, 0.2156476378440857, 0.26935261487960815, 0.547476589679718, 0.45535480976104736, 0.16307206451892853, 0.38411107659339905, 0.19884878396987915, 0.15010227262973785, 0.0696970745921135, -0.019289785996079445, 0.16854700446128845, 0.39451009035110474, 0.22281144559383392, 0.398289293050766, 0.28230375051498413, 0.19226160645484924, 0.5349065065383911, 0.10102804005146027, 0.39169222116470337, 0.27470099925994873, -0.011715522035956383, 0.5112929940223694, 0.46516501903533936, 0.1506662219762802, 0.19479934871196747, 0.2666533291339874, 0.04917732998728752, 0.24671049416065216], [0.2397533506155014, -0.1382974535226822, 0.2483104169368744, 0.15576618909835815, 0.004640109837055206, 0.12402952462434769, 0.025470739230513573, 0.46065109968185425, 0.24522733688354492, 0.12232230603694916, 0.08879102766513824, 0.19090616703033447, 0.2323366105556488, -0.003665348282083869, 0.20562152564525604, -0.08253803849220276, 0.08997765183448792, 0.2945398986339569, -0.006024546921253204, -0.0832279846072197, 0.41584300994873047, 0.15962223708629608, 0.07093495875597, 0.10473316162824631, 0.3677205443382263, 0.21948429942131042, 0.35738521814346313, 0.37172698974609375, 0.03177303448319435, 0.06036786735057831, 0.07442884892225266, 0.4756074547767639, 0.10220786929130554, 0.31085166335105896, 0.33768799901008606, 0.11284726113080978, 0.39025866985321045, 0.3454451858997345, 0.01162800658494234, 0.4095235764980316, -0.010068792849779129, 0.42176583409309387, 0.3511916995048523, 0.03954320773482323, 0.2879626154899597, -0.08632112294435501, 0.41586175560951233, 0.35823848843574524, 0.046780142933130264, 0.44378015398979187, 0.4500596821308136, 0.4507993757724762, 0.3014821708202362, 0.10957738012075424, -0.02993672899901867, 0.04350493103265762, 0.3782368004322052, 0.1867828220129013, -0.04205382987856865, -0.0951898843050003, 0.16852132976055145, -0.18929462134838104, 0.4288986325263977, 0.32073092460632324], [0.27788418531417847, -0.11390478909015656, 0.0588214248418808, 0.473860502243042, 0.23334692418575287, 0.42732110619544983, 0.129977747797966, 0.2989274859428406, 0.4357638955116272, 0.5959529280662537, 0.31392109394073486, 0.1790025532245636, 0.6671224236488342, 0.15266284346580505, 0.2329605668783188, 0.212531179189682, 0.1903749704360962, 0.22058090567588806, 0.32509681582450867, 0.2959272563457489, 0.27417922019958496, 0.5919968485832214, 0.1390501707792282, 0.5840123891830444, 0.357075572013855, 0.5698735117912292, 0.41227689385414124, 0.4537298381328583, 0.3026496171951294, 0.2432931512594223, 0.39781883358955383, 0.6110140681266785, 0.4278886020183563, 0.38698381185531616, 0.15019351243972778, 0.40789103507995605, 0.5870039463043213, 0.6673653721809387, 0.6358213424682617, 0.5652428865432739, 0.27129799127578735, 0.15869887173175812, 0.23025809228420258, 0.6056180596351624, 0.32502874732017517, 0.05690385401248932, 0.49655842781066895, 0.2633785605430603, 0.5308694839477539, 0.21286211907863617, 0.5035287737846375, 0.38482120633125305, 0.4536803066730499, 0.5124940872192383, 0.40246209502220154, 0.36701875925064087, 0.538895308971405, 0.14982064068317413, 0.16816198825836182, 0.4383738934993744, 0.5216870307922363, 0.23651543259620667, 0.5183448195457458, 0.20776374638080597], [0.0432124137878418, -0.1120263934135437, 0.023752808570861816, -0.12192918360233307, 0.07130398601293564, -0.06540893018245697, -0.1342376470565796, 0.36298608779907227, 0.19463525712490082, -0.04827718809247017, -0.27354171872138977, 0.011543089523911476, -0.08991608768701553, 0.038312993943691254, 0.03192831203341484, 0.2657661437988281, 0.006360853090882301, 0.15237712860107422, -0.02822853997349739, 0.22251355648040771, -0.007458994630724192, 0.40750741958618164, -0.4248031973838806, 0.20502229034900665, 0.26917439699172974, 0.3267458975315094, 0.30513593554496765, -0.09118372201919556, 0.16482356190681458, 0.1761738508939743, 0.06740476936101913, 0.2751011252403259, -0.13849656283855438, -0.08628740161657333, 0.3493134379386902, 0.13033153116703033, -0.06942354887723923, -0.04572899267077446, 0.19859901070594788, 0.220604807138443, 0.13879993557929993, 0.2887415587902069, 0.2890036106109619, -0.11339238286018372, 0.09978483617305756, -0.37326228618621826, 0.21986262500286102, 0.28781917691230774, 0.30893903970718384, 0.13120418787002563, 0.08081836998462677, 0.10803524404764175, -0.02708647958934307, 0.11057499051094055, -0.21984852850437164, -0.004097317345440388, 0.17220105230808258, 0.2701159715652466, -0.015792526304721832, 0.08851443231105804, 0.19830147922039032, 0.07639104127883911, -0.048367589712142944, -0.01534897368401289], [0.459416002035141, -0.04494556039571762, 0.06340639293193817, 0.1559404730796814, 0.19082987308502197, 0.3460524082183838, 0.0008643342880532146, 0.198630228638649, 0.23268386721611023, 0.37562936544418335, 0.26927563548088074, -0.02715136855840683, -0.006764584686607122, -0.011915926821529865, 0.08855508267879486, 0.236679345369339, 0.3964998722076416, 0.14787137508392334, 0.11443552374839783, 0.023791253566741943, 0.040229152888059616, 0.41828635334968567, -0.4036906361579895, -0.005692339967936277, 0.3847668170928955, -0.0016785382758826017, 0.2848391532897949, 0.1504771113395691, 0.4625991880893707, 0.3634381890296936, 0.37894895672798157, 0.33043786883354187, 0.22608718276023865, 0.3393794000148773, 0.16641463339328766, 0.06328034400939941, 0.2256147712469101, 0.09433376789093018, 0.2434384822845459, 0.2717004120349884, 0.04307468980550766, 0.10397884994745255, -0.1601908653974533, 0.27195656299591064, 0.14158941805362701, -0.2779619097709656, -0.015280786901712418, 0.060000158846378326, 0.39026138186454773, 0.19188536703586578, 0.010648847557604313, -0.003670042846351862, 0.16532570123672485, 0.4089147746562958, -0.005719170439988375, 0.21413998305797577, 0.42204463481903076, 0.14588342607021332, 0.21297910809516907, 0.117127425968647, 0.041717492043972015, -0.01203171443194151, 0.45035940408706665, 0.07727421820163727], [0.2534794509410858, -0.044953253120183945, 0.1380627155303955, 0.2735251784324646, 0.20101141929626465, 0.43281465768814087, 0.3945438265800476, 0.3483949899673462, 0.24716418981552124, 0.35654526948928833, 0.05656672269105911, 0.11271600425243378, 0.13512244820594788, 0.2531470060348511, 0.3270370662212372, 0.18134357035160065, 0.23346443474292755, 0.6076329946517944, 0.2453296035528183, 0.11174280941486359, 0.22965620458126068, 0.1207011267542839, 0.28268083930015564, 0.264208048582077, 0.12437435239553452, 0.46590331196784973, 0.16568681597709656, 0.14667384326457977, 0.518969714641571, 0.29059112071990967, 0.47220122814178467, 0.39391660690307617, 0.28807416558265686, 0.4571305215358734, 0.14430446922779083, 0.37578195333480835, 0.3622134029865265, 0.20980413258075714, 0.4041846990585327, 0.2266020029783249, 0.2663229703903198, 0.1847686916589737, 0.0648866668343544, 0.24038758873939514, 0.6163876056671143, 0.005695751402527094, 0.26764535903930664, 0.44091469049453735, 0.48441946506500244, 0.171656996011734, 0.054882392287254333, 0.1693449169397354, 0.07911588996648788, 0.3237113952636719, 0.33639028668403625, 0.07689354568719864, 0.3880941569805145, 0.46748116612434387, 0.3595598638057709, 0.02410280518233776, 0.1601884365081787, 0.20284751057624817, 0.2123318314552307, 0.32098743319511414], [0.8043616414070129, -7.218396058306098e-05, 0.2318486124277115, 0.7114549279212952, 0.5695403218269348, 0.4655101001262665, 0.8663942813873291, 0.4170624911785126, 0.5637181401252747, 0.5957834124565125, 0.4997103214263916, 0.27381178736686707, 0.7895738482475281, 0.6361528038978577, 0.35805127024650574, 0.18950214982032776, 0.7330466508865356, 0.7120826840400696, 0.3952685594558716, 0.44334888458251953, 0.2557503283023834, 0.5404545664787292, 0.25047624111175537, 0.6887189745903015, 0.43694421648979187, 0.34691718220710754, 0.5146492719650269, 0.37580031156539917, 0.5945146679878235, 0.6463284492492676, 0.8125603199005127, 0.3433835208415985, 0.722718358039856, 0.3302600681781769, 0.7088081240653992, 0.611373782157898, 0.432784765958786, 0.6221796274185181, 0.3288553059101105, 0.4842754006385803, 0.339748352766037, 0.3599993586540222, 0.7471361756324768, 0.5792524814605713, 0.7354569435119629, 0.45140939950942993, 0.463551789522171, 0.2689494490623474, 0.7727465629577637, 0.44109535217285156, 0.37920209765434265, 0.688715934753418, 0.5703026056289673, 0.4928378164768219, 0.5242289304733276, 0.4852909445762634, 0.26474669575691223, 0.5164167284965515, 0.3493296205997467, 0.48120859265327454, 0.39892470836639404, 0.6735162138938904, 0.7799107432365417, 0.6989014148712158], [-0.16676805913448334, 0.1396424025297165, 0.3320944607257843, 0.040733832865953445, 0.3587054908275604, -0.02812241017818451, -0.003022081684321165, 0.061851173639297485, 0.4252382814884186, -0.09749078005552292, 0.1418282836675644, 0.2249804139137268, 0.2623650133609772, 0.32963117957115173, 0.34824681282043457, -0.004235764499753714, -0.034631095826625824, 0.13476179540157318, -0.3371949791908264, 0.3616492450237274, 0.3800286054611206, -0.06821379065513611, 0.06817168742418289, 0.1648769974708557, 0.31205448508262634, 0.37209436297416687, -0.10944434255361557, 0.3803427219390869, -0.018857693299651146, 0.2475266307592392, 0.15539871156215668, 0.04394509270787239, -0.06114420294761658, 0.19712114334106445, 0.03940480202436447, 0.19617094099521637, -0.061593133956193924, -0.035880979150533676, 0.13907064497470856, 0.08069410175085068, 0.39128267765045166, -0.07251531630754471, 0.237572580575943, 0.20474308729171753, 0.026835989207029343, -0.11599116027355194, -0.011021008715033531, 0.4011567533016205, -0.09059195965528488, 0.03407919406890869, 0.005464274901896715, 0.051270097494125366, 0.04104512929916382, 0.15957169234752655, 0.2694428861141205, 0.001063378993421793, 0.3572850227355957, 0.3920893967151642, 0.322617769241333, -0.14180344343185425, 0.3558731973171234, -0.07766906917095184, 0.29285526275634766, 0.27288979291915894]], "bias": [0.7690173387527466, -0.03149038925766945, 0.51958829164505, 0.6872640252113342, 0.7054147124290466, 0.5737307667732239, 0.8094761967658997, 0.7866268754005432, 0.6980968117713928, 0.7960410714149475, 0.5423624515533447, 0.5536635518074036, 0.7998061180114746, 0.6189714074134827, 0.7899059057235718, 0.6405102014541626, 0.8346708416938782, 0.7798329591751099, 0.5041560530662537, 0.630474865436554, 0.6212356090545654, 0.8286034464836121, 0.44844773411750793, 0.7588183879852295, 0.574781596660614, 0.6904130578041077, 0.6223694086074829, 0.6195714473724365, 0.8186221718788147, 0.7394883036613464, 0.7795396447181702, 0.7158127427101135, 0.7935566902160645, 0.5312607288360596, 0.7937107682228088, 0.6860453486442566, 0.8397982120513916, 0.8177259564399719, 0.7489780187606812, 0.6422035694122314, 0.7019171714782715, 0.7736856341362, 0.6098310947418213, 0.8144476413726807, 0.788567066192627, 0.5803963541984558, 0.8034917116165161, 0.651792049407959, 0.7018349766731262, 0.8889075517654419, 0.7767165303230286, 0.867503821849823, 0.8659397959709167, 0.7532690167427063, 0.5991845726966858, 0.6731873750686646, 0.6416140198707581, 0.7583010196685791, 0.6902853846549988, 0.8116374611854553, 0.8970457911491394, 0.5799868702888489, 0.7228211760520935, 0.8241809010505676]}, {"tipo": "Dense", "activation": "relu", "weights": [[0.5364486575126648, 0.7159065008163452, 0.4021705687046051, 0.10222307592630386, 0.6227695941925049, 0.6037099957466125, -0.08458211272954941, 0.6477020382881165, -0.06980171799659729, 0.5340823531150818, 0.3607172667980194, 0.5401182174682617, 0.269664466381073, 0.31628891825675964, -0.16861958801746368, 0.26572877168655396, 0.536896824836731, 0.1296553760766983, 0.48211073875427246, 0.39264628291130066, 0.6086880564689636, 0.002394416369497776, 0.19056573510169983, 0.5766444802284241, -2.5267257036665214e-11, 0.4653680622577667, 0.380418986082077, -0.19879133999347687, 0.35677027702331543, 0.17931731045246124, 0.27526190876960754, 0.41286736726760864], [-0.019795861095190048, -0.1355265974998474, -0.15921911597251892, 2.855506846602407e-12, -0.11205881834030151, 0.06016719341278076, -0.09064565598964691, -0.05481135845184326, -0.005341538228094578, -0.08556808531284332, 0.22679740190505981, -0.007009455468505621, 0.1472753882408142, -0.030781587585806847, 0.10679329931735992, -0.04075323045253754, 0.12625087797641754, -1.650940911757104e-10, 0.1296752393245697, 0.11972860246896744, -0.1407221108675003, -0.07061699032783508, -0.0011263428023084998, 0.1261928826570511, 5.696893623508004e-09, -0.020743736997246742, -0.1574355810880661, -1.4602962172816092e-09, 0.06982482224702835, 0.1856374591588974, 0.035866763442754745, -0.12970802187919617], [0.2916261553764343, 0.25383636355400085, 0.3572535216808319, -0.1951964944601059, 0.6186676621437073, 0.2505608797073364, 0.13516487181186676, 0.47214385867118835, 0.19859476387500763, 0.4162863492965698, 0.5536486506462097, 0.5299582481384277, 0.2258760780096054, 0.12476274371147156, -0.044067759066820145, 0.4396973252296448, 0.3745744228363037, -0.04426085576415062, 0.14083293080329895, 0.4156593680381775, 0.4055078327655792, 0.14336824417114258, -0.06936496496200562, 0.1790744811296463, -5.178177886477897e-10, 0.39493560791015625, 0.42772048711776733, 0.15805768966674805, 0.4635477364063263, -0.05313844233751297, 0.23909439146518707, 0.3407798111438751], [0.6270769238471985, 0.6132398843765259, 0.5442436933517456, -0.18877238035202026, 0.6889707446098328, 0.532834529876709, -0.13525104522705078, 0.28877148032188416, 0.10180390626192093, 0.6188425421714783, 0.3833503723144531, 0.5839518308639526, 0.6804836392402649, 0.45736050605773926, 0.06581759452819824, 0.6348518133163452, 0.7363483905792236, 0.07400570809841156, 0.5128841400146484, 0.44422706961631775, 0.688050389289856, 0.1265001893043518, 0.12489516288042068, 0.3458735942840576, -1.597713350509622e-10, 0.7213571667671204, 0.29456329345703125, 0.03127383813261986, 0.43505722284317017, 0.12386848777532578, 0.39233943819999695, 0.4861805737018585], [0.6208909153938293, 0.7717095613479614, 0.45784246921539307, 0.02853170968592167, 0.5008765459060669, 0.6501827239990234, -0.030724236741662025, 0.3672601282596588, -0.01273696031421423, 0.6316382884979248, 0.4476141631603241, 0.6230546832084656, 0.2277468740940094, 0.2360358089208603, -0.17058637738227844, 0.5944052934646606, 0.6230011582374573, 8.84425588321136e-10, 0.6153274178504944, 0.2683931291103363, 0.6357662081718445, 0.12479549646377563, -0.24077220261096954, 0.2960904538631439, -1.2763341494803626e-09, 0.5220056772232056, 0.6560271382331848, 0.00010180460230913013, 0.5197174549102783, -0.07826173305511475, 0.6610158681869507, 0.30142080783843994], [0.40810656547546387, 0.6510512828826904, 0.6117420792579651, -0.1730346381664276, 0.26992663741111755, 0.2611612379550934, -0.07494480162858963, 0.11448261886835098, -0.11546659469604492, 0.488763689994812, 0.41851434111595154, 0.4110827147960663, 0.5662791132926941, 0.5265080332756042, -0.010653750970959663, 0.44444000720977783, 0.39071276783943176, 0.09774976223707199, 0.549886167049408, 0.45561453700065613, 0.5646350383758545, 0.13801975548267365, 0.012878034263849258, 0.2373266965150833, -8.659777755992693e-11, 0.29073718190193176, 0.48836761713027954, -0.15387171506881714, 0.44813379645347595, -0.045603297650814056, 0.568000078201294, 0.15204711258411407], [0.7327866554260254, 0.8164538741111755, 0.9752659797668457, -0.07194138318300247, 0.772631824016571, 0.9170816540718079, -0.043100692331790924, 0.6972526907920837, -3.4158491590829954e-09, 1.0892829895019531, 0.7395870685577393, 0.9969530701637268, 0.7784678339958191, 0.9128313660621643, 7.434275417494973e-10, 0.7616753578186035, 0.6872916221618652, -4.0074385476707164e-10, 0.9446587562561035, 1.0654125213623047, 0.6203150749206543, -0.03610728308558464, 6.43197994865119e-11, 0.9163880944252014, 3.1557134683168897e-09, 0.9877830147743225, 0.8917278051376343, -1.2322975972978156e-09, 0.5007063150405884, -0.025367220863699913, 0.8694555163383484, 0.9751282334327698], [0.6922121644020081, 0.6386378407478333, 0.6628802418708801, -0.0072258939035236835, 0.6380239725112915, 0.540857195854187, 0.11583782732486725, 0.2968026399612427, -0.12865056097507477, 0.4734005630016327, 0.7728635668754578, 0.4483168125152588, 0.6088373064994812, 0.4977239966392517, 0.071169912815094, 0.4678192436695099, 0.33302026987075806, -3.6766180377956204e-11, 0.569281816482544, 0.4003975987434387, 0.6270334720611572, -0.18695291876792908, 0.049512725323438644, 0.4339512884616852, 9.93320772857409e-11, 0.4432249069213867, 0.3724011778831482, -0.049227867275476456, 0.6106510162353516, -0.011241855099797249, 0.39087972044944763, 0.5005723834037781], [0.19364529848098755, 0.5209441184997559, 0.23595811426639557, -0.18411080539226532, 0.306132048368454, 0.3833843767642975, -0.2038467973470688, 0.1357317417860031, -0.13973736763000488, 0.6684868931770325, 0.2787846624851227, 0.4842781722545624, 0.5185254812240601, 0.24803735315799713, -0.173537939786911, 0.2979848384857178, 0.27327480912208557, -7.942845492436845e-09, 0.2723478078842163, 0.41791343688964844, 0.24086959660053253, -0.09358428418636322, -0.004296374972909689, 0.28331077098846436, -1.0284805007643172e-08, 0.5266895890235901, 0.3318846523761749, -0.05861349403858185, 0.5521156191825867, -0.03184938058257103, 0.24303944408893585, 0.34133180975914], [0.4389529228210449, 0.7084559202194214, 0.46905526518821716, 0.060221027582883835, 0.813620924949646, 0.4564927816390991, 0.016929425299167633, 0.7381123900413513, -2.5502785647169013e-11, 0.6584339737892151, 0.5683701634407043, 0.864678144454956, 0.34858956933021545, 0.6932527422904968, -0.04703063890337944, 0.5623318552970886, 0.6757372617721558, 0.034602925181388855, 0.5866978764533997, 0.7218087911605835, 0.5550439357757568, -0.20237348973751068, 0.1286740005016327, 0.6351572275161743, -1.0554884077862425e-08, 0.5094364285469055, 0.4952995181083679, -6.509959238343299e-11, 0.6355361342430115, -0.12025204300880432, 0.37787124514579773, 0.7271028161048889], [0.5986955761909485, 0.27261003851890564, 0.2784314751625061, -0.06122668832540512, 0.5692349076271057, 0.4490758776664734, 0.07255112379789352, 0.4362011253833771, -0.00019104118109680712, 0.4413626492023468, 0.2923448383808136, 0.4924810826778412, 0.41881343722343445, 0.18603771924972534, -0.20194751024246216, 0.3264824151992798, 0.41810861229896545, -0.19738973677158356, 0.2677955627441406, 0.58805912733078, 0.3776867389678955, -0.2029820680618286, -0.25064200162887573, 0.515787661075592, -1.2951668182381582e-08, 0.1861916035413742, 0.2967824637889862, -0.1432446986436844, 0.41279077529907227, -0.19788207113742828, 0.4273594319820404, 0.41796356439590454], [0.5711366534233093, 0.6615201234817505, 0.5132121443748474, 0.041307274252176285, 0.36347517371177673, 0.6079298853874207, 0.05398181453347206, 0.21344101428985596, 0.10624825209379196, 0.34199830889701843, 0.5326721668243408, 0.17844867706298828, 0.3478149473667145, 0.4939101040363312, -0.05171562731266022, 0.5148237943649292, 0.3831705152988434, 0.14906734228134155, 0.652550458908081, 0.42313626408576965, 0.4388029873371124, -0.30048608779907227, 0.19426682591438293, 0.310604989528656, 3.2947419098539044e-11, 0.38982120156288147, 0.3710904121398926, -0.2197686731815338, 0.33508312702178955, 0.1494385451078415, 0.4176796078681946, 0.3283310532569885], [0.4469703435897827, 0.544715166091919, 0.39002275466918945, 0.040106795728206635, 0.8160102367401123, 0.7170071601867676, -0.019701730459928513, 0.5402031540870667, 0.17826813459396362, 0.6689488291740417, 0.6109784841537476, 0.8339969515800476, 0.714881181716919, 0.4623315930366516, 7.061935064500702e-11, 0.5024020075798035, 0.7213309407234192, 4.925982191594791e-11, 0.552462100982666, 0.38760140538215637, 0.5427782535552979, -0.08174537122249603, -0.007801187690347433, 0.6370798945426941, 1.329666821092701e-09, 0.654212236404419, 0.5962845087051392, -0.1261487454175949, 0.2786939740180969, -0.06529135257005692, 0.5459873080253601, 0.5701627135276794], [0.760297417640686, 0.8089184165000916, 0.4506867229938507, 0.10366533696651459, 0.7601897716522217, 0.45443734526634216, -0.18256403505802155, 0.7049750685691833, -0.1669319123029709, 0.7064887285232544, 0.7780286073684692, 0.5780246257781982, 0.6909482479095459, 0.6867364645004272, 0.15857811272144318, 0.47461357712745667, 0.830769956111908, -5.838369343535987e-09, 0.5277031660079956, 0.720037579536438, 0.4700210988521576, -0.08401623368263245, -0.11138500273227692, 0.4722864329814911, 3.55058066281444e-10, 0.7179421782493591, 0.38282960653305054, -0.1550631821155548, 0.3665050268173218, 0.12140753120183945, 0.6520192623138428, 0.4445306360721588], [0.5709879398345947, 0.4858276844024658, 0.4447914958000183, 5.8784333845096626e-08, 0.6895337700843811, 0.4134148061275482, -0.05381637066602707, 0.3779619634151459, 0.007701723836362362, 0.4743434488773346, 0.828953206539154, 0.6096909642219543, 0.6837647557258606, 0.6049256324768066, 0.08878744393587112, 0.470899760723114, 0.6824097037315369, 0.1712500900030136, 0.8105565905570984, 0.7767453789710999, 0.46160218119621277, 0.17793112993240356, -0.1901683360338211, 0.6076268553733826, -7.153566627948749e-11, 0.773815929889679, 0.40763747692108154, -1.6816744663472605e-09, 0.26963192224502563, 0.06813755631446838, 0.47010019421577454, 0.6863079071044922], [0.6861298084259033, 0.6873226761817932, 0.33114540576934814, -0.0005136681138537824, 0.32968515157699585, 0.4185890555381775, -0.019204767420887947, 0.5534170866012573, -4.491894634028881e-10, 0.46823713183403015, 0.6150569915771484, 0.5340504050254822, 0.6761380434036255, 0.27563461661338806, 0.04958255589008331, 0.43169865012168884, 0.3415142297744751, -0.16262240707874298, 0.3027425706386566, 0.6270023584365845, 0.5448830723762512, -0.24812862277030945, 0.17839665710926056, 0.4000759422779083, -2.1684262024868062e-11, 0.3006093502044678, 0.5839753150939941, -0.15096329152584076, 0.6223286390304565, -0.2650102972984314, 0.5926684141159058, 0.2604858875274658], [0.5594853758811951, 0.8978348970413208, 0.8857794404029846, 0.09278389811515808, 0.7820430397987366, 0.5632394552230835, 0.041181422770023346, 0.574571430683136, 5.563329796842709e-09, 0.647502064704895, 0.5816144943237305, 0.7947852611541748, 0.6829618215560913, 0.6381394863128662, 7.43689021476257e-09, 0.8341821432113647, 0.8125699758529663, 0.11477240920066833, 0.8770291805267334, 0.7538899779319763, 0.5834092497825623, -0.22775474190711975, -0.18540321290493011, 0.7853155136108398, -3.849791152532589e-09, 0.654866099357605, 0.4852762222290039, 6.349262893223795e-09, 0.4255719780921936, -0.10890677571296692, 0.5973605513572693, 0.7350611686706543], [0.5657598972320557, 0.44154074788093567, 0.47441917657852173, -0.11486775428056717, 0.7333308458328247, 0.4583643674850464, -0.08277136087417603, 0.5942007899284363, 0.1675056666135788, 0.43555378913879395, 0.6718271374702454, 0.5248086452484131, 0.43195611238479614, 0.4359535872936249, -0.1178683489561081, 0.613410472869873, 0.721591591835022, 0.13675367832183838, 0.6090723276138306, 0.6647485494613647, 0.8085789680480957, -0.2642678916454315, -0.07800225913524628, 0.3846300542354584, -2.033039958604377e-09, 0.8392786979675293, 0.5860730409622192, -0.0392116904258728, 0.7057990431785583, 0.17745986580848694, 0.745006263256073, 0.36537644267082214], [0.5203099846839905, 0.7771498560905457, 0.554779052734375, -0.11394300311803818, 0.5034344792366028, 0.8822888135910034, 0.0798569992184639, 0.42505136132240295, -0.062386587262153625, 0.7517602443695068, 0.6261544823646545, 0.7914914488792419, 0.5416370630264282, 0.4684879779815674, -0.16599133610725403, 0.2245369851589203, 0.7609400153160095, -0.184067040681839, 0.625731885433197, 0.5261233448982239, 0.5749101042747498, -0.028974497690796852, 0.057649023830890656, 0.7510948777198792, -5.62602631148934e-10, 0.45555979013442993, 0.43408605456352234, -0.1523960381746292, 0.4008665680885315, 0.19615885615348816, 0.18933016061782837, 0.39761579036712646], [0.3907252550125122, 0.16271264851093292, 0.48817363381385803, -0.20921364426612854, 0.5350145697593689, 0.26457086205482483, -0.23978720605373383, 0.06619694083929062, -0.11440864205360413, 0.37116289138793945, 0.5958302021026611, 0.4740694761276245, 0.5266531109809875, 0.34010380506515503, 0.13109149038791656, 0.39606714248657227, 0.5775704979896545, -1.1212625272705168e-09, 0.16647644340991974, 0.3781772255897522, 0.1731167882680893, 0.02834252268075943, 0.06620747596025467, 0.4856889843940735, -2.8874140856061103e-09, 0.5030401349067688, 0.4207375943660736, 0.0745350793004036, 0.3487626612186432, 0.07081738114356995, 0.4027993977069855, 0.3576410114765167], [0.5095351338386536, 0.47408559918403625, 0.36336833238601685, 0.11319758743047714, 0.357338547706604, 0.46907129883766174, 0.05244722217321396, 0.3662998080253601, -0.014367149211466312, 0.3101676106452942, 0.213966503739357, 0.3790775239467621, 0.1619967520236969, 0.48969805240631104, -0.17432762682437897, 0.22557516396045685, 0.667343020439148, -0.004514557309448719, 0.25319740176200867, 0.3205326497554779, 0.48954829573631287, -0.12360978126525879, -0.11580046266317368, 0.14712253212928772, -5.3580930803320825e-09, 0.22056682407855988, 0.28641870617866516, 0.03844554349780083, 0.17688651382923126, -0.05636836215853691, 0.21158334612846375, 0.3673589825630188], [0.7180448174476624, 0.3982948958873749, 0.3901364207267761, 0.14355036616325378, 0.4501480162143707, 0.7611216902732849, 0.18249867856502533, 0.3218314051628113, 4.2100663233402e-11, 0.8375433087348938, 0.8053767085075378, 0.4173259139060974, 0.594669759273529, 0.7723680138587952, 0.0023347081150859594, 0.5241000056266785, 0.5555962920188904, -1.5135001585342422e-10, 0.7491781711578369, 0.7721606492996216, 0.7398539781570435, -0.24679233133792877, 0.17837873101234436, 0.5422103404998779, -5.1598510186767754e-11, 0.6593733429908752, 0.6692699790000916, -0.12582919001579285, 0.5238145589828491, -0.01813127100467682, 0.5563526153564453, 0.4349032938480377], [1.2615822553634644, 1.1961570978164673, 0.695174515247345, 6.752105491614202e-06, 0.8792251944541931, 1.1041314601898193, -0.03671300783753395, 0.7950537800788879, 4.832368949436727e-10, 1.1990083456039429, 1.1901483535766602, 1.076520562171936, 0.660524845123291, 0.7365208268165588, 0.1830402910709381, 0.6478779315948486, 1.0967860221862793, -0.14558616280555725, 0.9810380935668945, 0.7522238492965698, 1.0473346710205078, -0.010151959024369717, -0.07670382410287857, 0.7389434576034546, -1.575564331779411e-11, 0.8366735577583313, 0.9074931740760803, -3.7635897176535593e-10, 0.7829007506370544, 0.05753049999475479, 0.6639633178710938, 0.8787566423416138], [0.48727869987487793, 0.29365676641464233, 0.4113589823246002, 0.012392841279506683, 0.6316719651222229, 0.6526712775230408, 0.0764862671494484, 0.5794060826301575, 0.03029777854681015, 0.5042630434036255, 0.3260672688484192, 0.6597487330436707, 0.251400351524353, 0.6658660769462585, -0.2153083235025406, 0.11343501508235931, 0.5988103151321411, -9.141509077492671e-11, 0.7514039874076843, 0.654363751411438, 0.567222535610199, -0.22784125804901123, -0.005294904112815857, 0.5229358673095703, -5.517127865672933e-10, 0.5168829560279846, 0.23516777157783508, 0.12900479137897491, 0.16124236583709717, 0.1453416645526886, 0.6019274592399597, 0.385454386472702], [0.3522394299507141, 0.2075701355934143, 0.46829134225845337, 0.05268140882253647, 0.4837500751018524, 0.433213472366333, -0.13654369115829468, 0.35861673951148987, 0.05579465255141258, 0.5703360438346863, 0.35672974586486816, 0.4094349443912506, 0.25570088624954224, 0.2394215613603592, 0.012587126344442368, 0.39844638109207153, 0.5263824462890625, -0.1564633995294571, 0.5812811255455017, 0.39598986506462097, 0.11486399173736572, 0.19529248774051666, -0.1311206817626953, -0.0021786873694509268, -2.951805189166379e-10, 0.28596532344818115, 0.2139420062303543, 0.015071507543325424, 0.17536576092243195, -0.00970563106238842, 0.37236133217811584, 0.25319990515708923], [0.27176210284233093, 0.44203251600265503, 0.3207484185695648, -0.061963845044374466, 0.5848302841186523, 0.39572378993034363, 0.09615856409072876, 0.47940316796302795, -0.06583873927593231, 0.2813699543476105, 0.2617057263851166, 0.641457200050354, 0.46945080161094666, 0.14646685123443604, 0.1781325787305832, 0.239668607711792, 0.6015603542327881, -0.09895410388708115, 0.5665103197097778, 0.21489132940769196, 0.5433058738708496, -0.039835281670093536, 0.17130154371261597, 0.5023825168609619, -6.413535501292866e-12, 0.5761715173721313, 0.34733864665031433, 0.041903600096702576, 0.5453433990478516, 0.1892758011817932, 0.2390131652355194, 0.5747873783111572], [0.351513534784317, 0.4961569011211395, 0.46524539589881897, 0.20244722068309784, 0.34093260765075684, 0.429654061794281, -0.2308972179889679, 0.053402092307806015, 0.13459467887878418, 0.49496063590049744, 0.6141501665115356, 0.19405046105384827, 0.25776490569114685, 0.2446856051683426, 0.043131984770298004, 0.451293021440506, 0.6859099268913269, -0.12274158000946045, 0.6070700883865356, 0.30343589186668396, 0.46715208888053894, 0.03582311049103737, -0.11333729326725006, 0.21287484467029572, 4.168356979028509e-11, 0.30462366342544556, 0.5208771228790283, -0.23542684316635132, 0.2523140609264374, 0.08943880349397659, 0.2114991992712021, 0.029304830357432365], [0.44335246086120605, 0.5967445969581604, 0.22433209419250488, 0.07503234595060349, 0.2347661405801773, 0.5506476759910583, 0.1507021188735962, 0.14535267651081085, 0.09731445461511612, 0.5643734335899353, 0.22794252634048462, 0.45343145728111267, 0.5139339566230774, 0.5791733860969543, -0.06907670199871063, 0.32225778698921204, 0.311770498752594, -5.847361705946241e-08, 0.543536901473999, 0.37761107087135315, 0.2643825113773346, -0.22146527469158173, 0.1309344619512558, 0.46388575434684753, 7.640367227779166e-10, 0.2767799496650696, 0.3214319348335266, 0.024313950911164284, 0.5283739566802979, -0.07865429669618607, 0.4684801697731018, 0.05221794918179512], [0.4932151734828949, 0.6885471343994141, 0.5899001955986023, 1.0913149850466652e-07, 0.957120418548584, 0.9333220720291138, -0.049056150019168854, 0.8349883556365967, -1.001410154799487e-08, 0.6364936828613281, 0.6180221438407898, 0.5201027989387512, 0.6595824360847473, 0.5742867588996887, -0.1757570058107376, 0.7579655051231384, 0.5443143248558044, 0.10108521580696106, 0.7418782711029053, 0.6963374018669128, 0.7386730909347534, 0.12611618638038635, 0.15640731155872345, 0.5451719760894775, -1.1708135329302483e-11, 0.7440012097358704, 0.5282049179077148, -7.72668429238621e-10, 0.6224839687347412, -0.19048652052879333, 0.8743091821670532, 0.603086531162262], [0.8427954912185669, 0.47807860374450684, 0.6552218198776245, -0.0003482501779217273, 0.7127828598022461, 0.4426639676094055, -0.14599992334842682, 0.7522702813148499, -1.3058172321223083e-08, 0.5198962688446045, 0.6906012892723083, 0.7119725346565247, 0.5415763258934021, 0.7291817665100098, 0.17764835059642792, 0.7397773265838623, 0.9278771877288818, -0.004342483356595039, 0.4974260926246643, 0.5230465531349182, 0.3431797921657562, -0.0658898800611496, 0.004767295904457569, 0.40727803111076355, 4.791937957548953e-09, 0.7958263754844666, 0.7395085692405701, 6.631638987952826e-11, 0.3010316491127014, -0.06234847009181976, 0.7603098750114441, 0.637031614780426], [0.6131505370140076, 0.5416804552078247, 0.8096895217895508, 8.545703034101848e-10, 0.45821648836135864, 0.7949045896530151, -0.011638645082712173, 0.4442884922027588, -3.3856386583153153e-09, 0.5257607698440552, 0.7451531291007996, 0.5147994160652161, 0.728310763835907, 0.5182216167449951, -0.059538085013628006, 0.618793785572052, 0.6842786073684692, 0.11585599184036255, 0.43034201860427856, 0.8511812090873718, 0.37045398354530334, -0.16357246041297913, -0.03870735689997673, 0.7149976491928101, -2.235825413698933e-10, 0.7497075796127319, 0.4973509907722473, -6.784946909865752e-11, 0.37349292635917664, -0.08087818324565887, 0.6303036212921143, 0.735450267791748], [0.7850691080093384, 0.7138451933860779, 0.45849159359931946, -0.15753401815891266, 0.6601635813713074, 0.5212606191635132, 0.0634801983833313, 0.6270688772201538, -0.15973970293998718, 0.7784603834152222, 0.7267547249794006, 0.42157846689224243, 0.5880558490753174, 0.4679245352745056, -0.128218412399292, 0.6356328129768372, 0.7046514749526978, -0.12308572977781296, 0.3877212107181549, 0.4609096050262451, 0.7182591557502747, -0.23937827348709106, -0.1369912326335907, 0.45141613483428955, -3.635917261712862e-11, 0.37982264161109924, 0.6727805137634277, -0.18441613018512726, 0.35597729682922363, 0.12611638009548187, 0.5133066773414612, 0.22771884500980377], [0.4599880874156952, 0.8573150038719177, 0.6292967796325684, -0.010582656599581242, 0.7684696316719055, 0.8771483898162842, -0.18726696074008942, 0.6306492686271667, -2.524170206186227e-09, 1.014166235923767, 0.40026357769966125, 0.45401403307914734, 0.3616606891155243, 0.5104259252548218, 0.08952208608388901, 0.43152785301208496, 0.9159363508224487, -0.08565323054790497, 0.8137615919113159, 0.5884845852851868, 0.47735515236854553, -0.072757288813591, -0.05866560339927673, 0.47760483622550964, 2.617036864993594e-10, 0.7710322141647339, 0.8389026522636414, 0.14063717424869537, 0.39572378993034363, -0.13257776200771332, 0.7912284731864929, 0.6835434436798096], [0.23462417721748352, 0.14605432748794556, 0.4613361656665802, -0.1635492593050003, 0.2538883090019226, 0.37054258584976196, -0.19434817135334015, 0.19815702736377716, -0.1246752217411995, 0.2098063975572586, 0.1350506991147995, 0.4884524643421173, 0.41982439160346985, 0.1264958679676056, -0.20883166790008545, 0.11808381229639053, 0.35719722509384155, 0.1356750726699829, 0.3388800024986267, 0.516406238079071, 0.14591598510742188, 0.1486663520336151, -0.26481688022613525, 0.2068910300731659, -4.3589816201006215e-09, 0.2407078891992569, 0.36847519874572754, 0.17973458766937256, 0.30524352192878723, 0.10826452821493149, 0.259915828704834, 0.4248781204223633], [0.602318525314331, 0.6285868883132935, 0.4362413287162781, -0.08621273934841156, 0.7435305714607239, 0.5091310143470764, 0.11380840092897415, 0.4258866608142853, -0.012702091597020626, 0.765569806098938, 0.8096426725387573, 0.6096428036689758, 0.7466412782669067, 0.41401711106300354, -0.06801511347293854, 0.6813525557518005, 0.8180285692214966, 1.1120274701070798e-09, 0.7233936190605164, 0.7500993609428406, 0.39748817682266235, 0.17413809895515442, 0.09854711592197418, 0.611030101776123, -8.267807966033658e-11, 0.5352545380592346, 0.41163477301597595, 0.139893040060997, 0.36311814188957214, -0.25262704491615295, 0.6014240384101868, 0.686686098575592], [0.2970857620239258, 0.4716264307498932, 0.5149421691894531, 0.06750349700450897, 0.39313605427742004, 0.7575890421867371, -0.17074990272521973, 0.41600924730300903, -0.1210305318236351, 0.7377454042434692, 0.5216841101646423, 0.5476351976394653, 0.48856398463249207, 0.4469636380672455, 0.15062111616134644, 0.3018653094768524, 0.6852455139160156, 0.014365456067025661, 0.6392455697059631, 0.6714571714401245, 0.45622578263282776, 0.06925762444734573, 0.16457319259643555, 0.6258339881896973, 7.176282680078361e-13, 0.39352262020111084, 0.7409328818321228, -0.08580957353115082, 0.4563840627670288, -0.15815913677215576, 0.6276730298995972, 0.392953097820282], [0.872646152973175, 0.7802110314369202, 0.7836863398551941, -1.7890257331121262e-10, 0.7266072034835815, 0.9409363269805908, 0.02038181945681572, 0.7496309280395508, 1.9357147829079935e-11, 0.649676501750946, 0.8140947818756104, 0.7940104007720947, 0.9095121026039124, 0.9420963525772095, 3.4361999912135843e-09, 0.8780214190483093, 0.6476140022277832, -0.010467849671840668, 0.6472007632255554, 0.6905444264411926, 0.9884434938430786, -0.2169094979763031, 0.09813108295202255, 0.7955866456031799, 4.250429869179229e-12, 0.7815071940422058, 0.9541848301887512, 3.0454891386533234e-10, 0.6299465894699097, 0.0011144910240545869, 0.9154140949249268, 0.8585882186889648], [0.705089807510376, 0.8465861678123474, 0.48211735486984253, -0.0004163335543125868, 0.7587624788284302, 0.5180596709251404, -0.048110995441675186, 0.8111401200294495, -8.770701498406197e-09, 0.8771628737449646, 0.4449593722820282, 0.48229163885116577, 0.6639130115509033, 0.8633664846420288, 9.738015949167789e-11, 0.8496192693710327, 0.6332436800003052, 6.051087408920353e-10, 0.8426547050476074, 0.7088350653648376, 0.7259792685508728, -0.0851345881819725, -0.18554823100566864, 0.8748400807380676, -2.122557463124508e-09, 0.5687549114227295, 0.7650286555290222, 0.031488049775362015, 0.4455905258655548, 0.03426482900977135, 0.5224912762641907, 0.7550041079521179], [0.707423210144043, 0.6604531407356262, 0.3689979612827301, 0.18075090646743774, 0.29347744584083557, 0.3293581008911133, -0.17161034047603607, 0.2910044193267822, -1.102279489906266e-09, 0.32091259956359863, 0.6978265047073364, 0.70253586769104, 0.216124027967453, 0.4588305950164795, -0.09897565096616745, 0.34576964378356934, 0.6680700182914734, 0.16696788370609283, 0.3084711730480194, 0.31794029474258423, 0.5349023342132568, 0.13675957918167114, 0.1930333375930786, 0.5387833714485168, -2.197586335128676e-09, 0.26372605562210083, 0.47009938955307007, -0.09707900136709213, 0.22561508417129517, -0.09013178944587708, 0.614504337310791, 0.5355561971664429], [0.47170332074165344, 0.0763007402420044, 0.10745584964752197, -0.04699333757162094, 0.5897560119628906, 0.1869567483663559, 0.19174811244010925, 0.3579285144805908, -0.07096406072378159, 0.5554013252258301, 0.18747979402542114, 0.45909783244132996, 0.050261110067367554, 0.43668028712272644, 0.14510086178779602, 0.42411935329437256, 0.2808076739311218, -0.015487657859921455, 0.36152493953704834, 0.2970971465110779, 0.1603228747844696, 0.17846444249153137, -0.010312092490494251, -0.03299679979681969, -2.5079873941513675e-11, 0.4084383249282837, 0.3492436110973358, 0.17344914376735687, 0.04334146901965141, 0.18884259462356567, 0.34640055894851685, 0.17995469272136688], [0.7445721626281738, 0.7611352205276489, 0.6205824613571167, 0.04863934591412544, 0.44152867794036865, 0.3186415731906891, 0.14003506302833557, 0.6825045347213745, 0.022351756691932678, 0.654874861240387, 0.43492475152015686, 0.35670337080955505, 0.7386462092399597, 0.7507718801498413, -0.16033394634723663, 0.5205827951431274, 0.7550538182258606, -2.0103499420720539e-10, 0.4014344811439514, 0.6719765663146973, 0.7288695573806763, -0.2185831516981125, -0.14337800443172455, 0.6252217888832092, -1.9911830864693947e-11, 0.47102591395378113, 0.6826310157775879, 1.3738370441274128e-08, 0.5716520547866821, -0.1430429071187973, 0.4061403274536133, 0.523485004901886], [0.652369499206543, 0.8204432725906372, 0.7631272077560425, 0.02214689925312996, 0.5400660634040833, 0.4188103675842285, 0.118382528424263, 0.652804970741272, -0.09245514869689941, 0.8134213089942932, 0.7544866800308228, 0.7190783023834229, 0.29953134059906006, 0.4343966543674469, 0.16406762599945068, 0.33030009269714355, 0.7983187437057495, -6.88808510229677e-10, 0.820639431476593, 0.7781951427459717, 0.8132664561271667, 0.15298466384410858, -0.13368873298168182, 0.585685133934021, -2.914252172914189e-11, 0.5552986860275269, 0.477308064699173, 0.17026209831237793, 0.6844956278800964, 0.039613425731658936, 0.7049220204353333, 0.3987123966217041], [0.5024163722991943, 0.20398685336112976, 0.18639422953128815, 0.1673690378665924, 0.5828630328178406, 0.149468794465065, 0.032013457268476486, 0.37602826952934265, -0.08191721886396408, 0.31828901171684265, 0.2578316628932953, 0.1212490126490593, 0.3042635917663574, 0.05061620473861694, -0.1879800707101822, 0.056857284158468246, 0.2715613842010498, 1.101412971243887e-11, 0.45491892099380493, 0.3803243935108185, 0.1563871055841446, -0.05967537313699722, 0.08603627234697342, 0.3171052634716034, 8.335280243798593e-10, 0.23846198618412018, 0.13038253784179688, -0.04410892724990845, 0.27735763788223267, -0.1991991549730301, 0.1422770917415619, 0.31233009696006775], [1.0001119375228882, 0.8375998139381409, 0.9095772504806519, 1.2232491929109468e-11, 0.9515476822853088, 0.5468959212303162, -0.1197424903512001, 0.4378027319908142, -2.5691802851834922e-11, 0.9744541049003601, 0.7809888124465942, 0.5796598792076111, 0.9139418005943298, 0.9005557894706726, -3.6905878353366006e-10, 0.7285524606704712, 0.7198538184165955, -1.97031245485757e-11, 0.6160262227058411, 0.9535905718803406, 0.8759238123893738, -0.24646413326263428, 0.019698817282915115, 0.6200746893882751, -5.308098795578364e-13, 0.7458038330078125, 0.46336132287979126, 8.908683235553383e-10, 0.5441250205039978, 0.002023411216214299, 0.7975208163261414, 0.5410229563713074], [0.9341609477996826, 0.9497672319412231, 0.6061652898788452, -0.0011328007094562054, 0.5813582539558411, 0.7871736884117126, -0.0637524351477623, 0.532593309879303, 1.2979783914346399e-09, 0.9533010721206665, 0.6377736926078796, 0.6645559072494507, 0.8437411785125732, 0.5165112018585205, -0.13362571597099304, 0.6541172862052917, 0.9490599632263184, 0.16249185800552368, 0.7449512481689453, 0.9370630383491516, 0.7306692600250244, 0.1442447006702423, 0.050821561366319656, 0.8776608109474182, 5.872049513300226e-09, 0.7520314455032349, 0.6575864553451538, -2.9771932141819946e-10, 0.8292261362075806, -0.25514698028564453, 0.6266955733299255, 0.5901127457618713], [0.7528421878814697, 1.07993745803833, 0.9231393337249756, -1.0283732893023867e-10, 1.1373761892318726, 0.812156617641449, 0.20495012402534485, 0.6623210310935974, 0.05923370271921158, 1.1798368692398071, 0.8938460946083069, 1.0090194940567017, 0.8266537189483643, 1.0217167139053345, -0.00010636146907927468, 0.903581976890564, 1.1750164031982422, -4.153083987823436e-10, 0.7816511988639832, 1.0443027019500732, 0.8761311173439026, -0.1994493454694748, 0.15182898938655853, 1.047922968864441, -8.871747780858641e-10, 0.7844040393829346, 0.9655787944793701, 1.5373534043017223e-11, 0.7572157382965088, 0.1686536818742752, 0.5593471527099609, 0.6447868347167969], [0.7668194770812988, 0.8989943265914917, 0.5531869530677795, 0.07161419838666916, 0.5292496681213379, 0.7060263156890869, -0.024534454569220543, 0.5001384615898132, -0.04431864246726036, 0.5917173624038696, 0.8779343962669373, 0.5377596020698547, 0.5966511964797974, 0.7229031920433044, -0.12776492536067963, 0.8145905137062073, 0.6723530888557434, -1.916462322171242e-09, 0.6068782806396484, 0.5641903877258301, 0.5373729467391968, 0.13882875442504883, 0.013808543793857098, 0.45036226511001587, 8.495238401629024e-10, 0.8390729427337646, 0.6133739352226257, -0.0004255422973074019, 0.6107842326164246, -0.09107005596160889, 0.9101554751396179, 0.6894758939743042], [0.2553318440914154, 0.553422212600708, 0.16617348790168762, -0.19736714661121368, 0.5564321279525757, 0.5676313638687134, 0.00967738963663578, 0.45276781916618347, -0.06559735536575317, 0.6213627457618713, 0.5513456463813782, 0.3297485411167145, 0.1418910175561905, 0.24361510574817657, 0.09970385581254959, 0.2956271767616272, 0.2831673324108124, -0.00886423047631979, 0.4686623215675354, 0.5424379110336304, 0.3438126742839813, 0.16183902323246002, 0.09556141495704651, 0.3207511007785797, 1.960830369601707e-12, 0.19098372757434845, 0.4280034005641937, -0.1365545690059662, 0.13002203404903412, 0.026288382709026337, 0.2834217846393585, 0.4701939523220062], [0.347267210483551, 0.3204799294471741, 0.27549293637275696, 0.09833791851997375, 0.49816587567329407, 0.29610106348991394, 0.17299889028072357, 0.22868213057518005, -0.043050192296504974, 0.6528651118278503, 0.447742760181427, 0.29495885968208313, 0.4183947443962097, 0.43152564764022827, 0.05299701169133186, 0.4737933576107025, 0.5597452521324158, 0.09133143723011017, 0.7293598055839539, 0.5290858149528503, 0.6266052722930908, 0.0695989727973938, -0.13566510379314423, 0.5977941155433655, 2.641301899419801e-10, 0.49508216977119446, 0.5675676465034485, 0.19790667295455933, 0.4254239499568939, -0.09795115888118744, 0.5592765808105469, 0.2825353443622589], [0.7004486322402954, 0.38137635588645935, 0.40246501564979553, 0.00043306054431013763, 0.4174988567829132, 0.7618873715400696, 0.11109801381826401, 0.6526886820793152, 0.12722478806972504, 0.4646311402320862, 0.6754313111305237, 0.6502442955970764, 0.44189417362213135, 0.6172410249710083, -0.0023251306265592575, 0.5825701355934143, 0.9152531623840332, -6.014671427578833e-09, 0.4758729636669159, 0.675275981426239, 0.8416945338249207, -0.026091093197464943, 0.03253943473100662, 0.8452870845794678, -3.138368676047776e-09, 0.583433985710144, 0.6129629015922546, -1.9658907834951833e-09, 0.5902791023254395, -0.23855020105838776, 0.6387225985527039, 0.7276378273963928], [0.5600816607475281, 0.7989729642868042, 0.7923139333724976, -0.1367691457271576, 0.47077488899230957, 0.4992145895957947, -0.238300159573555, 0.6152726411819458, 0.012460790574550629, 0.8491503596305847, 0.8289069533348083, 0.5717114210128784, 0.7706729769706726, 0.4477609395980835, -0.1640714555978775, 0.6735159158706665, 0.546647846698761, 1.0155882385065595e-10, 0.8924255967140198, 0.6568390727043152, 0.5718728303909302, -0.15412476658821106, -0.03604775294661522, 0.5125898718833923, -2.863177195333577e-10, 0.7723249197006226, 0.5032311081886292, -0.02391825243830681, 0.5815325379371643, 0.04349329695105553, 0.44940993189811707, 0.5952850580215454], [0.8256882429122925, 0.4697812795639038, 0.7638344168663025, -0.14351056516170502, 0.63260817527771, 0.6383836269378662, -0.20763088762760162, 0.6392840147018433, 0.11871497333049774, 0.8514364957809448, 0.5729299783706665, 0.6274475455284119, 0.7345069050788879, 0.8688913583755493, -1.491101464523581e-09, 0.7969589829444885, 1.0407127141952515, 1.824188439192298e-10, 0.6192871928215027, 0.8886168003082275, 0.7270750999450684, -0.13190393149852753, -0.004845260642468929, 0.7600547671318054, -5.835654182106964e-10, 0.5162887573242188, 0.9681365489959717, 0.04228654503822327, 0.6533588171005249, 0.14191573858261108, 0.5074276924133301, 0.750223696231842], [0.7434118390083313, 0.5196456909179688, 0.5228404402732849, 2.015435561497636e-11, 0.8496199250221252, 0.7884950041770935, 0.03840993717312813, 0.6129505634307861, -2.068684556988387e-09, 0.7140505313873291, 0.8143123984336853, 0.8048149943351746, 0.7863492965698242, 0.46392765641212463, 0.1555503010749817, 0.7573035359382629, 0.5160462856292725, -9.141661386213862e-12, 0.5629055500030518, 0.6659041047096252, 0.7112078666687012, 0.12622910737991333, 0.10737140476703644, 0.8085009455680847, -3.741727760964153e-11, 0.45980894565582275, 0.5334499478340149, 1.7142432398031815e-06, 0.46907931566238403, 0.010110913775861263, 0.47433653473854065, 0.7967976331710815], [0.6534513235092163, 0.4970247149467468, 0.5825700759887695, -0.09738709032535553, 0.6927822828292847, 0.8691790103912354, 0.11064275354146957, 0.45078521966934204, 1.162794374676146e-10, 0.44937223196029663, 0.42838653922080994, 0.5460591316223145, 0.5015697479248047, 0.6336699724197388, 0.05561750754714012, 0.6390447020530701, 0.8651803135871887, -0.18935102224349976, 0.5841071009635925, 0.8284719586372375, 0.8139206767082214, 0.16444845497608185, -0.0860021635890007, 0.7793225049972534, 4.198973460600719e-11, 0.7726299166679382, 0.5715755820274353, 2.203269164335886e-11, 0.6457218527793884, -0.001436087884940207, 0.6323378086090088, 0.6616828441619873], [0.47740817070007324, 0.22749094665050507, 0.3853541314601898, -0.031687237322330475, 0.6693872213363647, 0.5747008919715881, -0.20326989889144897, 0.5182743668556213, 0.04374667629599571, 0.38787299394607544, 0.5501450896263123, 0.27868008613586426, 0.4540146291255951, 0.5066353678703308, -0.09457184374332428, 0.4816315472126007, 0.3707384467124939, -0.20146608352661133, 0.5805392265319824, 0.5650349259376526, 0.4899735450744629, 0.0367504358291626, 0.02367604896426201, 0.3572181165218353, -6.290707954548225e-09, 0.24545098841190338, 0.3316637873649597, -0.09005814790725708, 0.23489658534526825, -0.08552037179470062, 0.374025821685791, 0.2841220498085022], [0.7280206680297852, 0.7136461734771729, 0.4743010997772217, -0.17086976766586304, 0.5593416690826416, 0.43763467669487, 0.034394048154354095, 0.32481563091278076, 5.415951020992793e-10, 0.8020032048225403, 0.8281184434890747, 0.6897180080413818, 0.6520764231681824, 0.7180575728416443, 0.14845594763755798, 0.6983674764633179, 0.6149369478225708, -6.621939663276066e-10, 0.6083855628967285, 0.8498745560646057, 0.7971161007881165, -0.1167059913277626, -0.16061566770076752, 0.7079625725746155, 8.558977138140023e-11, 0.48606640100479126, 0.4685029089450836, -6.368135352374793e-09, 0.6773671507835388, -0.02728208713233471, 0.47044968605041504, 0.7417137026786804], [0.2754859924316406, 0.35192540287971497, 0.3768238127231598, -0.05552106350660324, 0.5270224809646606, 0.6482853293418884, -0.031012294813990593, 0.5449855327606201, 0.09945151954889297, 0.37881985306739807, 0.23427540063858032, 0.4739660620689392, 0.4859163463115692, 0.399549275636673, -0.06593012064695358, 0.27667275071144104, 0.48159414529800415, -0.09119589626789093, 0.41196581721305847, 0.3191419243812561, 0.5391892194747925, -0.01848379150032997, 0.20085890591144562, 0.169491708278656, -7.901138632249172e-10, 0.46839720010757446, 0.5320715308189392, -0.1255829632282257, 0.362907737493515, -0.079764224588871, 0.2618134915828705, 0.2267860621213913], [0.4351103603839874, 0.19948194921016693, 0.30096787214279175, 0.11294638365507126, 0.5298546552658081, 0.6416841745376587, 0.19353871047496796, 0.1983012706041336, -0.15207169950008392, 0.4248649775981903, 0.20009714365005493, 0.4053272604942322, 0.28384163975715637, 0.3800017237663269, 0.18145081400871277, 0.4802245497703552, 0.6239517331123352, -0.15309566259384155, 0.3625904321670532, 0.22951336205005646, 0.24131245911121368, 0.027095213532447815, -0.059288185089826584, 0.2473665028810501, 5.7094232119858646e-11, 0.19047057628631592, 0.4948446750640869, 0.08743104338645935, 0.42142239212989807, -0.14018180966377258, 0.39267924427986145, 0.09715407341718674], [0.41891708970069885, 0.4753212034702301, 0.43232589960098267, -0.03662944957613945, 0.5302659273147583, 0.46302202343940735, -0.027790557593107224, 0.5664889216423035, -0.12108397483825684, 0.4086821973323822, 0.39213380217552185, 0.6838313937187195, 0.3924826979637146, 0.48096585273742676, 0.0055766901932656765, 0.4879189729690552, 0.41840773820877075, -0.14523182809352875, 0.7489956021308899, 0.6853660941123962, 0.5766855478286743, 0.1673029512166977, -0.20984122157096863, 0.5059553980827332, 1.6949594505710763e-11, 0.6055551767349243, 0.5792478322982788, -7.717357308756334e-10, 0.1576744019985199, 0.0003276901552453637, 0.5937772393226624, 0.5691247582435608], [0.8581563234329224, 0.7696474194526672, 0.578953742980957, 0.0029433860909193754, 0.6884148120880127, 0.973813533782959, -0.016502832993865013, 0.861478865146637, -1.4691316607695626e-08, 0.9084964394569397, 0.6237003207206726, 0.779028594493866, 1.016847848892212, 0.5909674763679504, -0.13764417171478271, 0.597008466720581, 0.6349217891693115, 6.809096841919882e-09, 0.9661141633987427, 0.6224567294120789, 0.9369712471961975, -0.11473549902439117, -0.17681078612804413, 0.8513234853744507, -5.855571583168739e-10, 0.5459679365158081, 0.9023835062980652, 6.273900843289937e-10, 0.6519337296485901, 0.10140758007764816, 0.8353854417800903, 0.6563640832901001], [0.633172869682312, 0.7051255106925964, 0.9149810671806335, 2.176869173808882e-08, 0.6944863200187683, 0.7965613603591919, 0.10888133943080902, 0.636837363243103, -0.11997722834348679, 0.8867950439453125, 0.5442889928817749, 0.9029030799865723, 0.607160210609436, 0.8147532343864441, -0.007158826570957899, 0.7448313236236572, 0.5166038870811462, -3.8463635054775125e-11, 0.871708869934082, 0.7529785633087158, 0.47156599164009094, -0.11246766895055771, -0.219133198261261, 0.6964752078056335, 4.9778683397505574e-09, 0.8581684827804565, 0.8936083316802979, 1.0516859084985786e-11, 0.5903136134147644, -0.1964282989501953, 0.7345579266548157, 0.5008975267410278], [0.44400477409362793, 0.6876524090766907, 0.36033427715301514, 0.08691731840372086, 0.3412683308124542, 0.47849133610725403, -0.09248638898134232, 0.21996890008449554, -0.009576424024999142, 0.5299670696258545, 0.6245141625404358, 0.5816061496734619, 0.29089242219924927, 0.45342716574668884, 0.13452164828777313, 0.08271774649620056, 0.4454525113105774, -0.04664235562086105, 0.757299542427063, 0.7091253399848938, 0.49996742606163025, 0.17722010612487793, -0.229251891374588, 0.5391668081283569, -2.480193654619267e-11, 0.6638010144233704, 0.3329932391643524, 0.06874062120914459, 0.21721188724040985, -0.19867673516273499, 0.5026041269302368, 0.15976068377494812], [0.28142988681793213, 0.41202810406684875, 0.2828269600868225, -0.002615224104374647, 0.6351770162582397, 0.6695405840873718, 0.1714082807302475, 0.37199509143829346, 0.004523157142102718, 0.7815901637077332, 0.4238285422325134, 0.6199432015419006, 0.5274538397789001, 0.49365904927253723, -2.7562669924208194e-09, 0.3505466878414154, 0.34622475504875183, -0.05767570063471794, 0.26753488183021545, 0.6962705254554749, 0.41378602385520935, -0.12935692071914673, -0.2090979367494583, 0.38877809047698975, 7.113798439206676e-10, 0.5770331621170044, 0.5450012683868408, -0.13164860010147095, 0.2717611789703369, -0.09852396696805954, 0.5791614055633545, 0.2800558805465698], [0.7160401344299316, 0.8670734763145447, 0.5943776965141296, -1.88440262718359e-05, 0.513744592666626, 0.4516345262527466, -0.030941473320126534, 0.6576128602027893, 0.18011564016342163, 0.7371542453765869, 0.5236482620239258, 0.5518099665641785, 0.8557165861129761, 0.859805703163147, -0.07276365906000137, 0.49122291803359985, 0.5590903759002686, 3.993988473283139e-11, 0.5807382464408875, 0.9155071377754211, 0.61479252576828, 0.007716655265539885, 0.0610552653670311, 0.53835529088974, 1.727279097529788e-09, 0.4638037383556366, 0.4674234688282013, 0.0017639201832935214, 0.745116651058197, 0.19959217309951782, 0.5904077887535095, 0.6625855565071106]], "bias": [0.7814017534255981, 0.7756423354148865, 0.7086092233657837, 0.00038157368544489145, 0.8458914756774902, 0.8126833438873291, -0.02849157527089119, 0.6314393877983093, -0.01499492209404707, 0.8564466238021851, 0.7706141471862793, 0.7464599013328552, 0.6775784492492676, 0.7062528133392334, -0.01655992493033409, 0.6147974133491516, 0.8404650092124939, -0.006476044654846191, 0.8019735813140869, 0.7718180418014526, 0.7473891377449036, -0.04890471324324608, -0.03653201833367348, 0.732732892036438, 0.0, 0.7305945158004761, 0.7219678163528442, -0.012843778356909752, 0.6123978495597839, -0.02996436320245266, 0.672426164150238, 0.6392897963523865]}, {"tipo": "Dense", "activation": "relu", "weights": [[-0.20815524458885193, 0.23126371204853058, 0.6383559107780457, 0.4718075692653656, -0.06485249847173691, 0.6555375456809998, -0.36697036027908325, -0.09883159399032593, 0.3096921741962433, -0.15274018049240112, 0.957931637763977, -0.2892967164516449, 0.4248550832271576, 0.46124815940856934, 0.156166210770607, -0.31642287969589233], [0.03286953642964363, 0.21917517483234406, 0.5963658690452576, 0.4723590612411499, -0.040009576827287674, 0.8899548053741455, -0.40399736166000366, -0.23590785264968872, -0.16162890195846558, -0.06879409402608871, 0.5103086233139038, -0.10990329086780548, 0.7643590569496155, 0.6390842199325562, -0.10607731342315674, -0.0025245225988328457], [0.19112010300159454, 0.8547313809394836, 0.6658540368080139, 0.2510209083557129, -0.31081730127334595, 0.40008071064949036, -0.057489603757858276, -0.010589135810732841, -0.21067065000534058, -0.4010610282421112, 0.4765579104423523, 0.29962387681007385, 0.8488918542861938, 0.424652636051178, 0.2670968174934387, -0.03535027429461479], [-0.29326242208480835, -0.33788609504699707, -0.01604609563946724, -0.3031712770462036, 0.23142115771770477, 0.15064580738544464, -0.14476598799228668, -0.18336792290210724, -0.20375987887382507, -0.09906046837568283, 0.10560116916894913, 0.12597036361694336, 0.24247650802135468, 0.05669887363910675, 0.022903338074684143, 0.3530900180339813], [-0.28202641010284424, 0.6358073949813843, 0.663756787776947, 0.46776050329208374, 0.17789795994758606, 0.6958128809928894, 0.17151500284671783, -0.205738365650177, -0.02112876996397972, 0.005184760317206383, 0.6140555143356323, 0.07605455070734024, 0.24329036474227905, 0.3357754945755005, 0.15517213940620422, 0.08424825221300125], [0.1892920285463333, 0.7765165567398071, 0.8357523679733276, 0.585608184337616, -0.06742526590824127, 0.5233169794082642, 0.29722845554351807, 0.12863081693649292, -0.060083698481321335, 0.11895756423473358, 0.6368168592453003, -0.07123611122369766, 0.2885398864746094, 0.5384186506271362, -0.34386083483695984, -0.05896127223968506], [0.0801645964384079, 0.29352498054504395, -0.30671656131744385, 0.3628460764884949, 0.332327663898468, 0.25209468603134155, -0.03871455416083336, 0.028487447649240494, -0.3261478841304779, 0.2007552832365036, 0.17942959070205688, 0.24908742308616638, -0.08668757975101471, -0.18523173034191132, -0.2952090799808502, -0.22921758890151978], [-0.1717545986175537, 0.7629997730255127, 0.47664543986320496, 0.36966535449028015, -0.11218230426311493, 0.5826914310455322, 0.17131264507770538, -0.15356722474098206, -0.25236594676971436, 0.15271766483783722, 0.6503241658210754, -0.3478653132915497, 0.36799439787864685, 0.6912511587142944, -0.29859548807144165, -0.31417223811149597], [0.25094348192214966, 0.04855356737971306, -0.13922275602817535, -0.19509181380271912, 0.18251879513263702, -0.0665258839726448, 0.10543326288461685, 0.2730557322502136, -0.2590944170951843, -0.2073293924331665, 0.10580525547266006, 0.3463553488254547, -0.05906748026609421, -0.18010415136814117, -0.15762174129486084, 0.10706132650375366], [0.04859158769249916, 0.5951662063598633, 0.7163989543914795, 0.5628442168235779, -0.20335228741168976, 0.799129843711853, 0.1779765784740448, 0.03375782445073128, -0.27629414200782776, 0.0022625571582466364, 0.7414432168006897, -0.22571080923080444, 0.8180187940597534, 0.4602905809879303, 0.03820452094078064, 0.3399181663990021], [0.03039446845650673, 0.8036062717437744, 0.5493159890174866, 0.4802462160587311, 0.06983821839094162, 0.9534651041030884, 0.18275195360183716, -0.05016602203249931, 0.30035197734832764, 0.13484811782836914, 0.7251273393630981, 0.022353870794177055, 0.5090988874435425, 0.8955954909324646, -0.12629321217536926, 0.03651072084903717], [0.05155355483293533, 0.6682384610176086, 0.487656831741333, 0.7155773639678955, -0.2164612114429474, 0.36777520179748535, -0.14494459331035614, 0.21568720042705536, -0.25539931654930115, 0.20314833521842957, 0.78014075756073, -0.2729063332080841, 0.4494924545288086, 0.3962695002555847, 0.25082290172576904, 0.18697011470794678], [0.043048977851867676, 0.6352014541625977, 0.6962454915046692, 0.4515770971775055, 0.05655348300933838, 0.48075810074806213, -0.2510095536708832, -0.3280082046985626, 0.22011114656925201, 0.2455703616142273, 0.5616249442100525, 0.06727477163076401, 0.40925925970077515, 0.6359188556671143, -0.1415673941373825, 0.02319655381143093], [-0.3598383069038391, 0.25866878032684326, 0.28873807191848755, 0.8019403219223022, 0.0926608070731163, 0.4242493808269501, -0.24976935982704163, -0.29648569226264954, -0.0061444188468158245, -0.39677953720092773, 0.5322374105453491, -0.34223759174346924, 0.8868445158004761, 0.8348172307014465, -0.24067988991737366, 0.1350344866514206], [0.3405752182006836, -0.15669439733028412, -0.20565155148506165, 0.19974876940250397, -0.3192353844642639, 0.17010942101478577, -0.03737166151404381, -0.051366738975048065, -0.3013099431991577, -0.1890546977519989, 0.337385356426239, -0.021404040977358818, -0.19850851595401764, -0.3272109627723694, -0.18767842650413513, -0.15490011870861053], [0.3074221611022949, 0.3040662705898285, 0.6365391612052917, 0.5113636255264282, -0.0762418657541275, 0.7012977600097656, -0.2109593152999878, 0.32564735412597656, 0.16356176137924194, 0.001963173970580101, 0.3802972435951233, 0.22830776870250702, 0.450822114944458, 0.6077589988708496, -0.32806622982025146, 0.17426468431949615], [0.318051815032959, 0.8825784921646118, 0.540451169013977, 0.5612173676490784, -0.17099472880363464, 0.32927989959716797, 0.10932397097349167, 0.016061173751950264, -0.139450341463089, 0.08216210454702377, 0.43973684310913086, 0.13026387989521027, 0.6170315742492676, 0.6357617378234863, 0.05830381438136101, 0.024075381457805634], [-0.08965998888015747, -0.061592742800712585, -0.015499182976782322, 0.04277901351451874, -0.2598205804824829, -0.009052555076777935, -0.17645157873630524, 0.1853325366973877, -0.24741679430007935, 0.0843975618481636, -0.282280296087265, -0.10113108903169632, -0.014190664514899254, -0.01872953772544861, -0.35550767183303833, -0.17691004276275635], [-0.16970306634902954, 0.7763919234275818, 0.45802241563796997, 0.7746884822845459, -0.1490761786699295, 0.4563293159008026, 0.13117849826812744, -0.2965753674507141, 0.002734777983278036, 0.14384718239307404, 0.5581589341163635, 0.07785408198833466, 0.350053608417511, 0.4368340075016022, -0.2405189573764801, 0.12976674735546112], [0.18130144476890564, 0.4796582758426666, 0.5521157383918762, 0.44458794593811035, -0.3612559139728546, 0.6859468221664429, 0.12582136690616608, 0.25748324394226074, -0.1982676237821579, -0.2231673300266266, 0.6964550614356995, 0.23121029138565063, 0.7042620778083801, 0.2826010286808014, 0.2692144513130188, -0.03374682366847992], [-0.16041281819343567, 0.676784336566925, 0.5179169178009033, 0.4174244701862335, -0.2657284140586853, 0.7578569054603577, 0.20128843188285828, -0.010984609834849834, 0.20093053579330444, -0.022112933918833733, 1.016676902770996, 0.22094452381134033, 0.7495620846748352, 0.6550660133361816, -0.03629600629210472, -0.21737289428710938], [0.05746845528483391, -0.20779690146446228, -0.17846697568893433, -0.32020634412765503, -0.3407984972000122, 0.2608303725719452, -0.3394625186920166, 0.0077969105914235115, 0.10412199050188065, -0.016172656789422035, -0.13560833036899567, -0.0038372317794710398, -0.09996738284826279, 0.18685652315616608, 0.2595398426055908, 0.03999807685613632], [0.33250173926353455, -0.11780700832605362, 0.15933550894260406, 0.17686837911605835, -0.1078927218914032, 0.3774378299713135, 0.2604087293148041, -0.13329653441905975, -0.15883781015872955, 0.25545254349708557, 0.3233974277973175, 0.07945223897695541, -0.2419678121805191, -0.22167660295963287, 0.20076824724674225, -0.35568612813949585], [-0.3035469949245453, 0.5201507806777954, 0.6811225414276123, 0.5847846865653992, -0.2535625100135803, 0.6558231115341187, 0.0035871712025254965, -0.11459038406610489, 0.20700089633464813, 0.31791555881500244, 0.9033517241477966, 0.09326471388339996, 0.6335451602935791, 0.19212706387043, 0.30049318075180054, 0.09463401138782501], [-0.22861874103546143, 0.28359052538871765, 0.11396649479866028, -0.13191011548042297, -0.09738871455192566, -0.1779954880475998, 0.016093194484710693, -0.04441913962364197, -0.14543494582176208, 0.16734424233436584, -0.3126154839992523, 0.07487943768501282, 0.3450174629688263, -0.3434775173664093, -0.13696148991584778, -0.025815188884735107], [0.13104476034641266, 0.6035639047622681, 0.42402568459510803, 0.7330735921859741, -0.009871496818959713, 0.8835305571556091, -0.288565993309021, 0.23584692180156708, -0.3061811923980713, 0.07204888761043549, 0.8874900341033936, -0.2176986187696457, 0.5026458501815796, 0.7705721259117126, -0.1398734152317047, -0.043509528040885925], [0.3138032555580139, 0.9259310960769653, 0.3478453457355499, 0.7630836367607117, -0.2348356395959854, 0.9031469821929932, 0.31836023926734924, 0.26549848914146423, 0.3096567392349243, 0.10999393463134766, 1.0572113990783691, 0.09526514261960983, 0.8149949312210083, 0.3788767158985138, 0.3089711368083954, -0.21870088577270508], [-0.0529421865940094, 0.24586203694343567, 0.15297332406044006, -0.2354593425989151, 0.1735563576221466, 0.2418590635061264, -0.2639675438404083, -0.002761931624263525, -0.06856557726860046, 0.28503429889678955, 0.33196762204170227, 0.1123209148645401, -0.33784887194633484, -0.1435038298368454, -0.08015365898609161, 0.16142186522483826], [-0.170528382062912, 0.3557319939136505, 0.755236804485321, 0.40132102370262146, 0.32321229577064514, 0.6826489567756653, 0.05545605346560478, 0.0036333242896944284, -0.2232649326324463, -0.09854672849178314, 0.7269235849380493, -0.35863491892814636, 0.8171387910842896, 0.5948091745376587, 0.31970852613449097, -0.1987827569246292], [0.2715238034725189, -0.09543515741825104, -0.25106334686279297, 0.11050520092248917, 0.02588791400194168, -0.2804201543331146, 0.25678157806396484, 0.1659952849149704, -0.22135518491268158, -0.018933799117803574, 0.07266786694526672, 0.03739031404256821, 0.0553225502371788, -0.19547933340072632, -0.2622794806957245, -0.04605638235807419], [-0.35975539684295654, 0.31402504444122314, 0.477668821811676, 0.6762282848358154, 0.2141314297914505, 0.6331073641777039, 0.04490025341510773, -0.06166429817676544, 0.10925540328025818, -0.07154973596334457, 0.9799835681915283, -0.04091726616024971, 0.23916468024253845, 0.44345229864120483, -0.27775928378105164, -0.24716264009475708], [-0.176454558968544, 0.3260788917541504, 0.7548849582672119, 0.4879055321216583, -0.1393708884716034, 0.8429543972015381, -0.08113157004117966, -0.36277714371681213, -0.029451170936226845, -0.21184487640857697, 1.0014415979385376, 0.029245499521493912, 0.7515833973884583, 0.6749855279922485, -0.14434607326984406, 0.24127423763275146]], "bias": [-0.02551065944135189, 0.752176821231842, 0.6626095175743103, 0.7455180287361145, -0.01431099884212017, 0.783919632434845, -0.042326025664806366, -0.015587916597723961, -0.03351009264588356, -0.04918554797768593, 0.9544762372970581, -0.0108714047819376, 0.7405402064323425, 0.6728160977363586, -0.009772177785634995, -0.013900703750550747]}, {"tipo": "Dense", "activation": "linear", "weights": [[-0.21165518462657928], [1.1259208917617798], [0.9587627053260803], [0.7703331708908081], [-0.2020140439271927], [0.5809763073921204], [-0.025135546922683716], [-0.3562754690647125], [-0.1389634758234024], [-0.3189067840576172], [0.5968300104141235], [-0.27903664112091064], [1.1678435802459717], [0.9693238139152527], [-0.2828081250190735], [-0.17709821462631226]], "bias": [0.7074134945869446]}]}