{"layers": [{"tipo": "Dense", "activation": "relu", "weights": [[0.5160393714904785, -0.24533869326114655, 0.37792229652404785, 0.24822720885276794, 0.3060389757156372, 0.3354698121547699, 0.2773978114128113, 0.19835692644119263, 0.1660088300704956, 0.36791813373565674, 0.28198692202568054, 0.3975256383419037, 0.33790701627731323, 0.04507068917155266, 0.5897682309150696, 0.49899861216545105, 0.36198195815086365, 0.19580240547657013, 0.1309109479188919, 0.3926888108253479, 0.46291205286979675, 0.3197743892669678, -0.0038509268779307604, 0.3656398355960846, 0.04146011546254158, 0.04759715124964714, 0.4331418573856354, 0.24002347886562347, 0.25778886675834656, 0.024961523711681366, 0.09109232574701309, 0.06442879140377045, 0.5063425302505493, 0.4032576084136963, 0.1716437190771103, 0.14415624737739563, 0.23521873354911804, 0.3111470341682434, 0.5662321448326111, 0.4576537311077118, 0.16601544618606567, 0.4080333113670349, 0.21209987998008728, 0.1866021752357483, 0.09669016301631927, 0.09524285048246384, 0.20755858719348907, 0.38729387521743774, 0.23764090240001678, 0.45242536067962646, 0.31650322675704956, 0.23831169307231903, 0.5846707224845886, 0.1156277060508728, 0.4018493592739105, 0.2904770076274872, -0.02318621054291725, 0.5237614512443542, 0.46944135427474976, 0.23959381878376007, 0.21660436689853668, 0.2951998710632324, 0.061772871762514114, 0.28068438172340393], [0.2531531751155853, -0.13964885473251343, 0.2637040317058563, 0.18788518011569977, 0.036045752465724945, 0.14257018268108368, 0.06788011640310287, 0.4824836254119873, 0.25926655530929565, 0.1574716866016388, 0.12047316879034042, 0.20981553196907043, 0.241441547870636, 0.025611508637666702, 0.2252492904663086, -0.04138544946908951, 0.1297689527273178, 0.3175414502620697, 0.03148738667368889, -0.05228443443775177, 0.4313427209854126, 0.1872325986623764, -0.10201361030340195, 0.14726638793945312, 0.3848746716976166, 0.23053915798664093, 0.3793538510799408, 0.3926343321800232, 0.07154101878404617, 0.09636498242616653, 0.11522304266691208, 0.49776992201805115, 0.1421084851026535, 0.3293828070163727, 0.3742930591106415, 0.14365141093730927, 0.3902769386768341, 0.3710824251174927, 0.041613124310970306, 0.42141348123550415, 0.00731125520542264, 0.4511343240737915, 0.38167446851730347, 0.11232854425907135, 0.3073174059391022, -0.03527900204062462, 0.4397459030151367, 0.37853100895881653, 0.08487546443939209, 0.4714842140674591, 0.4755696952342987, 0.46869805455207825, 0.32659825682640076, 0.13500502705574036, 0.005082918796688318, 0.08546056598424911, 0.388752281665802, 0.2108439952135086, -0.013441053219139576, 0.00753064313903451, 0.18811938166618347, -0.14316511154174805, 0.4495961666107178, 0.33306899666786194], [0.3292877972126007, -0.11226146668195724, 0.09241332858800888, 0.5202779769897461, 0.27376121282577515, 0.46352270245552063, 0.18770425021648407, 0.33850330114364624, 0.47440052032470703, 0.6396998763084412, 0.35705962777137756, 0.22040808200836182, 0.7046936750411987, 0.19901524484157562, 0.27485164999961853, 0.2533356249332428, 0.2450316697359085, 0.26463034749031067, 0.37655359506607056, 0.3351331055164337, 0.3069137930870056, 0.626753032207489, 0.05321270599961281, 0.6242983937263489, 0.38577646017074585, 0.6074146628379822, 0.4459247887134552, 0.494464635848999, 0.34600865840911865, 0.28525510430336, 0.4402852952480316, 0.646236002445221, 0.47480839490890503, 0.41688522696495056, 0.20951612293720245, 0.4515594244003296, 0.6141919493675232, 0.7128406167030334, 0.6737218499183655, 0.6077960729598999, 0.30170729756355286, 0.21610358357429504, 0.26198408007621765, 0.6507527828216553, 0.368536114692688, 0.20488981902599335, 0.5342352986335754, 0.2987195551395416, 0.5741891860961914, 0.32266804575920105, 0.5478219985961914, 0.47170355916023254, 0.5291013717651367, 0.5450934767723083, 0.4464094638824463, 0.4081980586051941, 0.5646732449531555, 0.20036041736602783, 0.2044086903333664, 0.4916643500328064, 0.5471810698509216, 0.28392934799194336, 0.5590261220932007, 0.301377534866333], [0.06084292754530907, -0.11307691037654877, 0.010924219153821468, -0.11935067176818848, 0.065191850066185, -0.07071073353290558, -0.13322490453720093, 0.360172837972641, 0.19134777784347534, -0.043211568146944046, -0.2694222927093506, 0.0021794044878333807, -0.08376070111989975, 0.03210565447807312, 0.030343804508447647, 0.2573049068450928, 0.011967849917709827, 0.1538417935371399, -0.029229240491986275, 0.2153601348400116, -0.01575705222785473, 0.3816424310207367, -0.33486902713775635, 0.21031107008457184, 0.26022931933403015, 0.3278150260448456, 0.2945592403411865, -0.08903992176055908, 0.1568065881729126, 0.1668555736541748, 0.07048596441745758, 0.26879292726516724, -0.13106366991996765, -0.0969160944223404, 0.3533628284931183, 0.1318284124135971, -0.05550331249833107, -0.034630998969078064, 0.19465066492557526, 0.21993733942508698, 0.12599629163742065, 0.282377153635025, 0.28055229783058167, -0.1050269678235054, 0.10050740092992783, -0.256771057844162, 0.22306694090366364, 0.28269869089126587, 0.30829858779907227, 0.15036971867084503, 0.07746052742004395, 0.11593804508447647, 0.016063258051872253, 0.10062287747859955, -0.22245833277702332, -0.004467899911105633, 0.1624087542295456, 0.27776962518692017, -0.02478388510644436, 0.13559679687023163, 0.1834132820367813, 0.06493066251277924, -0.04253625497221947, -0.028343768790364265], [0.45733392238616943, -0.04886885732412338, 0.060510676354169846, 0.16325561702251434, 0.1900605410337448, 0.3420526385307312, 0.015904277563095093, 0.19800034165382385, 0.23109641671180725, 0.3702845871448517, 0.27542147040367126, -0.023233558982610703, -0.0038546535652130842, -0.003813524264842272, 0.08836139738559723, 0.23318657279014587, 0.40051743388175964, 0.1512317955493927, 0.12241064757108688, 0.03073100559413433, 0.038515008985996246, 0.39646053314208984, -0.3058312237262726, 0.007033270318061113, 0.3837747573852539, -0.0017188061028718948, 0.28133928775787354, 0.1501796990633011, 0.45683714747428894, 0.3637634515762329, 0.38073983788490295, 0.3241909444332123, 0.23251259326934814, 0.33536311984062195, 0.1858806610107422, 0.0727837085723877, 0.21026089787483215, 0.10398965328931808, 0.23764243721961975, 0.2696450352668762, 0.03482005000114441, 0.1030561551451683, -0.14575521647930145, 0.27073386311531067, 0.14905233681201935, -0.2239496111869812, 0.024147523567080498, 0.06134694442152977, 0.3886175751686096, 0.2145349532365799, 0.014592820778489113, 0.051853638142347336, 0.17015643417835236, 0.40202775597572327, 0.005621839314699173, 0.21526186168193817, 0.4113498032093048, 0.14218991994857788, 0.21283680200576782, 0.2023332267999649, 0.0838518738746643, -0.012175767682492733, 0.451347291469574, 0.11760314553976059], [0.28282099962234497, -0.04887663945555687, 0.14764830470085144, 0.2962111234664917, 0.2220495045185089, 0.44597145915031433, 0.40842869877815247, 0.37112006545066833, 0.26899453997612, 0.38153913617134094, 0.07608411461114883, 0.1264083832502365, 0.204190194606781, 0.27354246377944946, 0.34727853536605835, 0.19806930422782898, 0.2582675814628601, 0.6297528743743896, 0.275556743144989, 0.1327163726091385, 0.2452055811882019, 0.14390870928764343, 0.40931808948516846, 0.2948199510574341, 0.14109984040260315, 0.4791943430900574, 0.19009296596050262, 0.166868656873703, 0.5389116406440735, 0.31338807940483093, 0.49491700530052185, 0.41034334897994995, 0.30768081545829773, 0.46890532970428467, 0.17051619291305542, 0.40676385164260864, 0.3813798129558563, 0.2560668885707855, 0.43148067593574524, 0.2473343014717102, 0.27955377101898193, 0.20907756686210632, 0.09322238713502884, 0.27083900570869446, 0.638766884803772, 0.053878672420978546, 0.2977590262889862, 0.45582306385040283, 0.5068098902702332, 0.2645655870437622, 0.08082149177789688, 0.25193673372268677, 0.15846671164035797, 0.3436722159385681, 0.35739654302597046, 0.11923124641180038, 0.3967205584049225, 0.49485528469085693, 0.37696489691734314, 0.13670773804187775, 0.1953744739294052, 0.21934521198272705, 0.2352139949798584, 0.34115830063819885], [0.8719141483306885, -0.0008505436708219349, 0.28461524844169617, 0.7678935527801514, 0.6237462759017944, 0.5222218632698059, 0.9149346947669983, 0.47231778502464294, 0.6192696690559387, 0.6547356843948364, 0.5608599185943604, 0.32663393020629883, 0.8467109203338623, 0.6866222620010376, 0.4144126772880554, 0.2410445511341095, 0.7902461886405945, 0.7678119540214539, 0.4567948877811432, 0.49957209825515747, 0.3088064193725586, 0.606716513633728, 0.29106301069259644, 0.7489808201789856, 0.49125000834465027, 0.39416879415512085, 0.5715970993041992, 0.434400349855423, 0.6473613381385803, 0.6997321248054504, 0.8668144345283508, 0.396544873714447, 0.7797318696975708, 0.3858550190925598, 0.7616468667984009, 0.6691088676452637, 0.5245476961135864, 0.6832056641578674, 0.38674378395080566, 0.5432742834091187, 0.3939877152442932, 0.4124103784561157, 0.8091320395469666, 0.6363861560821533, 0.7906533479690552, 0.5423817038536072, 0.5231150984764099, 0.32275569438934326, 0.831102728843689, 0.5690932273864746, 0.436730295419693, 0.7476927042007446, 0.6452429294586182, 0.546183168888092, 0.5845233201980591, 0.5374640226364136, 0.3160082995891571, 0.5800744295120239, 0.40081366896629333, 0.5580499172210693, 0.49258631467819214, 0.7320408821105957, 0.836438000202179, 0.7572418451309204], [-0.1458577811717987, 0.13983017206192017, 0.32694000005722046, 0.05343451723456383, 0.359819233417511, -0.0246550552546978, 0.00900014117360115, 0.06474479287862778, 0.43033549189567566, -0.07922948896884918, 0.1475094109773636, 0.225252166390419, 0.2707054316997528, 0.330143541097641, 0.3482625484466553, 0.00038244912866503, -0.019558679312467575, 0.14170363545417786, -0.32191047072410583, 0.363174170255661, 0.3795871138572693, -0.07863947749137878, 0.17665138840675354, 0.17517194151878357, 0.31052064895629883, 0.37060073018074036, -0.10680555552244186, 0.38939425349235535, -0.012967914342880249, 0.2486708164215088, 0.16512663662433624, 0.04378794878721237, -0.046049170196056366, 0.1938304305076599, 0.04730058088898659, 0.20965975522994995, -0.04310300201177597, -0.014581124298274517, 0.14133313298225403, 0.09091350436210632, 0.38262438774108887, -0.06932944804430008, 0.2458144873380661, 0.21689049899578094, 0.03549166023731232, -0.06848753988742828, 0.0021744370460510254, 0.4032991826534271, -0.07982859760522842, 0.07095450162887573, 0.009115221910178661, 0.05936611443758011, 0.12602262198925018, 0.15993067622184753, 0.2728337049484253, 0.012843487784266472, 0.35285136103630066, 0.40292274951934814, 0.3245364725589752, -0.0615304596722126, 0.3531248867511749, -0.0794810876250267, 0.30436229705810547, 0.26753556728363037]], "bias": [0.8715773224830627, -0.029646124690771103, 0.6234733462333679, 0.788952112197876, 0.8057076334953308, 0.675078272819519, 0.9041306376457214, 0.8738847374916077, 0.797719419002533, 0.8877508640289307, 0.6566572189331055, 0.6579087376594543, 0.8871219754219055, 0.7240262627601624, 0.8804975152015686, 0.73911452293396, 0.9328957200050354, 0.8712320923805237, 0.603549063205719, 0.736616313457489, 0.716332733631134, 0.9057101011276245, 0.26612627506256104, 0.8568630814552307, 0.6789591312408447, 0.7732413411140442, 0.7199584245681763, 0.721998393535614, 0.9054301381111145, 0.8365263938903809, 0.8753061890602112, 0.8014770746231079, 0.8950982689857483, 0.6312528848648071, 0.891198456287384, 0.7842385172843933, 0.8987964987754822, 0.9114111065864563, 0.8410845398902893, 0.7463846802711487, 0.7805540561676025, 0.8643086552619934, 0.7163178324699402, 0.9073062539100647, 0.8781448602676392, 0.6721805334091187, 0.8900930881500244, 0.7505334615707397, 0.8038029670715332, 0.9770198464393616, 0.8666561841964722, 0.9528146982192993, 0.9441796541213989, 0.8415403366088867, 0.7060958743095398, 0.7719981670379639, 0.7239492535591125, 0.8560068011283875, 0.7853066325187683, 0.9013669490814209, 0.9699642062187195, 0.6725472211837769, 0.8225536942481995, 0.908906102180481]}, {"tipo": "Dense", "activation": "relu", "weights": [[0.5943045020103455, 0.7646169066429138, 0.44494467973709106, 0.09911137819290161, 0.6761167645454407, 0.6529632210731506, -0.08437853306531906, 0.6948893666267395, -0.06864739954471588, 0.5904776453971863, 0.41214513778686523, 0.587829053401947, 0.31734275817871094, 0.36172720789909363, -0.16315142810344696, 0.3168107867240906, 0.5802791118621826, 0.11536557227373123, 0.5312640070915222, 0.4412323534488678, 0.6568126678466797, 0.002089548157528043, 0.18670585751533508, 0.629944384098053, -1.2567829799081665e-06, 0.5138158798217773, 0.4320460259914398, -0.19332964718341827, 0.4009639322757721, 0.17968939244747162, 0.3316255211830139, 0.45844098925590515], [-0.0047038947232067585, -0.09594578295946121, -0.13135722279548645, 1.565039013939895e-07, -0.0830117017030716, 0.044786643236875534, -0.07479414343833923, -0.055179886519908905, -0.006451802793890238, -0.06484860181808472, 0.12116731703281403, -0.006741227116435766, 0.12638269364833832, -0.02453736588358879, 0.09720217436552048, -0.04119957610964775, 0.04958308860659599, -6.718211807310581e-06, 0.09374375641345978, 0.07505185902118683, -0.10505535453557968, -0.06462996453046799, -0.0024299120996147394, 0.08625832200050354, 0.00016006386431399733, -0.019395750015974045, -0.10970059782266617, -4.700225326814689e-05, 0.059923090040683746, 0.16842421889305115, 0.025525344535708427, -0.12021788209676743], [0.31698352098464966, 0.2631264626979828, 0.36139625310897827, -0.16951891779899597, 0.6336327791213989, 0.25799939036369324, 0.13492171466350555, 0.4773198962211609, 0.19930818676948547, 0.42925524711608887, 0.5650147795677185, 0.5403661131858826, 0.23227110505104065, 0.1315336525440216, -0.04587608948349953, 0.4484952688217163, 0.3846698999404907, -0.03423405811190605, 0.15051694214344025, 0.4269111454486847, 0.41237130761146545, 0.14392583072185516, -0.07151339203119278, 0.20241132378578186, -1.850276930781547e-05, 0.4047880470752716, 0.44010859727859497, 0.14623171091079712, 0.4685629606246948, -0.053578026592731476, 0.2561599016189575, 0.34651392698287964], [0.6514982581138611, 0.6316554546356201, 0.5588981509208679, -0.15893292427062988, 0.7078859806060791, 0.5480288863182068, -0.1346997320652008, 0.3059048354625702, 0.0952015370130539, 0.6474908590316772, 0.40509697794914246, 0.598450779914856, 0.6976802349090576, 0.47547200322151184, 0.04580255225300789, 0.655552327632904, 0.7363198399543762, 0.04765515401959419, 0.5271176695823669, 0.46122485399246216, 0.7054277658462524, 0.12581947445869446, 0.12411220371723175, 0.3638039529323578, -6.526673587359255e-06, 0.7387601733207703, 0.31186214089393616, 0.016345541924238205, 0.45252493023872375, 0.12352097779512405, 0.41692742705345154, 0.502720057964325], [0.6581175327301025, 0.8012983202934265, 0.4837023913860321, 0.019530050456523895, 0.5299236178398132, 0.6757210493087769, -0.031054800376296043, 0.3935137689113617, -0.012008747085928917, 0.663886308670044, 0.4783216416835785, 0.6526303291320801, 0.25475722551345825, 0.2659650146961212, -0.16672752797603607, 0.6252472996711731, 0.6496803164482117, 2.9895640182076022e-05, 0.6439123153686523, 0.2972811162471771, 0.6651237607002258, 0.12580256164073944, -0.23433075845241547, 0.3328152894973755, -4.1615276131778955e-05, 0.551201581954956, 0.6856156587600708, 0.00021311300224624574, 0.5484229326248169, -0.07817131280899048, 0.6944879293441772, 0.3287261724472046], [0.4566168785095215, 0.6855359077453613, 0.6367853283882141, -0.15278665721416473, 0.3110116720199585, 0.2948140501976013, -0.07506848871707916, 0.1413516253232956, -0.10909999907016754, 0.5395334959030151, 0.45470771193504333, 0.44314026832580566, 0.5950292348861694, 0.5569625496864319, -0.011543856002390385, 0.47517427802085876, 0.42237505316734314, 0.09555922448635101, 0.5845662951469421, 0.48962876200675964, 0.594791829586029, 0.13801248371601105, 0.014238361269235611, 0.2820979952812195, -3.7999429878254887e-06, 0.3238843083381653, 0.5228087306022644, -0.12905053794384003, 0.4715503752231598, -0.04638398438692093, 0.6097667217254639, 0.177896186709404], [0.7690188884735107, 0.8544358611106873, 1.0132148265838623, -0.044084515422582626, 0.8072381019592285, 0.9550945162773132, -0.04000616818666458, 0.7344653606414795, -0.00010132492752745748, 1.1139311790466309, 0.7807872891426086, 1.032333493232727, 0.8157122135162354, 0.9487808346748352, 0.0010277569526806474, 0.8004106879234314, 0.7453928589820862, -1.9884255380020477e-06, 0.9783954620361328, 1.1020234823226929, 0.6597345471382141, -0.040815502405166626, 9.902589681587415e-07, 0.9455814957618713, 9.43465274758637e-05, 1.0242558717727661, 0.925083577632904, -4.031632488477044e-05, 0.540139377117157, -0.025788620114326477, 0.9068571925163269, 1.0132626295089722], [0.6531240940093994, 0.5915900468826294, 0.6219387650489807, -0.012778933160007, 0.5940949320793152, 0.5027937293052673, 0.11920253932476044, 0.25598233938217163, -0.122219517827034, 0.43653470277786255, 0.7383801341056824, 0.4067547023296356, 0.5690245032310486, 0.4478001594543457, 0.07495728135108948, 0.42656201124191284, 0.2955559492111206, -1.7679077473076177e-06, 0.5285195112228394, 0.35877153277397156, 0.5868855714797974, -0.18617700040340424, 0.05097351223230362, 0.3991064131259918, 4.29032616011682e-06, 0.40664398670196533, 0.33032333850860596, -0.04538578912615776, 0.5647735595703125, -0.01104883011430502, 0.3526590168476105, 0.45431846380233765], [0.19966819882392883, 0.5149613618850708, 0.22609800100326538, -0.15531401336193085, 0.30169761180877686, 0.3738587200641632, -0.205974280834198, 0.12705421447753906, -0.1401216834783554, 0.6618375182151794, 0.275570273399353, 0.47960877418518066, 0.5107349753379822, 0.24259419739246368, -0.1756124347448349, 0.2936067581176758, 0.26783210039138794, -0.000214377447264269, 0.26627078652381897, 0.4116312563419342, 0.23438410460948944, -0.0939348042011261, -0.005888443440198898, 0.2838694453239441, -0.0002680023026186973, 0.5214414596557617, 0.32883545756340027, -0.048179853707551956, 0.5457191467285156, -0.03228505328297615, 0.24340984225273132, 0.33283311128616333], [0.4583413004875183, 0.7218970656394958, 0.4788323938846588, 0.041009094566106796, 0.8245075345039368, 0.4710163176059723, 0.017291633412241936, 0.7498618364334106, -1.2675131983996835e-06, 0.680733323097229, 0.5873816609382629, 0.8760250806808472, 0.3626841604709625, 0.7023916840553284, -0.033455632627010345, 0.5775375962257385, 0.6894755959510803, 0.03398870676755905, 0.6004128456115723, 0.7351959347724915, 0.5689173340797424, -0.20360620319843292, 0.1297467201948166, 0.6485018730163574, -0.00027401180705055594, 0.5249636173248291, 0.5092698335647583, -2.9498837648134213e-06, 0.6449155807495117, -0.12194452434778214, 0.3958076238632202, 0.7375198602676392], [0.6671374440193176, 0.32834696769714355, 0.3241233229637146, -0.047296393662691116, 0.6293505430221558, 0.5005587339401245, 0.07198523730039597, 0.48243892192840576, -0.0010900945635512471, 0.5012726187705994, 0.3477194905281067, 0.5441213250160217, 0.46670499444007874, 0.23689612746238708, -0.17629601061344147, 0.3761897683143616, 0.4679381549358368, -0.17218483984470367, 0.3212277591228485, 0.6422659158706665, 0.42877405881881714, -0.2034757286310196, -0.2476489245891571, 0.5779328942298889, -0.00032592640491202474, 0.23790667951107025, 0.3537288308143616, -0.1121687963604927, 0.4573644995689392, -0.19869303703308105, 0.4881886839866638, 0.46342378854751587], [0.5842505097389221, 0.6630628108978271, 0.5092784762382507, 0.035704150795936584, 0.36755651235580444, 0.6057970523834229, 0.053229790180921555, 0.21001389622688293, 0.10751112550497055, 0.3466838300228119, 0.535345196723938, 0.17859332263469696, 0.3453083336353302, 0.4929164946079254, -0.05389166995882988, 0.5152355432510376, 0.3815855383872986, 0.11957592517137527, 0.6515084505081177, 0.42362481355667114, 0.43670767545700073, -0.3011268377304077, 0.19473569095134735, 0.3205786347389221, 1.600809355295496e-06, 0.3902568817138672, 0.37047600746154785, -0.1973700076341629, 0.33191046118736267, 0.14991582930088043, 0.42484551668167114, 0.32563650608062744], [0.44114622473716736, 0.5343430042266846, 0.3764389157295227, 0.03047449328005314, 0.8029370903968811, 0.699694812297821, -0.020083382725715637, 0.5262457728385925, 0.17195631563663483, 0.6546944975852966, 0.6039234399795532, 0.8195099830627441, 0.7012686133384705, 0.45164546370506287, 3.1712179406895302e-06, 0.4932917356491089, 0.7123402953147888, 2.30004002332862e-06, 0.5379930138587952, 0.3762660026550293, 0.5306349992752075, -0.0818801075220108, -0.009011340327560902, 0.6259027719497681, 4.318500214139931e-05, 0.6432804465293884, 0.5884264707565308, -0.0894852951169014, 0.26684337854385376, -0.06536665558815002, 0.5398683547973633, 0.5519102811813354], [0.784343957901001, 0.8246037364006042, 0.4667360484600067, 0.0782456174492836, 0.7756360173225403, 0.4672165513038635, -0.17944562435150146, 0.7211018204689026, -0.15878938138484955, 0.7245535254478455, 0.7784776091575623, 0.5954321622848511, 0.707544207572937, 0.7053658366203308, 0.15947794914245605, 0.4951264262199402, 0.8453090786933899, -0.00016357751155737787, 0.5420523285865784, 0.7370048761367798, 0.487599641084671, -0.0845460444688797, -0.1122693121433258, 0.4935539662837982, 1.3224058420746587e-05, 0.7365400195121765, 0.4010017514228821, -0.11304477602243423, 0.38631343841552734, 0.12196659296751022, 0.6738781332969666, 0.46156740188598633], [0.5711554884910583, 0.48045995831489563, 0.4387233555316925, 0.0004142052202951163, 0.6864383220672607, 0.4104226231575012, -0.055301833897829056, 0.3697882294654846, 0.009083039127290249, 0.4782419800758362, 0.8247636556625366, 0.6065070033073425, 0.6773656606674194, 0.59917813539505, 0.08705838024616241, 0.4651748239994049, 0.6828849911689758, 0.1467142552137375, 0.8081889748573303, 0.7727565169334412, 0.4577498435974121, 0.17849043011665344, -0.18630999326705933, 0.6124922633171082, -3.207754616596503e-06, 0.7709035873413086, 0.4010542035102844, -5.340411007637158e-05, 0.26189446449279785, 0.06902286410331726, 0.4663720428943634, 0.6785563826560974], [0.7131152153015137, 0.7082786560058594, 0.3483847379684448, -0.002861115848645568, 0.353226900100708, 0.43990370631217957, -0.020795630291104317, 0.568950355052948, -1.62994929269189e-05, 0.49239444732666016, 0.6389394402503967, 0.5545938014984131, 0.6935184597969055, 0.2945151627063751, 0.05101608857512474, 0.44983306527137756, 0.36112645268440247, -0.14300009608268738, 0.3246762454509735, 0.6457415819168091, 0.5644761323928833, -0.2487572878599167, 0.1798122674226761, 0.42587709426879883, -1.0919993655988947e-06, 0.3223418891429901, 0.6015963554382324, -0.11671977490186691, 0.6369633674621582, -0.2643783986568451, 0.6148029565811157, 0.27564680576324463], [0.6076583862304688, 0.9438269734382629, 0.9249405264854431, 0.06580565124750137, 0.8230940103530884, 0.6039776802062988, 0.040395766496658325, 0.6149900555610657, 0.00015673173766117543, 0.7339963912963867, 0.6289479732513428, 0.8370360136032104, 0.7234506607055664, 0.6744207739830017, 1.8228125782115967e-06, 0.8796296119689941, 0.8417502045631409, 0.0873081386089325, 0.9213655591011047, 0.7986396551132202, 0.626486599445343, -0.22514145076274872, -0.14092092216014862, 0.8319950699806213, -0.00011282470950391144, 0.6989870667457581, 0.5307045578956604, 0.00017615940305404365, 0.46577057242393494, -0.10427460819482803, 0.6448978781700134, 0.7747183442115784], [0.5628213882446289, 0.4348878562450409, 0.4723537564277649, -0.07541757822036743, 0.729468584060669, 0.45739829540252686, -0.08353281766176224, 0.5913726091384888, 0.1417464315891266, 0.43892085552215576, 0.6721909642219543, 0.5220270156860352, 0.43038466572761536, 0.42841199040412903, -0.11060202121734619, 0.6125937104225159, 0.7194187641143799, 0.11640504747629166, 0.6074060797691345, 0.6616541147232056, 0.807106077671051, -0.26468443870544434, -0.07812236994504929, 0.38371047377586365, -6.341083644656464e-05, 0.83243328332901, 0.5821034908294678, -0.030888834968209267, 0.7016012668609619, 0.17840275168418884, 0.7432416677474976, 0.36081138253211975], [0.5307844281196594, 0.7714805603027344, 0.5443353056907654, -0.11115057021379471, 0.505172848701477, 0.8759627342224121, 0.08023790270090103, 0.4234600365161896, -0.05401434749364853, 0.7494590878486633, 0.6276677250862122, 0.7890456318855286, 0.5392587780952454, 0.4649324417114258, -0.16306522488594055, 0.2324429154396057, 0.747780442237854, -0.16692321002483368, 0.6180683374404907, 0.5197258591651917, 0.5696120858192444, -0.0291450172662735, 0.05698688328266144, 0.7505322694778442, -1.992542456719093e-05, 0.45910465717315674, 0.4329017400741577, -0.14781537652015686, 0.3978145122528076, 0.19628585875034332, 0.19826243817806244, 0.39109164476394653], [0.4181346893310547, 0.17923583090305328, 0.4962417781352997, -0.19718433916568756, 0.5521252751350403, 0.2748146057128906, -0.23841999471187592, 0.07455907762050629, -0.10188083350658417, 0.3876532018184662, 0.6111093163490295, 0.488008588552475, 0.5363824963569641, 0.3561975359916687, 0.13355834782123566, 0.40925028920173645, 0.5885681509971619, -3.7021982279838994e-05, 0.18032237887382507, 0.39101892709732056, 0.18427743017673492, 0.02830136939883232, 0.06460733711719513, 0.5124435424804688, -8.707967936061323e-05, 0.5165000557899475, 0.4342789351940155, 0.06421983987092972, 0.35883575677871704, 0.07086510956287384, 0.4224640727043152, 0.3655036687850952], [0.5018981695175171, 0.4484519064426422, 0.33644479513168335, 0.08965372294187546, 0.3382265269756317, 0.44467613101005554, 0.05324690043926239, 0.340655118227005, -0.014124719426035881, 0.28940850496292114, 0.1934608668088913, 0.3569858968257904, 0.13749463856220245, 0.46282389760017395, -0.17386238276958466, 0.20358964800834656, 0.6470011472702026, -0.006096487399190664, 0.23038913309574127, 0.29892709851264954, 0.4647631049156189, -0.1235237866640091, -0.11658377945423126, 0.13557298481464386, -0.00015158820315264165, 0.19953197240829468, 0.26591065526008606, 0.03795826435089111, 0.1504746973514557, -0.05675328150391579, 0.19701501727104187, 0.3417801558971405], [0.7201005220413208, 0.3915615975856781, 0.37656447291374207, 0.13006484508514404, 0.45034241676330566, 0.7615957856178284, 0.18277256190776825, 0.30352193117141724, 1.9976473595306743e-06, 0.8351381421089172, 0.8093639612197876, 0.4109216332435608, 0.5801970958709717, 0.7568888068199158, 0.003067988669499755, 0.5171785950660706, 0.55347740650177, -6.2222161432146095e-06, 0.7415786385536194, 0.7656668424606323, 0.7302677631378174, -0.2454451322555542, 0.17585892975330353, 0.5443373322486877, -2.3975505882845027e-06, 0.6604438424110413, 0.6623396873474121, -0.08836470544338226, 0.5034993886947632, -0.01808139495551586, 0.5541943907737732, 0.4178515672683716], [0.9777606129646301, 0.9051540493965149, 0.4091281294822693, 0.0001694086822681129, 0.5904085040092468, 0.8170744180679321, -0.037647757679224014, 0.5227673053741455, 1.739617255225312e-05, 0.9006550908088684, 0.9008595943450928, 0.7872700691223145, 0.3803052008152008, 0.45528316497802734, 0.17689208686351776, 0.37167271971702576, 0.8124004602432251, -0.11939357221126556, 0.6987144947052002, 0.4613644480705261, 0.7563861608505249, -0.011594726704061031, -0.07738809287548065, 0.455753892660141, -8.118620371533325e-07, 0.5503088235855103, 0.6211465001106262, -1.392622016282985e-05, 0.5065572261810303, 0.05860688537359238, 0.388021320104599, 0.6013771295547485], [0.4843568801879883, 0.2808328866958618, 0.39484238624572754, 0.011574271135032177, 0.6188884973526001, 0.6344370245933533, 0.07642019540071487, 0.5639081597328186, 0.028697116300463676, 0.48882654309272766, 0.31059715151786804, 0.6444776654243469, 0.23590275645256042, 0.6551125049591064, -0.21362273395061493, 0.10425449162721634, 0.5778041481971741, -3.986413958045887e-06, 0.734498918056488, 0.6396775245666504, 0.5500365495681763, -0.22820138931274414, -0.009510069154202938, 0.5137654542922974, -1.9580680600483902e-05, 0.5039840936660767, 0.22018124163150787, 0.12472745776176453, 0.14782506227493286, 0.14525248110294342, 0.5963583588600159, 0.36558520793914795], [0.36371520161628723, 0.20271822810173035, 0.4619235694408417, 0.046357594430446625, 0.4828714430332184, 0.42687076330184937, -0.1380022019147873, 0.3551737070083618, 0.05653561279177666, 0.5637730956077576, 0.35715165734291077, 0.40766656398773193, 0.25237128138542175, 0.23514311015605927, 0.013189378194510937, 0.3993266224861145, 0.5219167470932007, -0.12392611056566238, 0.5774309039115906, 0.39248141646385193, 0.10996450483798981, 0.19667936861515045, -0.13252578675746918, -0.0006812240462750196, -1.1226317838008981e-05, 0.28505438566207886, 0.21479421854019165, 0.015998343005776405, 0.1733875572681427, -0.009786093607544899, 0.37786218523979187, 0.2503789961338043], [0.22247178852558136, 0.3858441710472107, 0.26172637939453125, -0.06099185720086098, 0.5314860343933105, 0.33811426162719727, 0.09661466628313065, 0.4222160577774048, -0.06779079139232635, 0.22465388476848602, 0.2066124677658081, 0.58388352394104, 0.4123416841030121, 0.08891347795724869, 0.1781134307384491, 0.18168900907039642, 0.5470426678657532, -0.07511716336011887, 0.5128144025802612, 0.1546175330877304, 0.4850957989692688, -0.04091987758874893, 0.17132265865802765, 0.4492177367210388, -3.452048815688613e-07, 0.5181658864021301, 0.29094499349594116, 0.029326723888516426, 0.4888210594654083, 0.18908071517944336, 0.18612509965896606, 0.5173951983451843], [0.36947283148765564, 0.5010382533073425, 0.46371322870254517, 0.19540472328662872, 0.3526405692100525, 0.4331681728363037, -0.2316282093524933, 0.0534980408847332, 0.13046827912330627, 0.5047245621681213, 0.6205240488052368, 0.19922813773155212, 0.2591148018836975, 0.24587011337280273, 0.04308170825242996, 0.4549683928489685, 0.6858319640159607, -0.10382812470197678, 0.6114283800125122, 0.3087393045425415, 0.4700741171836853, 0.036113131791353226, -0.11641479283571243, 0.23038709163665771, 1.9798085304501e-06, 0.3100324869155884, 0.5274071097373962, -0.23130397498607635, 0.24919545650482178, 0.08939589560031891, 0.22336696088314056, 0.028423309326171875], [0.43817389011383057, 0.5752393007278442, 0.20244687795639038, 0.052212558686733246, 0.21849916875362396, 0.5294377207756042, 0.15220975875854492, 0.12540552020072937, 0.0987110435962677, 0.5444765686988831, 0.2105662226676941, 0.43585431575775146, 0.49487319588661194, 0.5591729879379272, -0.07097890973091125, 0.3060886859893799, 0.293502539396286, -0.00036758618080057204, 0.5241670608520508, 0.35974591970443726, 0.24387700855731964, -0.22157210111618042, 0.13215872645378113, 0.4509465992450714, 2.621122621349059e-05, 0.2601972222328186, 0.30671852827072144, 0.019911786541342735, 0.5089033246040344, -0.07934761792421341, 0.4585758447647095, 0.03240259364247322], [0.5222321152687073, 0.7116988897323608, 0.6066724061965942, 0.0038064951077103615, 0.9798862934112549, 0.9571461081504822, -0.051179852336645126, 0.8484328389167786, -0.00026193642406724393, 0.6788550019264221, 0.6431883573532104, 0.5402428507804871, 0.6742326617240906, 0.5905990600585938, -0.15606945753097534, 0.7773064970970154, 0.5721187591552734, 0.09547940641641617, 0.7649924159049988, 0.7182080149650574, 0.7565081119537354, 0.1288350373506546, 0.15575949847698212, 0.5760217905044556, -6.140931532172544e-07, 0.7630941867828369, 0.5518162846565247, -2.6476807761355303e-05, 0.6366254687309265, -0.18832197785377502, 0.8974101543426514, 0.6194005012512207], [0.8708304762840271, 0.502383828163147, 0.6765577793121338, -0.034031953662633896, 0.733783483505249, 0.4657038450241089, -0.13902252912521362, 0.7721484899520874, -0.0003281789249740541, 0.5529993176460266, 0.7033177018165588, 0.7389872670173645, 0.5634415745735168, 0.7471840381622314, 0.17078498005867004, 0.763961911201477, 0.946982741355896, -0.0027957409620285034, 0.5222684741020203, 0.5459797978401184, 0.36545708775520325, -0.06418213993310928, 0.007333323825150728, 0.43047034740448, 0.00013724813470616937, 0.8197816014289856, 0.7645269632339478, 2.9988693768245867e-06, 0.3228023648262024, -0.057393960654735565, 0.7845230102539062, 0.6574347615242004], [0.6390566229820251, 0.5647196173667908, 0.829609751701355, 2.8985821700189263e-05, 0.48008865118026733, 0.8170067071914673, -0.01277247816324234, 0.4650214910507202, -0.00010051797289634123, 0.5963172912597656, 0.76068514585495, 0.5371736884117126, 0.7499699592590332, 0.5382806658744812, -0.04222317785024643, 0.6417912840843201, 0.7059326171875, 0.09762606024742126, 0.45361483097076416, 0.8745403289794922, 0.39230525493621826, -0.16637642681598663, -0.03926952928304672, 0.740053653717041, -8.780309144640341e-06, 0.7721850872039795, 0.5216728448867798, -3.060449898839579e-06, 0.3939952254295349, -0.08216073364019394, 0.655196487903595, 0.7552470564842224], [0.729468584060669, 0.6579205393791199, 0.40680834650993347, -0.1480964869260788, 0.6068605184555054, 0.4736050069332123, 0.06509849429130554, 0.5753200054168701, -0.153107151389122, 0.7326440215110779, 0.681569516658783, 0.36937177181243896, 0.5371292233467102, 0.41098886728286743, -0.1287544220685959, 0.5825589895248413, 0.6575338244438171, -0.09991849213838577, 0.3378782272338867, 0.4088916778564453, 0.6663975715637207, -0.23950909078121185, -0.1379411220550537, 0.39981934428215027, -1.7501902220828924e-06, 0.329274445772171, 0.6216908097267151, -0.11723129451274872, 0.3009745180606842, 0.1263509839773178, 0.46236246824264526, 0.17240986227989197], [0.4954968988895416, 0.8897134065628052, 0.6564637422561646, -0.010076144710183144, 0.7998349666595459, 0.9075496792793274, -0.18373216688632965, 0.6595876216888428, -0.00018814545182976872, 1.0511566400527954, 0.4284580945968628, 0.47977709770202637, 0.39029839634895325, 0.5414806604385376, 0.07325971871614456, 0.46335291862487793, 0.9120580554008484, -0.06377073377370834, 0.8416101336479187, 0.6185976266860962, 0.5065010786056519, -0.07536347210407257, -0.05178670585155487, 0.511326014995575, 1.00915422081016e-05, 0.7995805740356445, 0.8684157729148865, 0.08207275718450546, 0.4238899052143097, -0.13341468572616577, 0.8269380331039429, 0.7129465341567993], [0.2630906105041504, 0.15590837597846985, 0.46096140146255493, -0.1429406702518463, 0.273712158203125, 0.38021284341812134, -0.19567979872226715, 0.1984599530696869, -0.12608473002910614, 0.22885441780090332, 0.1462935507297516, 0.49789637327194214, 0.42261818051338196, 0.13114279508590698, -0.20624294877052307, 0.12100312113761902, 0.36875486373901367, 0.13208822906017303, 0.3518074154853821, 0.5278682708740234, 0.15062549710273743, 0.1484646052122116, -0.2655537724494934, 0.23413895070552826, -0.00012611357669811696, 0.2487541288137436, 0.3823615312576294, 0.17052620649337769, 0.30166828632354736, 0.10788530856370926, 0.27698618173599243, 0.4241158664226532], [0.6000955104827881, 0.6195098161697388, 0.4256029725074768, -0.08184465765953064, 0.7333674430847168, 0.4999561309814453, 0.11379070580005646, 0.4199155867099762, -0.004130991641432047, 0.7580605149269104, 0.8018748164176941, 0.5985897779464722, 0.7394140958786011, 0.3979211151599884, -0.0714690163731575, 0.677972674369812, 0.8025197982788086, 3.674737308756448e-05, 0.7134867906570435, 0.739254891872406, 0.38785669207572937, 0.17455677688121796, 0.09807612746953964, 0.6056535243988037, -3.6471817566052778e-06, 0.529475748538971, 0.39754435420036316, 0.13586267828941345, 0.35520535707473755, -0.25258955359458923, 0.5997380614280701, 0.6790575385093689], [0.3019903004169464, 0.4603787958621979, 0.49665871262550354, 0.05732182040810585, 0.3831501305103302, 0.7399091124534607, -0.16955532133579254, 0.4017453193664551, -0.08937646448612213, 0.7147697806358337, 0.5068849921226501, 0.5365752577781677, 0.4737624228000641, 0.44246113300323486, 0.1503227949142456, 0.2967276871204376, 0.6696767807006836, 0.011885330080986023, 0.6268024444580078, 0.6584675908088684, 0.44064971804618835, 0.06918145716190338, 0.1630370020866394, 0.6200624108314514, 3.970416884158112e-08, 0.38594090938568115, 0.7338306903839111, -0.06708256900310516, 0.44590362906455994, -0.15881212055683136, 0.6266682744026184, 0.37326475977897644], [0.8129870295524597, 0.7202432155609131, 0.7249947190284729, -7.211467163870111e-06, 0.6687517166137695, 0.8883309364318848, 0.021459411829710007, 0.6904833316802979, 9.832320984060061e-07, 0.5949092507362366, 0.7525179982185364, 0.733274519443512, 0.8483784794807434, 0.8824479579925537, 0.00010186544386669993, 0.8128788471221924, 0.5941798090934753, -0.007536605000495911, 0.5866302251815796, 0.6336084604263306, 0.9288911819458008, -0.21512195467948914, 0.09947768598794937, 0.7497925758361816, 2.3133037529987632e-07, 0.7236770987510681, 0.9025774598121643, 1.1541264939296525e-05, 0.5666139721870422, 0.0004446038219612092, 0.8596159815788269, 0.7944251894950867], [0.6757798194885254, 0.8098095059394836, 0.45016342401504517, -0.0008884303970262408, 0.717830240726471, 0.4869420826435089, -0.04893500357866287, 0.7814821600914001, -0.000233659113291651, 0.8417844772338867, 0.4134683907032013, 0.44875022768974304, 0.6329673528671265, 0.8233327269554138, 4.215697117615491e-06, 0.8198765516281128, 0.604478657245636, 2.1267054762574844e-05, 0.8078590631484985, 0.675226092338562, 0.694425642490387, -0.08307822793722153, -0.18032550811767578, 0.842603862285614, -6.593156285816804e-05, 0.5409514307975769, 0.7330400347709656, 8.115083801385481e-06, 0.40899837017059326, 0.03457504138350487, 0.4964924156665802, 0.7199495434761047], [0.7178066372871399, 0.659698486328125, 0.3640007972717285, 0.1616278886795044, 0.2927544414997101, 0.3285321593284607, -0.17313538491725922, 0.2840411067008972, -3.6456021916819736e-05, 0.324360191822052, 0.6983903646469116, 0.7019140124320984, 0.21207018196582794, 0.4567817449569702, -0.10120486468076706, 0.3447404205799103, 0.6658791899681091, 0.15406955778598785, 0.30733826756477356, 0.31410861015319824, 0.5315439701080322, 0.13677193224430084, 0.19397848844528198, 0.542508602142334, -6.803733413107693e-05, 0.26461082696914673, 0.4661617875099182, -0.07174854725599289, 0.21882182359695435, -0.09072842448949814, 0.6174833178520203, 0.5267670154571533], [0.4798792004585266, 0.06878507882356644, 0.0916275829076767, -0.04842885583639145, 0.5898267030715942, 0.17666219174861908, 0.19165395200252533, 0.3421316146850586, -0.07212404906749725, 0.5489938855171204, 0.18036581575870514, 0.45025166869163513, 0.03683656454086304, 0.4261932075023651, 0.14393499493598938, 0.41086283326148987, 0.2682234048843384, -0.016381829977035522, 0.3529082238674164, 0.28902119398117065, 0.14873753488063812, 0.17902711033821106, -0.011659611947834492, -0.027953602373600006, -1.2482495321819442e-06, 0.39978113770484924, 0.34232297539711, 0.17264316976070404, 0.024983221665024757, 0.18872204422950745, 0.34456533193588257, 0.16340819001197815], [0.7301254868507385, 0.7425697445869446, 0.5967018604278564, 0.09494458884000778, 0.4256763160228729, 0.2999105751514435, 0.1402418464422226, 0.6577518582344055, 0.02455996349453926, 0.6445654630661011, 0.4160286486148834, 0.3371269702911377, 0.7158753275871277, 0.7293566465377808, -0.1626376062631607, 0.4967023432254791, 0.7439031004905701, -7.708155862928834e-06, 0.3854888677597046, 0.6524035334587097, 0.7095369696617126, -0.22121714055538177, -0.14572052657604218, 0.6090304255485535, -1.0092948059536866e-06, 0.45038798451423645, 0.6640136241912842, 0.00034244582639075816, 0.5476933121681213, -0.14470061659812927, 0.38655170798301697, 0.49990200996398926], [0.6296777129173279, 0.7843752503395081, 0.7311573624610901, 0.020454302430152893, 0.5052449107170105, 0.3928217589855194, 0.12089714407920837, 0.6256163716316223, -0.06355229765176773, 0.7884764075279236, 0.7288380861282349, 0.6871101260185242, 0.27012762427330017, 0.39155569672584534, 0.15835276246070862, 0.3029637634754181, 0.7695262432098389, -2.388367101957556e-05, 0.7896138429641724, 0.7463670372962952, 0.7829285264015198, 0.15651924908161163, -0.13417385518550873, 0.5676944851875305, -1.4318145531433402e-06, 0.5309494733810425, 0.44371649622917175, 0.16175933182239532, 0.6477522850036621, 0.040527645498514175, 0.6834095120429993, 0.36216312646865845], [0.5018099546432495, 0.1915794312953949, 0.16632945835590363, 0.16322319209575653, 0.5739673972129822, 0.12855328619480133, 0.03126384690403938, 0.35749268531799316, -0.08280940353870392, 0.2989829480648041, 0.24662742018699646, 0.1059013232588768, 0.28612932562828064, 0.03527277708053589, -0.19090032577514648, 0.04155655577778816, 0.2528136074542999, 5.795601509817061e-07, 0.43794214725494385, 0.36640915274620056, 0.13876637816429138, -0.05969681218266487, 0.08598670363426208, 0.315053254365921, 2.83434746961575e-05, 0.22423119843006134, 0.11922688782215118, -0.04315473511815071, 0.2601258456707001, -0.19954095780849457, 0.13262251019477844, 0.294481486082077], [0.9927825927734375, 0.827045738697052, 0.8976209163665771, 6.40059454326547e-07, 0.9392043948173523, 0.5382775068283081, -0.11911249160766602, 0.42694762349128723, -1.2761241805492318e-06, 0.9638155698776245, 0.7699344754219055, 0.5687791109085083, 0.9034882187843323, 0.8885579109191895, -1.3685998965229373e-05, 0.7178235054016113, 0.7143227458000183, -9.995055734179914e-07, 0.6042817831039429, 0.9436518549919128, 0.8646941781044006, -0.24351485073566437, 0.019947126507759094, 0.6057249307632446, -2.9387804190150746e-08, 0.735626757144928, 0.4575619101524353, 3.0091521693975665e-05, 0.5333278775215149, 0.0017756437882781029, 0.7905687093734741, 0.5296239256858826], [0.9185415506362915, 0.9355034828186035, 0.5964293479919434, -0.00017366821703035384, 0.5662002563476562, 0.7782403826713562, -0.06508758664131165, 0.5221375226974487, 4.225277734803967e-05, 0.9523343443870544, 0.6305211782455444, 0.653117299079895, 0.8337479829788208, 0.5019932389259338, -0.11789248138666153, 0.6434117555618286, 0.9388173818588257, 0.13509981334209442, 0.7336947917938232, 0.9259335994720459, 0.7212547063827515, 0.1455136239528656, 0.054403387010097504, 0.8637173175811768, 0.00016441443585790694, 0.7429304122924805, 0.6458512544631958, -1.1311647540424019e-05, 0.8167831897735596, -0.2545859217643738, 0.6154902577400208, 0.5767076015472412], [0.6156349182128906, 0.9347468614578247, 0.7736361026763916, -4.4238522605155595e-06, 0.985864520072937, 0.6529925465583801, 0.20017100870609283, 0.5215685367584229, 0.05986824259161949, 1.0053600072860718, 0.7461541295051575, 0.8610171675682068, 0.6831973791122437, 0.8786094188690186, -0.00031678745290264487, 0.7695629000663757, 1.016660451889038, -1.5200506823020987e-05, 0.6242249608039856, 0.8992619514465332, 0.7261778116226196, -0.19810421764850616, 0.1415259838104248, 0.8953960537910461, -2.9979151804582216e-05, 0.639268159866333, 0.8270697593688965, 7.934265795483952e-07, 0.6195850968360901, 0.1683240532875061, 0.4259791076183319, 0.508711040019989], [0.6923750638961792, 0.8198034167289734, 0.4852069020271301, 0.05956043303012848, 0.45071837306022644, 0.6428619623184204, -0.022234968841075897, 0.43200087547302246, -0.027821484953165054, 0.5293325185775757, 0.8146616220474243, 0.4672352969646454, 0.5279689431190491, 0.6411747336387634, -0.11771596968173981, 0.7415995001792908, 0.6092623472213745, -6.0110058257123455e-05, 0.5361528396606445, 0.49276602268218994, 0.4694310128688812, 0.14615735411643982, 0.016975199803709984, 0.38388362526893616, 2.883273373299744e-05, 0.7738624811172485, 0.544470489025116, 0.0004908264963887632, 0.532943606376648, -0.09120417386293411, 0.8420020341873169, 0.6112964153289795], [0.24031928181648254, 0.5247126817703247, 0.13587838411331177, -0.18194444477558136, 0.5317298173904419, 0.5388670563697815, 0.00909348763525486, 0.42305418848991394, -0.06614282727241516, 0.5964798927307129, 0.5271177887916565, 0.30248650908470154, 0.11303336173295975, 0.21359647810459137, 0.10109644383192062, 0.26898783445358276, 0.25810810923576355, -0.010624326765537262, 0.4429168403148651, 0.5147644281387329, 0.3158338963985443, 0.1623643934726715, 0.09568880498409271, 0.30409154295921326, 1.0792529536729489e-07, 0.16471664607524872, 0.40059608221054077, -0.12825541198253632, 0.10073159635066986, 0.025962626561522484, 0.2614175081253052, 0.4407719075679779], [0.37958914041519165, 0.3431096076965332, 0.29378828406333923, 0.09561023116111755, 0.5241009593009949, 0.3169839084148407, 0.17324653267860413, 0.24916385114192963, -0.026126231998205185, 0.6817469000816345, 0.4702375531196594, 0.3169994652271271, 0.44067883491516113, 0.45397549867630005, 0.0532439686357975, 0.4993019700050354, 0.5748492479324341, 0.08489954471588135, 0.7502715587615967, 0.5505869388580322, 0.6479082107543945, 0.0697341337800026, -0.13813386857509613, 0.6263605356216431, 1.0174327144341078e-05, 0.5190767049789429, 0.5893551111221313, 0.19093257188796997, 0.4450710117816925, -0.09863810986280441, 0.5886314511299133, 0.3015769422054291], [0.666551411151886, 0.3432072699069977, 0.36685648560523987, 0.02169124223291874, 0.3854827582836151, 0.7319052815437317, 0.11535792052745819, 0.6202356219291687, 0.12134049832820892, 0.43208077549934387, 0.6344521641731262, 0.6132777333259583, 0.4067681133747101, 0.57757967710495, -0.0023650869261473417, 0.5444155931472778, 0.8734427094459534, -0.00016794231487438083, 0.44222235679626465, 0.6403748989105225, 0.8021093606948853, -0.02782035432755947, 0.036535799503326416, 0.8089515566825867, -9.387794125359505e-05, 0.5465914011001587, 0.5760390758514404, -6.151122215669602e-05, 0.5481758713722229, -0.24179837107658386, 0.6072934865951538, 0.687102198600769], [0.5004410147666931, 0.7304266095161438, 0.7339757084846497, -0.10522583872079849, 0.40355318784713745, 0.44774505496025085, -0.23892748355865479, 0.5579479932785034, 0.014472213573753834, 0.79768306016922, 0.7742436528205872, 0.5135330557823181, 0.7128457427024841, 0.3747573494911194, -0.13052982091903687, 0.6120483875274658, 0.49844470620155334, 4.375158823677339e-06, 0.8339419364929199, 0.5979268550872803, 0.5159413814544678, -0.1496155858039856, -0.03735916689038277, 0.4627089500427246, -1.0927272342087235e-05, 0.7203994393348694, 0.4458802342414856, -0.015572741627693176, 0.5128239989280701, 0.0464932955801487, 0.39606720209121704, 0.5272879004478455], [0.7722976803779602, 0.4014813303947449, 0.698651909828186, -0.09752493351697922, 0.568518340587616, 0.5822541117668152, -0.20909787714481354, 0.5794466137886047, 0.10752996057271957, 0.7991635203361511, 0.5125442147254944, 0.5643255114555359, 0.6705725193023682, 0.7931743264198303, -4.78983492939733e-05, 0.7333199381828308, 0.9943013191223145, 7.336481758102309e-06, 0.5589275360107422, 0.8283149003982544, 0.6640496850013733, -0.13096961379051208, -0.005296946503221989, 0.7212983965873718, -2.0587824110407382e-05, 0.46663573384284973, 0.9102171063423157, 0.03175158426165581, 0.578600287437439, 0.14556089043617249, 0.45987457036972046, 0.6799455881118774], [0.7123615145683289, 0.4763905107975006, 0.4797801971435547, 4.519439755767962e-07, 0.8031121492385864, 0.7481077313423157, 0.03958190977573395, 0.5805250406265259, -6.441602454287931e-05, 0.6546087265014648, 0.7689616680145264, 0.762511134147644, 0.7500369548797607, 0.4092649221420288, 0.13557997345924377, 0.7272114753723145, 0.5093916058540344, -4.853661721426761e-07, 0.5167186856269836, 0.6218775510787964, 0.6674621105194092, 0.1253942996263504, 0.10149802267551422, 0.7536633610725403, -1.7961781395570142e-06, 0.43521469831466675, 0.48334139585494995, 4.561516107060015e-05, 0.4262419044971466, 0.010048694908618927, 0.44822320342063904, 0.7594112753868103], [0.6620181202888489, 0.5041671991348267, 0.5881291627883911, -0.07702050358057022, 0.6988608837127686, 0.8787728548049927, 0.11198827624320984, 0.4528222680091858, 4.930906925437739e-06, 0.4688117504119873, 0.44283100962638855, 0.5517880916595459, 0.5053220391273499, 0.6364182233810425, 0.05165082961320877, 0.6432992815971375, 0.876430094242096, -0.16057592630386353, 0.592064619064331, 0.8345674276351929, 0.8184643387794495, 0.16529230773448944, -0.08734119683504105, 0.7869932651519775, 1.9928893379983492e-06, 0.7774263024330139, 0.577915608882904, 1.1081558568548644e-06, 0.6479555368423462, -0.002489394973963499, 0.6387775540351868, 0.665462851524353], [0.5140776038169861, 0.2521907091140747, 0.40064844489097595, -0.027763089165091515, 0.695762574672699, 0.5928886532783508, -0.20311994850635529, 0.5349658131599426, 0.04379134997725487, 0.41620194911956787, 0.5729143619537354, 0.2986149191856384, 0.47185540199279785, 0.5294405221939087, -0.09431321173906326, 0.5026299357414246, 0.3899829089641571, -0.18280896544456482, 0.6008987426757812, 0.5864816308021545, 0.5088586211204529, 0.03586077317595482, 0.024817315861582756, 0.3889150023460388, -0.00017473215120844543, 0.2668359577655792, 0.3544950485229492, -0.0651123896241188, 0.25165116786956787, -0.0858786553144455, 0.4044220745563507, 0.2996635437011719], [0.753113329410553, 0.7365664839744568, 0.4956928789615631, -0.13062940537929535, 0.5774130821228027, 0.4567577838897705, 0.03611750155687332, 0.3463701605796814, 1.9259719920228235e-05, 0.8344489932060242, 0.8555178642272949, 0.7092520594596863, 0.6747748255729675, 0.7386744022369385, 0.12653903663158417, 0.7233993411064148, 0.6363896727561951, -2.3054706616676413e-05, 0.6288429498672485, 0.8717507123947144, 0.8203933835029602, -0.11732038855552673, -0.15050415694713593, 0.7276647686958313, 3.7607494505209615e-06, 0.5095488429069519, 0.4897885322570801, -0.00017662765458226204, 0.6989367604255676, -0.029178883880376816, 0.49561235308647156, 0.7625522613525391], [0.24640515446662903, 0.31899333000183105, 0.34457066655158997, -0.048562437295913696, 0.49247297644615173, 0.6162460446357727, -0.0317506343126297, 0.5127207636833191, 0.10231634974479675, 0.34751009941101074, 0.2096710205078125, 0.44176870584487915, 0.45399701595306396, 0.3653525710105896, -0.06837935745716095, 0.24497143924236298, 0.45492637157440186, -0.0832161158323288, 0.3826473355293274, 0.2853374183177948, 0.5071302652359009, -0.01824687421321869, 0.20206212997436523, 0.1348535716533661, -2.7012971258955076e-05, 0.4366386830806732, 0.4999876320362091, -0.07289000600576401, 0.33147233724594116, -0.08082924038171768, 0.22977645695209503, 0.1946081966161728], [0.45619821548461914, 0.20796994864940643, 0.30158209800720215, 0.10503552109003067, 0.5382587909698486, 0.642393171787262, 0.19386489689350128, 0.20081618428230286, -0.1509958654642105, 0.42715612053871155, 0.2071782797574997, 0.41192901134490967, 0.2874516248703003, 0.38823896646499634, 0.18304476141929626, 0.4889836609363556, 0.6267105340957642, -0.13782107830047607, 0.3679161071777344, 0.2346358448266983, 0.24546414613723755, 0.027091780677437782, -0.06019178405404091, 0.26432132720947266, 2.624396984174382e-06, 0.19866915047168732, 0.5023114085197449, 0.08530044555664062, 0.4269447326660156, -0.14024344086647034, 0.4068038761615753, 0.10166407376527786], [0.4564054310321808, 0.5037131905555725, 0.45449769496917725, -0.014189609326422215, 0.5593704581260681, 0.4894399642944336, -0.03116036206483841, 0.5886380076408386, -0.0873963013291359, 0.4532521069049835, 0.41972678899765015, 0.7122963666915894, 0.4160548150539398, 0.5059192180633545, 0.006324415095150471, 0.5140149593353271, 0.44798314571380615, -0.13172364234924316, 0.7782048583030701, 0.7143142819404602, 0.6020032167434692, 0.16784867644309998, -0.2057669311761856, 0.5470635890960693, 8.691139896654931e-07, 0.6326954960823059, 0.6083464622497559, -2.644809865159914e-05, 0.18034151196479797, 0.0002794653701130301, 0.6253944039344788, 0.5914964079856873], [0.7947598099708557, 0.7107415199279785, 0.5211982727050781, 0.005082840099930763, 0.6310580372810364, 0.9078681468963623, -0.018077032640576363, 0.79099041223526, -0.0003621411742642522, 0.8381578326225281, 0.5643007159233093, 0.7094571590423584, 0.9497750997543335, 0.5311945080757141, -0.12482185661792755, 0.5312322974205017, 0.5687967538833618, 0.00018734628974925727, 0.9030333757400513, 0.561586320400238, 0.8720500469207764, -0.10847047716379166, -0.1622369885444641, 0.7811861038208008, -2.0651512386393733e-05, 0.48421984910964966, 0.8395247459411621, 2.1966070562484674e-05, 0.5878786444664001, 0.09920055419206619, 0.7714903950691223, 0.5907452702522278], [0.5919753909111023, 0.660412073135376, 0.8658776879310608, 2.7830707040266134e-05, 0.6553950309753418, 0.7550972700119019, 0.09898822009563446, 0.5912810564041138, -0.09571804106235504, 0.8436599373817444, 0.5011724233627319, 0.8598856925964355, 0.5621440410614014, 0.7669108510017395, -0.008170919492840767, 0.6990169882774353, 0.474247545003891, -1.8414458509141696e-06, 0.8306975960731506, 0.7075037956237793, 0.4261089563369751, -0.11232287436723709, -0.21443799138069153, 0.6583539843559265, 0.00014198159624356776, 0.8128051161766052, 0.8496645092964172, 5.546951911128417e-07, 0.5427244901657104, -0.19220863282680511, 0.6919418573379517, 0.45391857624053955], [0.49125027656555176, 0.726140558719635, 0.39256229996681213, 0.08455366641283035, 0.3835081458091736, 0.5083498954772949, -0.09229064732789993, 0.2531469166278839, -0.009997593238949776, 0.573725163936615, 0.662502646446228, 0.6175099015235901, 0.3252841830253601, 0.49623844027519226, 0.13352763652801514, 0.12011099606752396, 0.4755978286266327, -0.03836324065923691, 0.7921528816223145, 0.7474737763404846, 0.5364595651626587, 0.17705558240413666, -0.22863049805164337, 0.5834816694259644, -1.2355598073554575e-06, 0.7011060118675232, 0.37384310364723206, 0.06870735436677933, 0.25188297033309937, -0.19868917763233185, 0.5442010164260864, 0.18859054148197174], [0.29927122592926025, 0.4185622036457062, 0.28865429759025574, -0.0023823275696486235, 0.6460392475128174, 0.6775381565093994, 0.1718841940164566, 0.3807281255722046, 0.003826661268249154, 0.7898403406143188, 0.4320622980594635, 0.6300382018089294, 0.5366507768630981, 0.4974195957183838, -8.349840209120885e-05, 0.36200204491615295, 0.3516659438610077, -0.035739582031965256, 0.27646198868751526, 0.7066195011138916, 0.4215220510959625, -0.12927143275737762, -0.2097979038953781, 0.4002654254436493, 2.4583976482972503e-05, 0.5874162316322327, 0.559154748916626, -0.1065419539809227, 0.2790510654449463, -0.09946786612272263, 0.596325695514679, 0.28745245933532715], [0.7137688398361206, 0.8549625873565674, 0.5907461047172546, -0.00020905294513795525, 0.5063930153846741, 0.45180755853652954, -0.03170314431190491, 0.6535159349441528, 0.1779189109802246, 0.7330240607261658, 0.5235477685928345, 0.5494036078453064, 0.8534351587295532, 0.8447554707527161, -0.05524088814854622, 0.4870087802410126, 0.5668807029724121, 1.90506580111105e-06, 0.5757467746734619, 0.9140204191207886, 0.612674355506897, 0.008863087743520737, 0.06370998173952103, 0.5435062646865845, 5.4712807468604296e-05, 0.4657098948955536, 0.4649460017681122, 0.0008930398616939783, 0.7341943979263306, 0.20024597644805908, 0.590470552444458, 0.6539187431335449]], "bias": [0.894972026348114, 0.8784331679344177, 0.8074151873588562, -0.0021268376149237156, 0.947919487953186, 0.912081241607666, -0.028990818187594414, 0.7337633967399597, -0.014879969879984856, 0.9602152109146118, 0.8758071064949036, 0.8485846519470215, 0.7795500755310059, 0.8076050877571106, -0.01780112087726593, 0.7232635021209717, 0.9394324421882629, -0.006439823191612959, 0.9027486443519592, 0.873106062412262, 0.8478084206581116, -0.048937469720840454, -0.03649667650461197, 0.8363946676254272, 0.0, 0.8352733850479126, 0.8265250325202942, -0.011616968549787998, 0.7160554528236389, -0.030077191069722176, 0.7845287919044495, 0.7409868836402893]}, {"tipo": "Dense", "activation": "relu", "weights": [[-0.2080518901348114, 0.19814926385879517, 0.6155098676681519, 0.4463622570037842, -0.06604945659637451, 0.6278355717658997, -0.36965033411979675, -0.09815414249897003, 0.3102990984916687, -0.15468159317970276, 0.922462522983551, -0.28953874111175537, 0.39259034395217896, 0.43820083141326904, 0.1560579091310501, -0.3142174184322357], [0.032721251249313354, 0.18801052868366241, 0.5637367963790894, 0.43885481357574463, -0.04129142314195633, 0.8550812602043152, -0.40432101488113403, -0.2356712818145752, -0.16110241413116455, -0.06962982565164566, 0.47564640641212463, -0.11005399376153946, 0.7293486595153809, 0.6062730550765991, -0.10651473701000214, -0.00035218006814830005], [0.19253253936767578, 0.8241131901741028, 0.635572075843811, 0.21935304999351501, -0.3110288381576538, 0.3678797781467438, -0.05730859190225601, -0.01029172446578741, -0.20960083603858948, -0.4010726809501648, 0.44410449266433716, 0.29897597432136536, 0.818695604801178, 0.3943178057670593, 0.2670847773551941, -0.035716358572244644], [-0.293274462223053, -0.33771681785583496, -0.016703380271792412, -0.3038509488105774, 0.23172947764396667, 0.1499282270669937, -0.14536415040493011, -0.18336771428585052, -0.20318269729614258, -0.09859676659107208, 0.10406775772571564, 0.12567824125289917, 0.24056291580200195, 0.056038446724414825, 0.02268781140446663, 0.3530900180339813], [-0.2823452055454254, 0.5969194173812866, 0.6375705003738403, 0.43945279717445374, 0.17819611728191376, 0.666068434715271, 0.1708783060312271, -0.20532946288585663, -0.02047094702720642, 0.00344022992067039, 0.5799115896224976, 0.07574720680713654, 0.21402804553508759, 0.3092585802078247, 0.15507245063781738, 0.08594956994056702], [0.18879948556423187, 0.7404763102531433, 0.8003571033477783, 0.5493257641792297, -0.06734880059957504, 0.48679739236831665, 0.297305703163147, 0.12891428172588348, -0.059348758310079575, 0.11883588135242462, 0.6011279821395874, -0.0719079002737999, 0.2549322247505188, 0.502922773361206, -0.3439359962940216, -0.0593281090259552], [0.08015895634889603, 0.29336094856262207, -0.3068189024925232, 0.36293813586235046, 0.33244940638542175, 0.2520510256290436, -0.038727015256881714, 0.02906516194343567, -0.32639235258102417, 0.2008504867553711, 0.18026183545589447, 0.24890194833278656, -0.09035182744264603, -0.1853046715259552, -0.29563888907432556, -0.229221373796463], [-0.17245012521743774, 0.7234399318695068, 0.44549354910850525, 0.33617866039276123, -0.11193656921386719, 0.5478088855743408, 0.17116573452949524, -0.15320955216884613, -0.25168362259864807, 0.1513984352350235, 0.6140668988227844, -0.34817150235176086, 0.3310849070549011, 0.6597194075584412, -0.29870060086250305, -0.3118591606616974], [0.25099045038223267, 0.04854390770196915, -0.13948193192481995, -0.1953490823507309, 0.1830838918685913, -0.06677943468093872, 0.10548041015863419, 0.2731137275695801, -0.25906291604042053, -0.2070656269788742, 0.10624457895755768, 0.3463553488254547, -0.05912787839770317, -0.18036356568336487, -0.15761035680770874, 0.10706132650375366], [0.05161326751112938, 0.5565206408500671, 0.6707373261451721, 0.5194446444511414, -0.20349830389022827, 0.7524856328964233, 0.1812737137079239, 0.03388164937496185, -0.27482613921165466, 0.007659066468477249, 0.701349675655365, -0.22531399130821228, 0.767569899559021, 0.41486722230911255, 0.03820452094078064, 0.3397095501422882], [0.03843997046351433, 0.773724377155304, 0.5119251012802124, 0.4415920674800873, 0.06986414641141891, 0.9138653874397278, 0.18755927681922913, -0.05015519633889198, 0.30316415429115295, 0.14437620341777802, 0.6858195662498474, 0.022455211728811264, 0.4736507534980774, 0.8585966229438782, -0.12629705667495728, 0.036143768578767776], [0.05042921379208565, 0.6311538219451904, 0.4573943316936493, 0.6831830143928528, -0.21618212759494781, 0.3341067135334015, -0.14501318335533142, 0.2157658338546753, -0.2547672986984253, 0.20127102732658386, 0.7439717054367065, -0.27326610684394836, 0.41652408242225647, 0.3649642765522003, 0.2507414221763611, 0.18835459649562836], [0.04204787686467171, 0.597624659538269, 0.6629258394241333, 0.41623568534851074, 0.05673285573720932, 0.44440528750419617, -0.25008735060691833, -0.3276624083518982, 0.22080326080322266, 0.24451032280921936, 0.5247170925140381, 0.06671854853630066, 0.3749183416366577, 0.6024217009544373, -0.1416657567024231, 0.026697654277086258], [-0.3601181209087372, 0.22310158610343933, 0.25742700695991516, 0.7688566446304321, 0.09317128360271454, 0.39014047384262085, -0.2493092566728592, -0.2965903878211975, -0.005488993134349585, -0.39913639426231384, 0.49559396505355835, -0.34248965978622437, 0.8535211682319641, 0.8032824993133545, -0.24098947644233704, 0.13679711520671844], [0.3406732976436615, -0.15629297494888306, -0.2058137208223343, 0.19945690035820007, -0.3192349672317505, 0.16991902887821198, -0.03680689260363579, -0.05132665857672691, -0.30132803320884705, -0.18891097605228424, 0.3358435332775116, -0.02076704427599907, -0.19970786571502686, -0.3272348940372467, -0.18753273785114288, -0.15490011870861053], [0.30644676089286804, 0.27143001556396484, 0.6120479106903076, 0.4842686355113983, -0.07623869925737381, 0.6722988486289978, -0.21074220538139343, 0.3261265158653259, 0.16446493566036224, 0.000663983984850347, 0.3474331200122833, 0.22828461229801178, 0.42020857334136963, 0.5828921794891357, -0.3281307816505432, 0.17539942264556885], [0.31766068935394287, 0.8501240015029907, 0.5082417130470276, 0.5279744267463684, -0.17099472880363464, 0.29566019773483276, 0.10629353672266006, 0.015864940360188484, -0.1388440579175949, 0.07759729772806168, 0.40542370080947876, 0.1301233321428299, 0.5850104689598083, 0.6029192209243774, 0.058003511279821396, 0.023707833141088486], [-0.08969371020793915, -0.0615149661898613, -0.015354268252849579, 0.04291309043765068, -0.2598205804824829, -0.00887448899447918, -0.17645157873630524, 0.1852019727230072, -0.24755725264549255, 0.0842471569776535, -0.28215667605400085, -0.1011786237359047, -0.014107136987149715, -0.018558019772171974, -0.3555552065372467, -0.17691004276275635], [-0.1702854037284851, 0.7378461360931396, 0.42722439765930176, 0.7415648698806763, -0.15000082552433014, 0.42172130942344666, 0.12993808090686798, -0.2963322103023529, 0.0031394665129482746, 0.14132753014564514, 0.519287109375, 0.07769729942083359, 0.3130464255809784, 0.4055403172969818, -0.2407475709915161, 0.13127581775188446], [0.179818794131279, 0.44851940870285034, 0.5260162353515625, 0.41680529713630676, -0.3609761893749237, 0.6567646861076355, 0.12601682543754578, 0.2576395273208618, -0.1975448727607727, -0.22489476203918457, 0.6647292375564575, 0.23114356398582458, 0.6741220951080322, 0.25596171617507935, 0.26916325092315674, -0.03201742470264435], [-0.16001129150390625, 0.640617847442627, 0.48093971610069275, 0.3793417513370514, -0.26596054434776306, 0.7190165519714355, 0.2013331800699234, -0.010950322262942791, 0.2019793540239334, -0.021216023713350296, 0.9782102108001709, 0.22077395021915436, 0.7131147980690002, 0.6180290579795837, -0.03638624772429466, -0.21331429481506348], [0.05715065822005272, -0.20844854414463043, -0.17873580753803253, -0.32045915722846985, -0.3404848575592041, 0.26048561930656433, -0.3396688997745514, 0.007908138446509838, 0.10474804043769836, -0.016123386099934578, -0.1355157494544983, -0.003918236121535301, -0.10229095071554184, 0.18634897470474243, 0.25939321517944336, 0.04009993001818657], [0.33254894614219666, -0.11710376292467117, 0.15926650166511536, 0.17685095965862274, -0.10862016677856445, 0.3774181604385376, 0.26064130663871765, -0.133303701877594, -0.15809743106365204, 0.2554175853729248, 0.3232911229133606, 0.07923194766044617, -0.24200257658958435, -0.22198572754859924, 0.20068828761577606, -0.35568752884864807], [-0.3030973970890045, 0.47382521629333496, 0.6497302055358887, 0.5513006448745728, -0.2536934018135071, 0.6209631562232971, 0.00237758900038898, -0.11446394771337509, 0.20717473328113556, 0.31706616282463074, 0.8647965788841248, 0.09282604604959488, 0.5935820937156677, 0.15879537165164948, 0.3003169000148773, 0.09423943608999252], [-0.22861874103546143, 0.28359052538871765, 0.11396649479866028, -0.13191011548042297, -0.09738871455192566, -0.1779954880475998, 0.016093194484710693, -0.04441913962364197, -0.14543494582176208, 0.16734424233436584, -0.3126154839992523, 0.07487943768501282, 0.3450174629688263, -0.3434775173664093, -0.13696148991584778, -0.025815188884735107], [0.13334886729717255, 0.5725988149642944, 0.39684170484542847, 0.7038877010345459, -0.010439181700348854, 0.8534289002418518, -0.29085108637809753, 0.23525959253311157, -0.30571627616882324, 0.06811870634555817, 0.8546873331069946, -0.21884679794311523, 0.47431960701942444, 0.7430149912834167, -0.140361025929451, -0.04217732325196266], [0.31323856115341187, 0.8854391574859619, 0.30878525972366333, 0.7238907217979431, -0.2347893863916397, 0.8634430170059204, 0.3181830048561096, 0.2655324637889862, 0.30975237488746643, 0.10838049650192261, 1.0172141790390015, 0.09507296979427338, 0.7742633819580078, 0.33917471766471863, 0.3088209927082062, -0.2162238359451294], [-0.0529421865940094, 0.24586203694343567, 0.15280772745609283, -0.23563383519649506, 0.1735563576221466, 0.24166935682296753, -0.2639321982860565, -0.002757269423455, -0.0684315636754036, 0.2850790023803711, 0.32731544971466064, 0.1123056635260582, -0.3419509530067444, -0.1437368094921112, -0.08018234372138977, 0.16142186522483826], [-0.1713549792766571, 0.3192029297351837, 0.7229905724525452, 0.36734211444854736, 0.3233042061328888, 0.6477918028831482, 0.05594685673713684, 0.003941753879189491, -0.22259989380836487, -0.09953052550554276, 0.6920344829559326, -0.3587646782398224, 0.7839279174804688, 0.5625001788139343, 0.319464772939682, -0.19667768478393555], [0.27144286036491394, -0.09504812210798264, -0.2508367598056793, 0.11097389459609985, 0.02579907514154911, -0.2801681458950043, 0.2565038800239563, 0.16616447269916534, -0.22137874364852905, -0.019070427864789963, 0.07420708239078522, 0.03730729967355728, 0.053823888301849365, -0.19531293213367462, -0.26236292719841003, -0.0462818518280983], [-0.3611312508583069, 0.2849353551864624, 0.46166399121284485, 0.6575706601142883, 0.21332848072052002, 0.6124159693717957, 0.04483048990368843, -0.061566974967718124, 0.10993566364049911, -0.07294703274965286, 0.9519165754318237, -0.0412801057100296, 0.2160092443227768, 0.4267435669898987, -0.27788856625556946, -0.2464136928319931], [-0.1765822470188141, 0.28940731287002563, 0.7205677628517151, 0.45197129249572754, -0.13900908827781677, 0.8063767552375793, -0.08079078048467636, -0.3626275360584259, -0.0277690552175045, -0.21252523362636566, 0.9647564888000488, 0.02881918102502823, 0.7163601517677307, 0.6404293179512024, -0.14456619322299957, 0.24375683069229126]], "bias": [-0.026922691613435745, 0.8571056127548218, 0.7744080424308777, 0.8556015491485596, -0.014318307861685753, 0.8924356698989868, -0.041865456849336624, -0.015395264141261578, -0.0328141450881958, -0.05213462933897972, 1.0606521368026733, -0.011207332834601402, 0.8468553423881531, 0.784063458442688, -0.00993596576154232, -0.011516163125634193]}, {"tipo": "Dense", "activation": "linear", "weights": [[-0.21160216629505157], [1.0901166200637817], [0.9283360242843628], [0.7397647500038147], [-0.20272421836853027], [0.5504634976387024], [-0.02503863349556923], [-0.3562074601650238], [-0.13959094882011414], [-0.3182852864265442], [0.5642580986022949], [-0.2794206738471985], [1.132804274559021], [0.938089907169342], [-0.2827432453632355], [-0.1770784854888916]], "bias": [0.8154540061950684]}]}