{"layers": [{"tipo": "Dense", "activation": "relu", "weights": [[0.5353468656539917, 0.1719174087047577, 0.6950740218162537, 0.4553225040435791, 0.33814099431037903, 0.6410320401191711, 0.4100666046142578, 0.2911026179790497, 0.27899450063705444, 0.47665029764175415, 0.5562831163406372, 0.6878529191017151, 0.4036101996898651, 0.2775188982486725, 0.6543205380439758, 0.7593275904655457, 0.46303460001945496, 0.24511349201202393, 0.5486761927604675, 0.5855444073677063, 0.6840927004814148, 0.33154553174972534, 0.27613186836242676, 0.46574127674102783, 0.2617962658405304, 0.19291311502456665, 0.6520535349845886, 0.4730139374732971, 0.36449408531188965, 0.1773637980222702, 0.15438705682754517, 0.24003969132900238, 0.5920429825782776, 0.720147430896759, 0.28275033831596375, 0.3037864565849304, 0.28352779150009155, 0.4109693765640259, 0.6892105340957642, 0.6760286092758179, 0.2301706224679947, 0.507218599319458, 0.4718724489212036, 0.21410463750362396, 0.2045212984085083, 0.44781747460365295, 0.31509318947792053, 0.5989372134208679, 0.4181029796600342, 0.40275707840919495, 0.3514412045478821, 0.12258649617433548, 0.6170063018798828, 0.2642649710178375, 0.6845135688781738, 0.49071237444877625, 0.18922507762908936, 0.6466439366340637, 0.6036359667778015, 0.27678027749061584, 0.2471451461315155, 0.6002705693244934, 0.2070772647857666, 0.30211198329925537], [0.2629040777683258, 0.18355444073677063, 0.46672168374061584, 0.31619957089424133, -0.031039204448461533, 0.33265578746795654, 0.13281480967998505, 0.5944129228591919, 0.3175123929977417, 0.18545927107334137, 0.2884494364261627, 0.3858581781387329, 0.3437291979789734, 0.14650340378284454, 0.29420116543769836, 0.060778506100177765, 0.17933230102062225, 0.3701365888118744, 0.39225658774375916, 0.04900199919939041, 0.5824185013771057, 0.18946754932403564, 0.1275625228881836, 0.2454470545053482, 0.5189043879508972, 0.3324413299560547, 0.5269066691398621, 0.5453758239746094, 0.09514930844306946, 0.162424236536026, 0.08595164865255356, 0.6261494159698486, 0.18739630281925201, 0.5439029335975647, 0.4730445444583893, 0.14856857061386108, 0.5323200821876526, 0.4823335111141205, 0.12311036884784698, 0.5928817391395569, 0.015060458332300186, 0.5575134754180908, 0.5903158187866211, 0.022361362352967262, 0.4165109395980835, 0.34496617317199707, 0.5735129117965698, 0.5300233364105225, 0.1894431859254837, 0.5392720699310303, 0.5424585342407227, 0.4056514799594879, 0.4317723214626312, 0.20311294496059418, 0.18233022093772888, 0.1568225771188736, 0.5604418516159058, 0.31697338819503784, 0.017791954800486565, -0.003919382579624653, 0.2250363826751709, 0.03812829405069351, 0.5734835267066956, 0.4344371557235718], [0.4965634346008301, 0.5232303738594055, 0.42233121395111084, 0.7869714498519897, 0.3964422941207886, 0.8297721147537231, 0.3386494219303131, 0.5075593590736389, 0.6861323714256287, 0.8878796696662903, 0.6560007929801941, 0.5204896330833435, 0.89999920129776, 0.4740535020828247, 0.3997436463832855, 0.5731365084648132, 0.3875085413455963, 0.363277792930603, 0.8370509147644043, 0.5944602489471436, 0.5893053412437439, 0.7990104556083679, 0.6754226684570312, 0.8353806734085083, 0.6527593731880188, 0.8782222867012024, 0.7240455746650696, 0.809763491153717, 0.532789409160614, 0.5202682018280029, 0.5945332050323486, 0.9263259172439575, 0.6242772936820984, 0.7769947648048401, 0.314005970954895, 0.7098687887191772, 0.8127825856208801, 0.9286841154098511, 0.8973389863967896, 0.9065148830413818, 0.4979318082332611, 0.32305780053138733, 0.5118158459663391, 0.8579941987991333, 0.5684834718704224, 0.33385419845581055, 0.7429280877113342, 0.5629827380180359, 0.8146042823791504, 0.3454802334308624, 0.6790823936462402, 0.4045809507369995, 0.565237820148468, 0.8152516484260559, 0.7663368582725525, 0.6923495531082153, 0.8700959086418152, 0.3900916874408722, 0.4077422022819519, 0.6580871343612671, 0.7072584629058838, 0.5598608255386353, 0.771583080291748, 0.313463419675827], [0.019237428903579712, 0.04753969609737396, 0.10459769517183304, -0.07155825942754745, -0.06370802223682404, 0.03762790933251381, -0.13996629416942596, 0.3793478310108185, 0.1636381894350052, -0.05111657828092575, -0.20762497186660767, 0.09275485575199127, -0.10541007667779922, 0.0930689126253128, -0.0073818364180624485, 0.36804261803627014, -0.016607997938990593, 0.0832275003194809, 0.3208266496658325, 0.26730233430862427, 0.029884735122323036, 0.4158196747303009, -0.02677229419350624, 0.2497699111700058, 0.286406010389328, 0.35737937688827515, 0.363564133644104, -0.024405930191278458, 0.14174897968769073, 0.18662014603614807, -0.020342227071523666, 0.3332894742488861, -0.1721750944852829, 0.018148811534047127, 0.318134605884552, 0.2144496887922287, -0.07767294347286224, -0.049903787672519684, 0.26205968856811523, 0.30615293979644775, 0.07736057788133621, 0.2973698079586029, 0.40244773030281067, -0.2032819390296936, 0.10473784059286118, -0.14997164905071259, 0.2764420509338379, 0.3399337828159332, 0.3618569076061249, 0.13316822052001953, 0.024943027645349503, -0.08483322709798813, -0.0045743538066744804, 0.13170920312404633, -0.13902324438095093, 0.02951313927769661, 0.23577013611793518, 0.31679096817970276, -0.05981263145804405, 0.20337483286857605, 0.17403751611709595, 0.24230827391147614, -0.04082946479320526, -0.039622530341148376], [0.4426085948944092, 0.11781436949968338, 0.24851728975772858, 0.31018492579460144, 0.16994991898536682, 0.5510295629501343, 0.07464639842510223, 0.24118216335773468, 0.2895510196685791, 0.5024101138114929, 0.4521201252937317, 0.1261727660894394, 0.05344577878713608, 0.12415029853582382, 0.10416589677333832, 0.4215107858181, 0.4815271496772766, 0.14210693538188934, 0.44430676102638245, 0.11273683607578278, 0.17364467680454254, 0.5074120759963989, 0.1444474756717682, 0.010036520659923553, 0.5096471905708313, 0.049762062728405, 0.46294331550598145, 0.33019644021987915, 0.5917531847953796, 0.479704886674881, 0.42510685324668884, 0.44448959827423096, 0.25992298126220703, 0.5609862804412842, 0.14652791619300842, 0.2041461318731308, 0.34326186776161194, 0.14288662374019623, 0.34632161259651184, 0.40339478850364685, 0.03214681148529053, 0.10829964280128479, 0.08233744651079178, 0.3369075059890747, 0.19975675642490387, 0.1203380674123764, -0.020369235426187515, 0.17340721189975739, 0.518937885761261, 0.19737693667411804, -0.044170185923576355, -0.17929776012897491, 0.2071998119354248, 0.5377863645553589, 0.19879545271396637, 0.35592329502105713, 0.5835814476013184, 0.23844532668590546, 0.30509963631629944, 0.16837410628795624, 0.002979277167469263, 0.2595880627632141, 0.5804728865623474, 0.013653037138283253], [0.348163902759552, 0.2846302092075348, 0.444830060005188, 0.48308730125427246, 0.25529131293296814, 0.7421512603759766, 0.5221798419952393, 0.5357732772827148, 0.38498401641845703, 0.5689587593078613, 0.3034939467906952, 0.3414820432662964, 0.23964911699295044, 0.48700568079948425, 0.5030800700187683, 0.4377394914627075, 0.3678268790245056, 0.737108051776886, 0.660577118396759, 0.327887624502182, 0.4912729263305664, 0.29912155866622925, 0.6929885745048523, 0.4403724670410156, 0.3532333970069885, 0.6890973448753357, 0.4147544503211975, 0.39605608582496643, 0.7045307755470276, 0.49943482875823975, 0.5824458599090576, 0.6467682719230652, 0.3953930139541626, 0.7703046798706055, 0.2415376603603363, 0.5671531558036804, 0.5682437419891357, 0.29717913269996643, 0.6627379059791565, 0.5052155256271362, 0.46204909682273865, 0.35840874910354614, 0.35473406314849854, 0.37965211272239685, 0.8116441965103149, 0.4105323851108551, 0.4386889338493347, 0.6591915488243103, 0.6874116659164429, 0.226321741938591, 0.1552809625864029, 0.11586076021194458, 0.16696514189243317, 0.5441528558731079, 0.6444330215454102, 0.19655515253543854, 0.6916934847831726, 0.6790280342102051, 0.5343215465545654, 0.127339169383049, 0.262459397315979, 0.5079506635665894, 0.4124467372894287, 0.48648789525032043], [1.0881930589675903, 0.8904526829719543, 0.7846149206161499, 1.1666619777679443, 0.8488523960113525, 1.0071523189544678, 1.2463780641555786, 0.7672911286354065, 0.925114095211029, 0.9536229968070984, 1.022477149963379, 0.8129709362983704, 1.1046571731567383, 1.1062068939208984, 0.6303050518035889, 0.6820229291915894, 1.0800869464874268, 1.000671148300171, 1.0539509057998657, 0.8785333633422852, 0.704167902469635, 0.7966131567955017, 0.9682906866073608, 1.044458031654358, 0.9019723534584045, 0.7325087785720825, 0.9738311171531677, 0.8514401912689209, 0.9364137649536133, 1.0348273515701294, 1.1219165325164795, 0.7519019842147827, 1.064889669418335, 0.8909416198730469, 1.0703277587890625, 1.0141569375991821, 0.6743215918540955, 0.9850173592567444, 0.6760749220848083, 0.9743998646736145, 0.5948678255081177, 0.7012358903884888, 1.2588497400283813, 0.860496997833252, 1.0775066614151, 1.0723174810409546, 0.8264610767364502, 0.720952570438385, 1.202495813369751, 0.6407249569892883, 0.6655110716819763, 0.8431724905967712, 0.8664507269859314, 0.8707447052001953, 1.0526514053344727, 0.9339638948440552, 0.6939724087715149, 0.8768845796585083, 0.7131071090698242, 0.7739993929862976, 0.6260010004043579, 1.20866060256958, 1.1675500869750977, 0.9650381207466125], [-0.1861019730567932, 0.37715214490890503, 0.4621271789073944, 0.12535427510738373, 0.254841685295105, 0.10551762580871582, 0.0005842919927090406, 0.07682932913303375, 0.42339879274368286, -0.0687704011797905, 0.25960731506347656, 0.32246628403663635, 0.28093230724334717, 0.4323095679283142, 0.35763099789619446, 0.08543451130390167, -0.03469066321849823, 0.10875465720891953, 0.02019965648651123, 0.42721566557884216, 0.47884246706962585, -0.0372987762093544, 0.26034775376319885, 0.17298440635204315, 0.3765698969364166, 0.418212354183197, 0.01790378987789154, 0.49096912145614624, -0.0092381052672863, 0.30117255449295044, 0.10941378772258759, 0.09830494225025177, -0.09519104659557343, 0.3517896234989166, -0.023489395156502724, 0.3294680118560791, -0.04900011792778969, -0.06218994781374931, 0.24487678706645966, 0.18614177405834198, 0.3758903741836548, -0.026075197383761406, 0.4328540563583374, 0.19003690779209137, 0.03465769812464714, 0.34530168771743774, -0.004198528826236725, 0.4680260717868805, -0.040176521986722946, 0.1089060828089714, -0.052018243819475174, -0.11743161082267761, 0.017424341291189194, 0.21073968708515167, 0.44072139263153076, 0.04621661826968193, 0.4614335000514984, 0.4365513026714325, 0.3485356271266937, -0.07354605942964554, 0.35219284892082214, 0.19716830551624298, 0.3440009653568268, 0.27569228410720825]], "bias": [1.2006210088729858, 1.2839792966842651, 1.2711557149887085, 1.2968428134918213, 1.1655772924423218, 1.3099218606948853, 1.3200207948684692, 1.2818166017532349, 1.2164238691329956, 1.3115991353988647, 1.2339757680892944, 1.2609606981277466, 1.2795941829681396, 1.2631710767745972, 1.2564486265182495, 1.3023563623428345, 1.31735098361969, 1.236908197402954, 1.2944377660751343, 1.2413588762283325, 1.2658926248550415, 1.2923587560653687, 1.2548309564590454, 1.2582597732543945, 1.2320483922958374, 1.2466917037963867, 1.2662793397903442, 1.273725152015686, 1.3112066984176636, 1.3004093170166016, 1.2450321912765503, 1.3145304918289185, 1.2730656862258911, 1.2865034341812134, 1.284849762916565, 1.2376519441604614, 1.3246867656707764, 1.3208693265914917, 1.2769286632537842, 1.278980016708374, 1.191206932067871, 1.2714817523956299, 1.2971712350845337, 1.2692666053771973, 1.3060307502746582, 1.2873084545135498, 1.3225129842758179, 1.2822626829147339, 1.2862945795059204, 1.294140338897705, 1.2417430877685547, 1.1947990655899048, 1.3093818426132202, 1.3097714185714722, 1.3003743886947632, 1.2702926397323608, 1.290492296218872, 1.271486520767212, 1.2251441478729248, 1.263349175453186, 1.314637303352356, 1.2579013109207153, 1.2815933227539062, 1.2691826820373535]}, {"tipo": "Dense", "activation": "relu", "weights": [[0.04270950332283974, 0.1522742509841919, 0.7552579045295715, 0.9278439283370972, 0.010994338430464268, 0.8361209630966187, -0.06650715321302414, 0.1833302527666092, 0.7596567273139954, -0.12150347977876663, 0.6636396646499634, -0.0015624258667230606, -0.20832166075706482, 0.7405794262886047, 0.6813009977340698, -0.12321943789720535, 0.7933312654495239, 0.14942820370197296, 0.8044580221176147, -0.131341353058815, 0.8494797945022583, 0.8852137327194214, 0.15512670576572418, 0.09206844866275787, -0.05215274542570114, 0.8620941638946533, -0.06893797218799591, -0.20682205259799957, 0.837619423866272, 1.0597130060195923, -0.12085887789726257, 0.902813196182251, 0.7609935998916626, 0.653683066368103, 0.6532343029975891, -0.0023691202513873577, -0.16069309413433075, 0.03137282282114029, 0.7633012533187866, 0.8252631425857544, -0.04644066095352173, -0.10322149842977524, 0.1883874386548996, -0.03785856068134308, 0.9534787535667419, -0.09032341092824936, 0.9594087600708008, 0.7775765061378479, 0.13571898639202118, -0.08817188441753387, 0.9523436427116394, 0.07933228462934494, 0.6405057907104492, 0.7653663754463196, -0.019242478534579277, 0.10683055967092514, 0.15107640624046326, -0.0786723718047142, 0.675518274307251, 0.7203776836395264, 0.8737971186637878, 1.0829747915267944, 0.910818874835968, 0.6518990397453308], [-0.04040275514125824, -0.10142400115728378, 0.8991550803184509, 0.6192216873168945, 0.20487162470817566, 0.7544797658920288, 0.14744754135608673, 0.19109687209129333, 1.0240709781646729, 0.0026931315660476685, 1.0091453790664673, 0.19252769649028778, -0.06715689599514008, 0.7253819108009338, 0.8198059797286987, 0.15739832818508148, 0.830610454082489, -0.06967596709728241, 0.6723357439041138, 0.06533850729465485, 0.8813786506652832, 1.010793685913086, -0.04419755935668945, -0.09945139288902283, -0.12187329679727554, 0.9417093396186829, 0.10478396713733673, 0.14422538876533508, 1.027638554573059, 0.8295373916625977, -0.05585753172636032, 0.9590162634849548, 0.8743077516555786, 0.8796426653862, 0.8714750409126282, -0.20555633306503296, 0.029862239956855774, -0.06447498500347137, 0.7609754800796509, 0.7167090773582458, 0.07554193586111069, -0.07778766751289368, -0.16690635681152344, 0.04406549036502838, 0.997260570526123, -0.05565109848976135, 0.9315357208251953, 1.0131373405456543, 0.04275539144873619, 0.1913311928510666, 0.7704649567604065, -0.13866029679775238, 0.9827970266342163, 1.0151032209396362, 0.13676169514656067, -0.19350895285606384, -0.08722859621047974, 0.166260227560997, 0.6427167057991028, 0.910167932510376, 0.8332463502883911, 1.0001803636550903, 0.7708327174186707, 0.8502600789070129], [0.063676618039608, 0.17181305587291718, 0.7066218852996826, 0.7388060092926025, -0.08166475594043732, 0.8231291770935059, -0.02590165287256241, -0.07673879712820053, 0.6768373847007751, 0.024306464940309525, 0.6608242988586426, 0.13376478850841522, -0.23233769834041595, 0.5517876744270325, 0.5607843995094299, 0.11542657762765884, 0.7938616275787354, 0.13782654702663422, 0.8194126486778259, -0.23728138208389282, 0.8014299869537354, 0.8592975735664368, -0.23276568949222565, -0.14624057710170746, -0.15922777354717255, 0.7963283658027649, 0.1441597193479538, -0.032570235431194305, 0.8041125535964966, 0.6631571650505066, 0.12067350745201111, 0.6509659886360168, 0.6663962602615356, 0.8960514664649963, 0.9276331067085266, -0.19380740821361542, -0.21690505743026733, -0.19153514504432678, 0.7016392946243286, 0.5851300358772278, -0.15822117030620575, -0.09880262613296509, -0.03313514590263367, 0.014388054609298706, 0.884890615940094, 0.1298837810754776, 0.6844193935394287, 0.832470178604126, -0.1296807825565338, 0.10926316678524017, 0.784637987613678, -0.019846493378281593, 0.8441002368927002, 0.8867747783660889, 0.00012001918366877362, -0.19719669222831726, -0.1208227276802063, -0.1134495884180069, 0.8254984021186829, 0.5714951753616333, 0.8308266401290894, 0.7301613688468933, 0.9406306147575378, 0.546848714351654], [-0.13290566205978394, -0.04145624488592148, 0.991188108921051, 0.6233698129653931, -0.13432392477989197, 0.9045574069023132, -0.049116116017103195, -0.08619663119316101, 0.6171338558197021, 0.16995669901371002, 0.7638905048370361, 0.1642828732728958, -0.04024413228034973, 0.9573748111724854, 0.9069960117340088, -0.03285713866353035, 0.7200255990028381, -0.015226349234580994, 0.9511232972145081, 0.17238619923591614, 0.6299291849136353, 0.8111147284507751, -0.03806685283780098, 0.06803838908672333, 0.16657833755016327, 1.0309289693832397, 0.038531411439180374, -0.1860417127609253, 0.604916512966156, 0.820643424987793, -0.007776001002639532, 1.0531522035598755, 0.89570552110672, 0.8784499168395996, 0.9666386246681213, -0.028239792212843895, 0.03322150930762291, -0.0329449437558651, 0.9888080954551697, 0.7074446082115173, -0.17053291201591492, -0.08313609659671783, 0.17353026568889618, -0.08227011561393738, 0.89369136095047, -0.03558046743273735, 0.8978962302207947, 0.8135672211647034, -0.22726069390773773, -0.048120707273483276, 0.8173291087150574, -0.18171848356723785, 0.8876816034317017, 0.6916167736053467, 0.03345727548003197, -0.1160106211900711, 0.023343240842223167, -0.11311755329370499, 0.678215742111206, 0.774429202079773, 0.9346818327903748, 0.8657471537590027, 0.7378569841384888, 0.8100730776786804], [-0.22548627853393555, 0.0484234094619751, 0.6777083873748779, 0.5638754367828369, -0.15575188398361206, 0.7469132542610168, -0.16074198484420776, -0.17485055327415466, 0.6404319405555725, 0.16446436941623688, 0.6860835552215576, 0.07895012199878693, 0.12137630581855774, 0.7279207706451416, 0.659208357334137, -0.04970318451523781, 0.639721691608429, -0.2003387212753296, 0.6967917680740356, -0.006390491034835577, 0.6062835454940796, 0.7749989032745361, 0.004324821289628744, -0.049136191606521606, -0.2181575745344162, 0.9769921898841858, -0.062334489077329636, -0.08602429181337357, 1.0174567699432373, 0.8231430053710938, -0.1275748610496521, 0.855817973613739, 0.5591610670089722, 0.8569530844688416, 0.6788460612297058, 0.07145512849092484, 0.10558012872934341, -0.19435356557369232, 0.8531282544136047, 1.0071810483932495, -0.06977003812789917, -0.08029159903526306, -0.07758043706417084, 0.2019137293100357, 0.5728456377983093, 0.08692488819360733, 0.6060805320739746, 0.8269644379615784, -0.03269048035144806, 0.05290620028972626, 0.7069893479347229, 0.029986761510372162, 0.7123162150382996, 0.662398099899292, 0.10852310061454773, -0.011355611495673656, -0.23998278379440308, -0.11939042806625366, 0.7294346690177917, 0.7462525367736816, 0.8566368222236633, 0.7293751835823059, 0.624506413936615, 0.9138153791427612], [0.14553327858448029, -0.1792108714580536, 0.6765472292900085, 0.6651648879051208, 0.03157680109143257, 0.7491575479507446, 0.0757468193769455, 0.08562692254781723, 0.751734733581543, -0.15050305426120758, 0.6143529415130615, 0.07180136442184448, 0.0185875091701746, 0.6584756970405579, 0.5567547082901001, -0.00845665019005537, 0.6529331207275391, -0.21131134033203125, 0.6284289956092834, 0.11540113389492035, 0.7017709016799927, 0.6229078769683838, -0.2588568925857544, 0.07510578632354736, -0.22550225257873535, 0.6333307027816772, -0.07991806417703629, -0.17996735870838165, 0.8730301856994629, 0.6302419900894165, 0.04579278081655502, 0.9183507561683655, 0.8818890452384949, 0.9569566249847412, 0.9090904593467712, 0.03584615886211395, -0.1087431088089943, 0.12934646010398865, 0.8800520300865173, 0.7322871088981628, 0.07265947759151459, -0.15143848955631256, 0.07778741419315338, -0.17611943185329437, 0.7557392716407776, 0.08737873286008835, 0.7072599530220032, 0.9590491652488708, -0.10810597985982895, 0.2067379504442215, 0.9453486800193787, -0.040599651634693146, 0.7910537123680115, 0.5599507093429565, 0.17642024159431458, -0.09139783680438995, -0.001979127060621977, -0.016819702461361885, 0.7638413310050964, 0.5732051730155945, 0.7843182682991028, 0.9602157473564148, 0.8725297451019287, 0.7553265690803528], [-0.1371457725763321, -0.10444238781929016, 0.7361346483230591, 0.9510339498519897, 0.10796675831079483, 0.9923102259635925, -0.003966614603996277, -0.022237643599510193, 1.0865365266799927, 0.015518411993980408, 0.9051259160041809, 0.19560019671916962, 0.10420569032430649, 0.8737119436264038, 0.9838883280754089, -0.027942482382059097, 0.9904428720474243, 0.05525834858417511, 0.8596276044845581, -0.22571758925914764, 0.8083983063697815, 0.8532202839851379, -0.04416971281170845, 0.0963263139128685, 0.14989356696605682, 1.0183303356170654, -0.008011283352971077, -0.1859629601240158, 0.6901352405548096, 0.8857182264328003, -0.04863658547401428, 0.9948310852050781, 1.0691311359405518, 1.1171237230300903, 0.8775122165679932, 0.12358121573925018, 0.1176372617483139, -0.11879041790962219, 0.797192394733429, 1.1512395143508911, -0.1755760759115219, 0.06753270328044891, 0.17794376611709595, 0.042151257395744324, 1.0740635395050049, 0.13666826486587524, 1.0821832418441772, 0.9267133474349976, 0.16660185158252716, -0.19204352796077728, 0.8559097051620483, 0.09822628647089005, 0.8542981147766113, 0.8961475491523743, -0.117211252450943, -0.041050441563129425, 0.056297417730093, 0.1379673033952713, 0.7953453660011292, 0.7348877787590027, 0.839188277721405, 1.0800484418869019, 1.0788557529449463, 0.8832272291183472], [-0.04550722986459732, -0.1173437312245369, 0.6968712210655212, 0.9639649987220764, 0.062153492122888565, 0.6596221923828125, -0.044183243066072464, -0.1299702227115631, 0.7918144464492798, -0.11050018668174744, 0.9881250262260437, 0.036667123436927795, 0.0884532481431961, 0.8685624599456787, 0.8952410817146301, -0.05556648224592209, 0.8920727372169495, 0.2014705091714859, 1.014955997467041, 0.12648381292819977, 0.6432297825813293, 0.971933901309967, -0.18719251453876495, 0.0550670251250267, -0.07683468610048294, 0.9958556890487671, -0.13908402621746063, -0.20063288509845734, 0.5771941542625427, 0.8761330246925354, -0.1042613685131073, 0.9813926815986633, 0.9325969815254211, 0.9539235234260559, 0.708773136138916, -0.0007482767105102539, -0.20285654067993164, -0.09665466845035553, 0.8276886343955994, 0.9579489231109619, -0.1698395013809204, -0.10194913297891617, 0.12797288596630096, 0.05955798923969269, 0.9914083480834961, -0.16204380989074707, 0.8427867293357849, 0.8206896781921387, -0.17531239986419678, -0.17386047542095184, 0.6014937162399292, 0.0675467848777771, 0.8671097755432129, 0.6244528293609619, 0.1935759335756302, -0.05170699954032898, -0.07955118268728256, -0.1315000057220459, 0.9159098267555237, 0.6277622580528259, 0.9893732666969299, 0.604914665222168, 0.9502478241920471, 0.6434089541435242], [-0.1749279499053955, 0.14063213765621185, 0.9616342782974243, 0.9210460186004639, 0.0016147643327713013, 0.6316475868225098, 0.048894379287958145, -0.08178255707025528, 0.9349479079246521, -0.15892170369625092, 0.6617358922958374, 0.08132510632276535, -0.02552681975066662, 0.769453227519989, 0.7916007041931152, 0.12932272255420685, 0.8627866506576538, 0.17144574224948883, 0.9323022961616516, 0.03288939222693443, 0.6285749673843384, 0.6012798547744751, -0.22989308834075928, 0.0701335147023201, -0.19373278319835663, 0.7857025861740112, -0.17799285054206848, 0.1627328097820282, 0.6078957319259644, 0.6818984150886536, -0.12000267952680588, 0.8978540897369385, 0.6629550457000732, 0.5906762480735779, 0.6877102851867676, -0.17636986076831818, 0.054621923714876175, -0.16550835967063904, 0.7477381229400635, 0.8510374426841736, 0.16173064708709717, -0.18749217689037323, 0.029013406485319138, -0.08343438804149628, 0.630581259727478, -0.16622614860534668, 0.6251315474510193, 0.7965229749679565, 0.05976352468132973, 0.16627787053585052, 0.7182214856147766, -0.006307993549853563, 0.9209598302841187, 0.5754716396331787, -0.08500290662050247, -0.2144121527671814, -0.19476722180843353, 0.17158439755439758, 0.7731058597564697, 0.744709849357605, 0.8833228349685669, 0.9819456338882446, 0.9255638122558594, 0.5692330002784729], [-0.02551981434226036, 0.13830764591693878, 0.7740740776062012, 0.7187144756317139, -0.2236173450946808, 0.9947800636291504, 0.08120859414339066, -0.04488159343600273, 0.7647908329963684, -0.046869710087776184, 0.7850942015647888, 0.10837449133396149, -0.06450370699167252, 0.8547058701515198, 0.6947331428527832, -0.18251581490039825, 0.8575660586357117, -0.18972107768058777, 0.830543577671051, -0.12638437747955322, 0.7416918873786926, 0.8253456950187683, 0.025488995015621185, 0.18781471252441406, -0.13371402025222778, 0.7802520394325256, -0.0757952630519867, -0.1518147885799408, 0.8175944089889526, 1.0531295537948608, -0.22753849625587463, 0.8228031992912292, 0.8567276000976562, 0.6364667415618896, 0.9838165044784546, -0.21490514278411865, 0.07362598180770874, -0.1503795087337494, 0.6901256442070007, 0.6953350901603699, -0.14101631939411163, -0.08321329951286316, 0.163078173995018, 0.099504753947258, 1.0148067474365234, -0.024065326899290085, 0.9805068969726562, 0.9551842212677002, 0.0968199223279953, -0.1448625922203064, 0.6348544359207153, -0.055286336690187454, 0.6757597923278809, 0.9275963306427002, 0.07102596759796143, 0.13497114181518555, -0.21096035838127136, 0.10444340854883194, 0.9299088716506958, 0.9493081569671631, 0.9040318727493286, 0.971010684967041, 0.9794015884399414, 0.8869306445121765], [0.104303739964962, 0.05928864702582359, 0.8603211641311646, 0.8927005529403687, -0.061232276260852814, 0.8890358209609985, 0.06706675887107849, 0.07234867662191391, 0.7697557806968689, -0.10303542017936707, 0.6673175096511841, 0.030811382457613945, -0.1346486210823059, 1.0006662607192993, 0.6565410494804382, -0.04997827112674713, 1.0369408130645752, -0.010988473892211914, 0.7302793860435486, -0.0439775288105011, 0.8671751022338867, 0.7346616387367249, -0.11396044492721558, -0.15685036778450012, -0.20163530111312866, 0.7540768980979919, -0.06153331696987152, 0.02642379328608513, 0.7445268034934998, 0.7885429263114929, -0.09773706644773483, 0.9466243386268616, 0.8743451237678528, 0.6014440655708313, 0.5977460741996765, 0.14409439265727997, -0.18325790762901306, 0.06462853401899338, 1.02177095413208, 0.63616544008255, 0.01986871100962162, 0.157343789935112, 0.11792927980422974, -0.2085101306438446, 0.77253657579422, 0.1702965348958969, 0.7898114919662476, 0.7731927037239075, -0.09176960587501526, -0.08567486703395844, 0.8741434812545776, 0.07436182349920273, 0.873625636100769, 0.6001446843147278, 0.1610584259033203, -0.013141971081495285, -0.09284321963787079, 0.01482264045625925, 0.9091975092887878, 0.5941822528839111, 0.7599871754646301, 0.8341723084449768, 0.8266061544418335, 0.6426385641098022], [0.1319301277399063, 0.11290724575519562, 0.5567822456359863, 0.8092648983001709, -0.12677422165870667, 0.8822923302650452, -0.04763544350862503, -0.06438077986240387, 0.8606364130973816, 0.03392718732357025, 0.8524864912033081, 0.0669594258069992, -0.23727452754974365, 0.6415046453475952, 0.9502851366996765, -0.22997206449508667, 0.8028567433357239, -0.18537840247154236, 0.8096205592155457, -0.25011685490608215, 0.7435875535011292, 0.7689835429191589, -0.08680834621191025, -0.23180532455444336, -0.04138486087322235, 0.6512492895126343, -0.05813204497098923, -0.1462184339761734, 0.6971063017845154, 0.8422411680221558, -0.25104016065597534, 0.8186272382736206, 0.7688137888908386, 0.5634298920631409, 0.7103103995323181, 0.002096530282869935, 0.055096711963415146, 0.08254751563072205, 0.8852050304412842, 0.9607332944869995, 0.009821619838476181, -0.07583048939704895, -0.1753130406141281, 0.13813398778438568, 0.5788838267326355, 0.177958145737648, 0.5491612553596497, 0.5304899215698242, 0.012019281275570393, -0.0715271383523941, 0.9346504211425781, 0.06998706609010696, 0.8153696060180664, 0.6040312647819519, -0.007036810740828514, 0.10698569566011429, -0.16678853332996368, 0.025124521926045418, 0.5729350447654724, 0.9118731021881104, 0.5523764491081238, 0.9448256492614746, 0.9781961441040039, 0.7149213552474976], [0.007840807549655437, -0.1507030725479126, 0.9591203927993774, 0.8511778116226196, 0.07950882613658905, 0.8853393793106079, -0.10024068504571915, 0.08196816593408585, 0.8437123894691467, 0.14894917607307434, 0.8077117204666138, 0.08993525803089142, -0.048730965703725815, 0.8086938261985779, 0.835233211517334, 0.10576926171779633, 0.9390435814857483, -0.20090854167938232, 1.0361016988754272, 0.030442161485552788, 0.5837426781654358, 1.002805233001709, -0.12389315664768219, -0.22348308563232422, -0.11280983686447144, 0.8300628066062927, -0.08715546876192093, -0.011091992259025574, 0.7464355826377869, 0.8301095962524414, 0.05865352600812912, 0.8604195713996887, 0.602592945098877, 0.7795409560203552, 0.7557421326637268, -0.0772896409034729, 0.0903206318616867, -0.04455135017633438, 0.9524449110031128, 0.9742478728294373, -0.10211022943258286, -0.16318279504776, -0.17809627950191498, 0.18276627361774445, 0.87034010887146, -0.23454731702804565, 0.961383044719696, 0.7187788486480713, 0.09355556219816208, -0.18375441431999207, 0.916901707649231, -0.23950599133968353, 0.8930745720863342, 0.808266282081604, 0.1498238891363144, 0.10581301152706146, -0.06282655894756317, 0.10332140326499939, 0.751714289188385, 0.8732664585113525, 0.968727707862854, 1.0273339748382568, 0.7220361232757568, 0.9714774489402771], [0.022557515650987625, 0.08197043836116791, 0.9001481533050537, 0.982265830039978, -0.09050185978412628, 0.815178632736206, -0.18275471031665802, -0.19429568946361542, 0.9250060319900513, 0.01938968151807785, 0.9942028522491455, -0.14625895023345947, -0.09983382374048233, 0.7763336896896362, 0.8584603667259216, 0.14703531563282013, 1.0379457473754883, -0.1414376199245453, 1.0098246335983276, -0.06898324191570282, 0.8438416123390198, 0.8582411408424377, -0.10515366494655609, -0.05423916503787041, 0.041311316192150116, 0.8104175329208374, 0.16513553261756897, -0.23721079528331757, 0.8012235760688782, 0.9016640782356262, -0.0863981619477272, 0.6326876282691956, 0.8189489841461182, 0.9458841681480408, 0.704112708568573, 0.08237987011671066, -0.1878780871629715, 0.11146579682826996, 0.9980996251106262, 0.7164518237113953, 0.05811883509159088, 0.07093632221221924, -0.17515349388122559, 0.06980790197849274, 0.9575927257537842, 0.1871759295463562, 0.7340320348739624, 0.8294928073883057, -0.1661110818386078, -0.1867406964302063, 0.8976584076881409, -0.06068407744169235, 0.6883870363235474, 0.6665769219398499, 0.10779866576194763, 0.07375279814004898, 0.08899343013763428, -0.10852902382612228, 0.7656933069229126, 0.8523236513137817, 1.0056917667388916, 0.7883691787719727, 0.96183842420578, 0.577907919883728], [-0.2266109734773636, -0.02107565850019455, 0.7344069480895996, 0.836755633354187, 0.18514426052570343, 0.9939478635787964, -0.049124810844659805, 0.1602337807416916, 0.5569201707839966, -0.12507201731204987, 0.7175600528717041, -0.13757166266441345, -0.01634547859430313, 0.7705128788948059, 0.6003351807594299, 0.07676325738430023, 0.6566007137298584, 0.11595465242862701, 0.8289536237716675, -0.016957078129053116, 0.7932073473930359, 0.9330286383628845, 0.1391955018043518, -0.10190694034099579, -0.03057984821498394, 0.8671640753746033, -0.1044616624712944, -0.16165167093276978, 0.8008468151092529, 0.5963531732559204, 0.12531138956546783, 0.8091351389884949, 0.9228702783584595, 0.6424733996391296, 0.8548324108123779, -0.1659068912267685, 0.03908519446849823, -0.16897276043891907, 0.6747802495956421, 0.9876787662506104, -0.2493162453174591, -0.12861226499080658, 0.06587500125169754, 0.101951465010643, 0.7499912977218628, 0.1040375679731369, 0.9688979983329773, 0.9175090193748474, 0.20279812812805176, -0.026181325316429138, 0.635389506816864, -0.11625124514102936, 0.5587145090103149, 0.7809191942214966, 0.018296528607606888, -0.18000870943069458, 0.15471422672271729, 0.14408180117607117, 0.9255347847938538, 0.8532774448394775, 0.5596359372138977, 0.7465522885322571, 0.938869059085846, 0.8307338356971741], [-0.08277779817581177, -0.11696811765432358, 0.9325460195541382, 0.8772681355476379, -0.23716142773628235, 0.8943997621536255, -0.01593684032559395, -0.13983021676540375, 0.5636734962463379, -0.18432992696762085, 0.8600189685821533, -0.09521359205245972, 0.05806119367480278, 0.7231480479240417, 0.6682778596878052, -0.014585849829018116, 0.7737754583358765, 0.1445462852716446, 0.5911155939102173, 0.17585769295692444, 0.5026193261146545, 0.6393285989761353, -0.06719408929347992, 0.04995190352201462, -0.11187466233968735, 0.902230978012085, -0.10554913431406021, -0.10027063637971878, 0.5932148098945618, 0.7003079056739807, -0.056899454444646835, 0.9348670840263367, 0.933167040348053, 0.9262480139732361, 0.7680803537368774, -0.18538649380207062, 0.07805494219064713, -0.018289687111973763, 0.8746070265769958, 0.9722869396209717, -0.2025761902332306, 0.20895864069461823, 0.17141877114772797, -0.0710172951221466, 0.8611935377120972, -0.014372612349689007, 0.6289510130882263, 0.9303998947143555, 0.1171824187040329, -0.1469445526599884, 0.6344866752624512, -0.09576218575239182, 0.9451472163200378, 0.5894840955734253, -0.11669325828552246, -0.07383398711681366, -0.1018323004245758, -0.12678365409374237, 0.9306055307388306, 0.5550386309623718, 0.701560378074646, 0.9287242889404297, 0.8126578330993652, 0.561168372631073], [-0.18310584127902985, 0.16073079407215118, 0.8898538947105408, 0.834830641746521, 0.017558492720127106, 1.0499120950698853, -0.16355590522289276, 0.031631361693143845, 0.6902130842208862, 0.20813660323619843, 0.650612473487854, -0.15299130976200104, -0.2173466682434082, 0.8312637805938721, 0.979686975479126, -0.1256353259086609, 1.0828311443328857, -0.13242094218730927, 1.0266709327697754, -0.07054448127746582, 0.716029703617096, 0.8379305601119995, -0.11262726038694382, -0.1325751096010208, 0.10160724818706512, 1.0384840965270996, 0.19555622339248657, 0.1728934794664383, 0.7421613931655884, 0.7794787883758545, 0.11392556875944138, 1.0278046131134033, 0.8101605176925659, 0.718824028968811, 1.0598498582839966, -0.18378490209579468, -0.07967852056026459, 0.008333536796271801, 0.7577245831489563, 0.9040651321411133, -0.13216514885425568, -0.17934547364711761, -0.19450873136520386, 0.18687908351421356, 1.0300703048706055, -0.11779294162988663, 0.6737048625946045, 0.8037792444229126, -0.03636967018246651, 0.14363355934619904, 0.8764638304710388, 0.1523664891719818, 0.7408360242843628, 1.052923560142517, -0.2383911907672882, -0.10246289521455765, -0.22019091248512268, -0.04971462860703468, 0.993691623210907, 1.0592321157455444, 0.9663136601448059, 1.022072434425354, 0.9556325078010559, 1.0542443990707397], [0.00024201362975873053, 0.006323585286736488, 0.7595409750938416, 0.7271413207054138, 0.05973561480641365, 0.7794222235679626, 0.11713999509811401, -0.10385791957378387, 0.7295652031898499, 0.09421408176422119, 1.0498600006103516, 0.008912628516554832, 0.13932375609874725, 0.7656218409538269, 0.7969712615013123, 0.132330060005188, 1.0454193353652954, 0.1446179896593094, 0.9924997687339783, 0.07645133137702942, 0.6502074003219604, 1.0550278425216675, 0.0944354385137558, 0.05597280338406563, -0.07955329865217209, 0.8737157583236694, -0.16994129121303558, 0.11450214684009552, 0.7355741262435913, 0.6657136678695679, 0.012349394150078297, 1.0443048477172852, 0.654483437538147, 0.7237014770507812, 0.8257368206977844, 0.07882417738437653, -0.1619184911251068, 0.12900608777999878, 0.7458547353744507, 0.8863136768341064, -0.19074858725070953, 0.07828959077596664, -0.10779479891061783, -0.025247737765312195, 0.8340747952461243, -0.06136435642838478, 0.9997724890708923, 0.7421786785125732, 0.028308359906077385, 0.14976470172405243, 0.8923230767250061, 0.02228989079594612, 0.7221658229827881, 0.9541230797767639, 0.15622901916503906, 0.17385779321193695, -0.022433921694755554, -0.14274515211582184, 1.0962432622909546, 0.7798232436180115, 0.8531417846679688, 0.7693479061126709, 1.0766056776046753, 0.772645890712738], [0.027032939717173576, -0.011893936432898045, 0.7773981094360352, 0.6547240614891052, -0.08704309910535812, 0.8923461437225342, 0.021696854382753372, -0.027214255183935165, 0.7662408947944641, -0.17943067848682404, 0.7642951011657715, -0.0014070336474105716, 0.08087198436260223, 1.0008177757263184, 0.9353890419006348, 0.08663506805896759, 0.6280591487884521, -0.1554625928401947, 0.6644534468650818, -0.1265537589788437, 0.9016773700714111, 0.5548911094665527, 0.06567449122667313, 0.0008545099408365786, -0.002052183961495757, 0.7995067834854126, 0.13794051110744476, 0.06602369993925095, 0.7045599222183228, 0.7897830009460449, 0.05023413151502609, 0.9338063597679138, 0.7252895832061768, 0.8737776875495911, 0.602776050567627, -0.01444349717348814, 0.0024877642281353474, -0.2044077217578888, 0.7638760209083557, 0.9511047005653381, -0.2507167458534241, 0.06711028516292572, -0.24268738925457, -0.18298116326332092, 0.7377204298973083, 0.15126238763332367, 0.8097884654998779, 0.9611028432846069, -0.11331453174352646, 0.12652133405208588, 0.8720479607582092, -0.059688787907361984, 0.7782728672027588, 0.7168189287185669, -0.20126299560070038, 0.13557155430316925, -0.214332714676857, -0.12321477383375168, 0.8408281803131104, 0.861685574054718, 0.5990954041481018, 0.8473996520042419, 0.6615442633628845, 0.8407202959060669], [0.17334303259849548, 0.11756312102079391, 0.6735925078392029, 0.9028183817863464, -0.22106818854808807, 0.6018227934837341, -0.15120120346546173, -0.08726122975349426, 0.5720722675323486, -0.19326457381248474, 0.9172571301460266, 0.19681479036808014, -0.21585650742053986, 0.8213461637496948, 0.6581922769546509, -0.05913732200860977, 0.898335337638855, 0.18010659515857697, 0.6215539574623108, -0.16318318247795105, 0.7394679188728333, 0.8860605359077454, 0.17796774208545685, 0.12623649835586548, -0.17805629968643188, 0.6169589161872864, 0.016149690374732018, -0.15060387551784515, 0.6164536476135254, 0.697300374507904, 0.1418338418006897, 0.9091063141822815, 0.904155433177948, 0.5274572372436523, 0.599340558052063, -0.059955012053251266, 0.18287290632724762, -0.15237343311309814, 0.965812087059021, 0.9199283719062805, -0.09473248571157455, 0.1173521876335144, -0.14060050249099731, 0.14454896748065948, 0.5581294298171997, 0.14768636226654053, 0.8687558174133301, 0.9413836598396301, -0.1215435341000557, -0.02150866389274597, 0.7416011095046997, -0.05267792195081711, 0.5999005436897278, 0.943777322769165, -0.010948105715215206, -0.22662588953971863, -0.08119645714759827, 0.0900665670633316, 0.8262614607810974, 0.9223273396492004, 0.592037558555603, 0.961451530456543, 0.9091269373893738, 0.6907166838645935], [0.08108250051736832, 0.13534343242645264, 0.8119518160820007, 0.8795991539955139, -0.16770386695861816, 0.5094397664070129, 0.15526440739631653, 0.15189985930919647, 0.7287483215332031, 0.04808322340250015, 0.5994027853012085, -0.16941018402576447, 0.15994471311569214, 0.9439507126808167, 0.5777927041053772, -0.004389854613691568, 0.8760085701942444, -0.057048648595809937, 0.5938190221786499, 0.051524486392736435, 0.8315467834472656, 0.5414681434631348, -0.12557297945022583, 0.09069398790597916, -0.04559536650776863, 0.6950761675834656, 0.08915363252162933, 0.1748725026845932, 0.7941951751708984, 0.6079717874526978, -0.17069664597511292, 0.7894740700721741, 0.7476392984390259, 0.9070959091186523, 0.9068586230278015, 0.021428953856229782, -0.07559038698673248, -0.17138893902301788, 0.8803594708442688, 0.8765903115272522, -0.1843201071023941, 0.14720530807971954, 0.13146306574344635, 0.12279881536960602, 0.4857160747051239, -0.11382146924734116, 0.8819993734359741, 0.5600404739379883, 0.1355796903371811, -0.1303848773241043, 0.8987943530082703, 0.10315743833780289, 0.9122828841209412, 0.9001731872558594, -0.149308443069458, 0.0058937291614711285, -0.09150201827287674, -0.03749645873904228, 0.6375651955604553, 0.8986878395080566, 0.8627937436103821, 0.803114652633667, 0.8820246458053589, 0.5887873768806458], [0.19368883967399597, -0.1312108188867569, 0.7104724645614624, 0.9533460140228271, 0.16594970226287842, 0.6387869715690613, 0.04389629885554314, 0.12114814668893814, 0.7430503964424133, -0.09924738854169846, 0.7222882509231567, -0.18015697598457336, -0.013057771138846874, 0.6539815068244934, 0.6568309664726257, -0.13780108094215393, 0.6809403300285339, 0.023924127221107483, 0.9153424501419067, 0.015073060989379883, 0.6075059175491333, 0.7952780723571777, 0.07376698404550552, 0.09011204540729523, 0.12553875148296356, 0.804696261882782, -0.1652175337076187, -0.045458048582077026, 0.857506513595581, 0.6817787885665894, -0.07754641771316528, 0.9310687780380249, 1.0149790048599243, 0.9121538400650024, 1.0093568563461304, 0.025648772716522217, 0.1552322655916214, -0.18224740028381348, 0.7361071705818176, 0.6541519165039062, -0.06774939596652985, 0.1961490958929062, 0.02771916054189205, -0.12903332710266113, 0.9998119473457336, 0.17438198626041412, 0.692979633808136, 0.8655551671981812, -0.0825071707367897, -0.034441933035850525, 0.6904408931732178, 0.15515835583209991, 0.9480143189430237, 0.6151496171951294, 0.019079769030213356, -0.1035044863820076, -0.033216845244169235, 0.01208856888115406, 0.6141340732574463, 0.9580974578857422, 0.7283333539962769, 0.8548018336296082, 0.9220035076141357, 0.699683427810669], [0.13542430102825165, 0.17797408998012543, 0.8017926812171936, 0.6592204570770264, -0.17134787142276764, 0.9162262678146362, -0.05275426805019379, -0.11419516801834106, 0.972499668598175, 0.1826133131980896, 0.801774799823761, -0.0372609905898571, 0.1106833666563034, 0.736566960811615, 0.6977468729019165, -0.025804981589317322, 1.077871322631836, 0.20615045726299286, 0.8807109594345093, 0.17784202098846436, 0.8441082835197449, 1.0069018602371216, 0.05264473706483841, 0.14502094686031342, 0.18400098383426666, 0.9306875467300415, -0.029818058013916016, -0.1247531920671463, 1.0083773136138916, 0.6346169710159302, -0.11166027933359146, 0.8256608843803406, 0.7190360426902771, 0.8999856114387512, 0.8239595293998718, -0.07477249205112457, 0.14268948137760162, -0.16292403638362885, 1.0823237895965576, 0.7598862051963806, 0.03760496526956558, 0.03514263033866882, -0.12186897546052933, 0.06088997423648834, 0.8093689680099487, 0.09867837280035019, 0.8299339413642883, 0.9408324360847473, 0.01882225275039673, -0.11529732495546341, 0.628383994102478, 0.053826954215765, 0.7269934415817261, 0.684790313243866, 0.14796660840511322, 0.10240517556667328, -0.15706206858158112, -0.1497788429260254, 0.8727127909660339, 0.8846088647842407, 0.7825765013694763, 1.0401535034179688, 0.6720941066741943, 0.7052849531173706], [0.021044226363301277, 0.17614735662937164, 0.706157386302948, 0.8673318028450012, -0.17861483991146088, 0.7966399788856506, -0.005513367708772421, -0.13455338776111603, 0.6731613278388977, -0.10744322836399078, 0.9534233808517456, -0.1172846108675003, -0.08548711985349655, 0.8982616066932678, 0.6514272093772888, 0.13116255402565002, 0.7771663665771484, -0.16058914363384247, 0.7414687871932983, -0.13699252903461456, 0.6264666318893433, 0.940787136554718, 0.0057795993052423, -0.1940416693687439, 0.12394487112760544, 0.9702265858650208, -0.07044386863708496, -0.024522975087165833, 0.7883787751197815, 0.7387632131576538, 0.14630143344402313, 0.8900488018989563, 0.6670065522193909, 0.9351526498794556, 0.6775716543197632, -0.20896659791469574, 0.14246337115764618, 0.17646749317646027, 0.8520861268043518, 1.005263090133667, -0.0902734026312828, 0.1983865648508072, 0.16115395724773407, 0.004058033227920532, 0.6447072625160217, -0.07403665035963058, 0.8703128099441528, 0.8200312852859497, -0.10998235642910004, -0.01491256058216095, 0.8737156391143799, 0.13843169808387756, 0.7760204076766968, 0.9715883135795593, 0.08645616471767426, 0.023564985021948814, -0.03956257924437523, -0.1419755518436432, 0.8771931529045105, 0.6682150363922119, 0.6635506749153137, 0.8601852059364319, 0.8205487728118896, 0.9374472498893738], [-0.10483501851558685, -0.14158718287944794, 0.6220250129699707, 0.8131446838378906, -0.07172197103500366, 0.5767775774002075, 0.16610367596149445, -0.14213956892490387, 0.6550590991973877, 0.05097678303718567, 0.7391176819801331, -0.14419154822826385, -0.029227612540125847, 0.8137360215187073, 0.8086990118026733, 0.083189457654953, 0.8052107691764832, 0.1083063930273056, 0.9853771328926086, 0.02329951338469982, 0.8515903949737549, 0.8389816284179688, -0.11586297303438187, 0.16667398810386658, 0.089011050760746, 0.8543278574943542, 0.11387177556753159, 0.1665114164352417, 0.8179367780685425, 0.7056551575660706, 0.12278348207473755, 0.7096497416496277, 0.7563978433609009, 0.526272177696228, 0.5517231822013855, 0.1753687858581543, -0.2108018398284912, 0.04851731285452843, 0.8998014330863953, 0.8248932957649231, 0.10202905535697937, -0.20126697421073914, -0.031197264790534973, -0.008249148726463318, 0.565178394317627, 0.0070861149579286575, 0.6749644875526428, 0.7169750332832336, 0.12231217324733734, -0.19285383820533752, 0.5617455244064331, -0.03847770765423775, 0.8802223801612854, 0.7386574149131775, 0.021026238799095154, 0.09561912715435028, -0.2062283158302307, -0.10566974431276321, 0.7210272550582886, 0.6004227995872498, 0.7461023330688477, 0.5617253184318542, 0.7622642517089844, 0.8492186665534973], [-0.12075775116682053, 0.11857084184885025, 0.9217343330383301, 0.5430185198783875, -0.2068394124507904, 0.6260557174682617, -0.2069489061832428, 0.008285016752779484, 0.7577229738235474, 0.11724282056093216, 0.9169092774391174, -0.059210970997810364, 0.09877414256334305, 0.670407772064209, 0.5762527585029602, 0.05661306157708168, 0.6647903323173523, 0.07442565262317657, 0.9937565326690674, -0.024529529735445976, 0.660379946231842, 0.6408516764640808, -0.04559655115008354, -0.14093707501888275, -0.11794255673885345, 0.9227866530418396, -0.1313418447971344, -0.059191763401031494, 0.7834920287132263, 0.8267002701759338, -0.21087822318077087, 0.8258225917816162, 0.8199475407600403, 0.5341029167175293, 0.8008943200111389, -0.20371362566947937, -0.10678264498710632, -0.12036090344190598, 0.6088519096374512, 0.7451081871986389, 0.09388481080532074, 0.055107422173023224, -0.16676925122737885, -0.09454550594091415, 0.7526870965957642, 0.14322485029697418, 0.5843734741210938, 0.8490473031997681, 0.1929875761270523, 0.09105496108531952, 0.6322309374809265, 0.07221522182226181, 0.732788622379303, 0.6494214534759521, -0.023033635690808296, 0.020387127995491028, -0.1541498452425003, -0.22072100639343262, 0.9792985320091248, 0.8364190459251404, 0.7368267178535461, 0.9350005984306335, 0.6105105876922607, 0.8076318502426147], [0.04271167889237404, -0.1547180563211441, 0.5967242121696472, 0.736472487449646, 0.09975332021713257, 0.7968063950538635, 0.04118068143725395, -0.05521403253078461, 0.549357533454895, -0.06770617514848709, 0.8048521876335144, 0.0829160138964653, 0.06016876548528671, 0.6123338341712952, 0.9436002373695374, 0.0914037823677063, 0.558926522731781, -0.021053582429885864, 0.6432787179946899, -0.07254195958375931, 0.6988177299499512, 0.8694978952407837, 0.08848392963409424, 0.06598231941461563, -0.061892904341220856, 0.5884323716163635, -0.16410894691944122, 0.07109903544187546, 0.6111403107643127, 0.77935391664505, -0.18901628255844116, 0.946812093257904, 0.708002507686615, 0.6242364048957825, 0.7521514296531677, -0.16849814355373383, 0.016846610233187675, 0.1939011812210083, 0.8897567987442017, 0.6968330144882202, 0.03635087609291077, -0.17832571268081665, -0.16773246228694916, -0.053209781646728516, 0.653896152973175, 0.04041265323758125, 0.7850131988525391, 0.8064531683921814, 0.17064939439296722, -0.21279534697532654, 0.6904939413070679, 0.14685477316379547, 0.9090679883956909, 0.9267717003822327, -0.0857139453291893, 0.12430838495492935, 0.0037440769374370575, 0.12246839702129364, 0.7458731532096863, 0.784905195236206, 0.8207008242607117, 0.7832568287849426, 0.7938345670700073, 0.8048507571220398], [0.014354326762259007, -0.2462545931339264, 0.721544086933136, 0.6704123616218567, 0.0971626564860344, 0.8215292692184448, -0.16942815482616425, 0.13815979659557343, 0.7622350454330444, -0.18668565154075623, 0.8011890649795532, -0.13164764642715454, 0.02830282226204872, 0.8911492824554443, 0.6513117551803589, 0.10966204851865768, 0.6064158082008362, -0.2075541913509369, 0.8497740030288696, 0.05822186544537544, 0.7454780340194702, 0.7970921397209167, 0.015440003015100956, -0.049394432455301285, -0.20675970613956451, 0.6419519186019897, -0.09326140582561493, -0.1488960087299347, 0.6625798344612122, 0.69344162940979, -0.029679100960493088, 0.7462924718856812, 0.7704376578330994, 0.8012518882751465, 0.657760739326477, -0.22160053253173828, -0.1085088923573494, -0.19163377583026886, 0.8214471340179443, 0.590004026889801, 0.07497434318065643, 0.02851782739162445, 0.18355481326580048, 0.08373485505580902, 0.7951788306236267, 0.09856662154197693, 0.9307178854942322, 0.8763193488121033, -0.05799667164683342, -0.12920992076396942, 0.7096796631813049, 0.1426278054714203, 0.9115844368934631, 0.6860114932060242, -0.18504099547863007, 0.027455119416117668, 0.022475354373455048, -0.11758183687925339, 0.637859046459198, 0.5480254888534546, 0.8615697622299194, 0.7613171339035034, 0.6519507169723511, 0.8824060559272766], [-0.18322381377220154, -0.08427183330059052, 0.8700951933860779, 0.7469533681869507, 0.04304733872413635, 1.0676804780960083, -0.01498339418321848, 0.18903818726539612, 0.9393085837364197, -0.04997934401035309, 0.681217610836029, 0.05971396341919899, 0.08215906471014023, 0.9327120780944824, 0.7962819933891296, -0.04431633651256561, 0.8871829509735107, -0.09859863668680191, 0.8764081001281738, -0.08054219186306, 0.9384528994560242, 0.8528586626052856, 0.16301189363002777, -0.17674164474010468, -0.1453639417886734, 0.9440160393714905, 0.13600732386112213, -0.20717297494411469, 0.8998695015907288, 0.8058779239654541, -0.11166052520275116, 0.8149842619895935, 0.87436842918396, 0.6236404180526733, 0.7914701700210571, 0.10969054698944092, 0.08510936796665192, 0.15797993540763855, 1.0793373584747314, 0.7980812788009644, -0.16285103559494019, -0.03314310312271118, -0.2372354418039322, 0.003507465124130249, 0.7879783511161804, -0.022136574611067772, 1.0216326713562012, 1.0105654001235962, 0.12426768988370895, -0.16186681389808655, 0.7723408937454224, -0.20132732391357422, 0.686419665813446, 0.9197766184806824, -0.04904789477586746, -0.09935431182384491, 0.030735913664102554, -0.1886429339647293, 0.9767603874206543, 0.9489343166351318, 0.9516393542289734, 0.776902973651886, 0.9605121612548828, 0.6498622894287109], [-0.11181101948022842, -0.07502159476280212, 0.8053067326545715, 0.6934272050857544, -0.0544072650372982, 0.781392514705658, -0.010235503315925598, 0.11880876123905182, 0.6644697189331055, -0.1610243022441864, 0.7218334674835205, 0.17986410856246948, -0.09841752797365189, 0.8788099884986877, 0.839255690574646, 0.027960259467363358, 0.722303032875061, -0.1519419550895691, 1.047005295753479, 0.16009850800037384, 0.8744502067565918, 1.0028589963912964, -0.20959939062595367, 0.02235775999724865, 0.031499236822128296, 0.9604732394218445, 0.10680728405714035, -0.16321609914302826, 0.6074016690254211, 0.8406116366386414, 0.05441007763147354, 0.9964139461517334, 0.9083686470985413, 0.8140531778335571, 0.6515988707542419, 0.007691618986427784, -0.11633946746587753, 0.10202247649431229, 0.8480427265167236, 0.9540829658508301, -0.27037543058395386, 0.06766195595264435, -0.16254538297653198, -0.029539361596107483, 1.0148615837097168, -0.1535176783800125, 0.6605034470558167, 0.7174813151359558, -0.15240982174873352, 0.19621320068836212, 0.9676705002784729, -0.2081911265850067, 0.9530628323554993, 0.7088907957077026, -0.20895616710186005, 0.028031203895807266, -0.15749680995941162, -0.21431288123130798, 0.9820970296859741, 0.9533115029335022, 0.7634578347206116, 0.9775616526603699, 0.9380698204040527, 0.7286971211433411], [-0.13319343328475952, -0.03741030395030975, 1.0783274173736572, 0.8837562799453735, -0.0693434327840805, 0.9588212966918945, 0.1402735710144043, -0.05242352560162544, 0.6969543099403381, 0.16321717202663422, 0.721394956111908, 0.1467275768518448, -0.10477274656295776, 1.0091602802276611, 0.8927956223487854, 0.043027110397815704, 0.6998217701911926, -0.049194589257240295, 1.0361382961273193, 0.008484028279781342, 0.6215676665306091, 0.773790717124939, -0.21711108088493347, 0.06393293291330338, 0.1827574372291565, 1.0536514520645142, 0.14960505068302155, 0.0033697057515382767, 0.815731406211853, 0.7133729457855225, -0.005890862550586462, 0.7691804766654968, 0.9050796627998352, 1.0122706890106201, 0.7413363456726074, 0.07524804770946503, -0.18539363145828247, -0.13467754423618317, 0.8460708856582642, 0.8163176774978638, -0.031228771433234215, -0.1432586908340454, 0.014919864013791084, 0.062042489647865295, 0.7424917221069336, -0.0019465088844299316, 0.9988448619842529, 0.680015504360199, -0.19487516582012177, -0.06797105073928833, 1.0198954343795776, 0.13183674216270447, 0.8300527334213257, 1.074611783027649, -0.22103536128997803, 0.11336502432823181, -0.06202095374464989, 0.16257253289222717, 0.8497415781021118, 0.9778734445571899, 0.758714497089386, 0.7543641328811646, 1.091434359550476, 0.6774631142616272], [-0.19111371040344238, -0.1013716533780098, 0.6302608251571655, 0.7476312518119812, 0.06441472470760345, 0.9255359768867493, 0.16586075723171234, -0.03159436583518982, 0.7788341641426086, 0.17615018784999847, 0.7158350944519043, 0.12928904592990875, 0.0402291901409626, 0.8678474426269531, 0.6135653257369995, -0.0613476037979126, 0.615854024887085, -0.11928227543830872, 0.6019327640533447, 0.14874012768268585, 0.6813766360282898, 0.6964436173439026, -0.20306815207004547, -0.08218254148960114, 0.11716348677873611, 0.9080793857574463, 0.10753820091485977, -0.17659087479114532, 0.6870927214622498, 0.722768247127533, 0.10390148311853409, 0.7322230935096741, 0.7716655135154724, 0.9221016764640808, 0.7347179055213928, -0.0835619866847992, -0.17980653047561646, -0.22350019216537476, 0.8056933879852295, 0.8501064777374268, 0.13396191596984863, 0.02218405157327652, -0.15834468603134155, -0.11225122958421707, 0.947700023651123, 0.14080075919628143, 0.6639890670776367, 0.6578848958015442, -0.15752048790454865, 0.05009885132312775, 0.6626533269882202, 0.1342984139919281, 0.7140329480171204, 0.8239896297454834, 0.05436337739229202, -0.15287387371063232, 0.12243042141199112, -0.21247051656246185, 0.6040497422218323, 0.8108521699905396, 0.8773819208145142, 1.0136252641677856, 0.7449387311935425, 0.793682336807251], [0.040594737976789474, -0.11334291100502014, 0.8594566583633423, 0.8966614603996277, 0.06843260675668716, 0.7176740765571594, -0.051125455647706985, 0.13107378780841827, 0.8222305178642273, -0.13457903265953064, 0.7194826006889343, -0.11160346120595932, 0.1390337347984314, 1.0041861534118652, 0.9215044379234314, -0.012724384665489197, 0.9868960976600647, -0.09456424415111542, 0.7017005681991577, 0.18201030790805817, 0.7868210077285767, 0.9117931127548218, 0.11300002038478851, -0.11319217085838318, -0.0585380494594574, 0.760122537612915, -0.22614911198616028, 0.047585006803274155, 0.9993983507156372, 0.8868487477302551, -0.18367044627666473, 1.0127249956130981, 0.6840877532958984, 0.9389922618865967, 0.8525877594947815, 0.033015523105859756, 0.09914431720972061, 0.022618917748332024, 0.9686027765274048, 0.7794962525367737, -0.16090130805969238, -0.13083133101463318, 0.11227325350046158, 0.047537609934806824, 0.7382977604866028, -0.14618787169456482, 0.7937583923339844, 0.9158068299293518, -0.15649454295635223, -0.07205633819103241, 0.7843035459518433, -0.034896235913038254, 0.9564417004585266, 1.0136784315109253, -0.23469990491867065, -0.17360852658748627, 0.07204745709896088, -0.011519593186676502, 0.6804062128067017, 0.9245983362197876, 0.9740289449691772, 0.7875764966011047, 0.9697861075401306, 0.762881338596344], [-0.2335672676563263, 0.170421302318573, 0.6286182403564453, 0.6374792456626892, 0.13694381713867188, 0.7425518035888672, -0.21583931148052216, 0.053145185112953186, 0.7687657475471497, 0.1289161741733551, 0.8399012088775635, -0.09323157370090485, -0.25661277770996094, 0.8676091432571411, 0.4959773123264313, 0.021545538678765297, 0.6099328994750977, -0.09371928870677948, 0.8583782315254211, 0.08809168636798859, 0.8352444767951965, 0.5490527153015137, 0.1741490364074707, 0.017515534535050392, -0.07042572647333145, 0.5704938173294067, -0.13432368636131287, 0.018945980817079544, 0.7634837031364441, 0.6403756141662598, -0.03282133489847183, 0.9485024809837341, 0.7724744081497192, 0.6039274334907532, 0.5452149510383606, -0.18247342109680176, 0.17885509133338928, 0.08020234107971191, 0.8212510347366333, 0.8137563467025757, 0.14498545229434967, -0.09994938969612122, -0.12354401499032974, -0.056152015924453735, 0.49465107917785645, -0.08436090499162674, 0.8804278373718262, 0.8252179622650146, -0.21353460848331451, -0.07118387520313263, 0.5962011218070984, 0.03968247026205063, 0.8387115001678467, 0.7528318762779236, 0.06453439593315125, 0.011119166389107704, -0.15830112993717194, -0.15229670703411102, 0.794166088104248, 0.6043732166290283, 0.8825189471244812, 0.6770932674407959, 0.5590881705284119, 0.8781105279922485], [-0.2209409475326538, -0.05368087813258171, 0.6266475915908813, 1.0324345827102661, -0.13746297359466553, 1.0545165538787842, 0.10683715343475342, -0.23331551253795624, 0.8538352251052856, 0.11563264578580856, 0.626397430896759, -0.13073182106018066, 0.16027942299842834, 0.7038722634315491, 0.993888795375824, -0.044043391942977905, 0.7654529213905334, 0.13109628856182098, 1.0581949949264526, -0.08770767599344254, 0.6180450320243835, 0.9253754615783691, -0.07481494545936584, -0.14437873661518097, -0.21748057007789612, 0.6844763159751892, -0.09922458231449127, 0.04804181307554245, 0.6282961964607239, 0.9921316504478455, -0.03580169379711151, 0.8338409066200256, 0.8970434069633484, 0.6318169832229614, 0.9503249526023865, -0.022008538246154785, 0.1805390864610672, -0.13025732338428497, 0.9611227512359619, 0.9760001301765442, 0.17714355885982513, -0.13542844355106354, 0.1527380794286728, -0.01185634732246399, 0.7622067332267761, -0.13445605337619781, 0.6317716836929321, 0.9950957298278809, 0.18046700954437256, -0.00423586368560791, 1.0171867609024048, -0.06746606528759003, 0.7406002879142761, 0.8717117309570312, -0.18469764292240143, -0.12438662350177765, -0.026157395914196968, 0.11023300141096115, 0.692552387714386, 0.8548656105995178, 1.007584810256958, 1.0017151832580566, 1.0442109107971191, 0.6949912309646606], [-0.05888551101088524, -0.001771948765963316, 0.9481188058853149, 0.952328085899353, -0.025335418060421944, 0.9185445308685303, -0.06382205337285995, -0.195848748087883, 0.7164347171783447, -0.1737491339445114, 0.6456184983253479, 0.1500757485628128, 0.12324406951665878, 1.01223886013031, 0.8628271222114563, 0.02465873584151268, 0.6728450655937195, 0.03497104346752167, 0.8301077485084534, 0.047276243567466736, 0.896419107913971, 0.5725060105323792, 0.013159569352865219, -0.12103114277124405, 0.17357878386974335, 0.7653032541275024, -0.1554788202047348, 0.016384171321988106, 0.8606189489364624, 0.8333749771118164, 0.12534207105636597, 0.7800520062446594, 0.580058217048645, 0.7254669070243835, 0.7981611490249634, 0.17950564622879028, 0.14472725987434387, -0.2124907672405243, 0.9007619023323059, 0.9333245754241943, 0.09998006373643875, -0.15874801576137543, 0.024134108796715736, -0.20834825932979584, 0.764945387840271, -0.10494301468133926, 0.7269055247306824, 0.8088001012802124, 0.050519440323114395, -0.19398832321166992, 0.6406867504119873, -0.07950740307569504, 0.7960289716720581, 0.9146847724914551, 0.06190541014075279, 0.06778047233819962, 0.1307092159986496, -0.046951260417699814, 0.7222512364387512, 0.6834413409233093, 0.9065139889717102, 0.6565343141555786, 0.9812682271003723, 0.6774426102638245], [0.13841110467910767, 0.03710096701979637, 0.8445181846618652, 0.6597384810447693, -0.1550140231847763, 0.8123737573623657, -0.07164590805768967, -0.09847649931907654, 0.8654179573059082, 0.017028868198394775, 0.6634232401847839, -0.09722471237182617, -0.05284691974520683, 0.9661550521850586, 0.9934501647949219, -0.2148086428642273, 1.0990086793899536, -0.0720503032207489, 0.8228063583374023, 0.09838690608739853, 0.9249250292778015, 1.0812857151031494, 0.17447763681411743, -0.14136075973510742, 0.0429718941450119, 0.7677995562553406, -0.10760870575904846, 0.06220155209302902, 1.0675216913223267, 0.9657134413719177, 0.10313104093074799, 1.1219542026519775, 1.0659282207489014, 0.9678980112075806, 0.9934753775596619, 0.1190350204706192, -0.07859142124652863, -0.20630523562431335, 1.0928895473480225, 0.841156005859375, -0.1949276179075241, -0.004562768153846264, -0.1483651101589203, 0.14772437512874603, 0.8767808079719543, -0.07244247198104858, 0.6727567911148071, 0.9111851453781128, -0.06386307626962662, 0.010158032178878784, 0.6968685388565063, -0.23256024718284607, 0.7003351449966431, 0.6981396675109863, -0.2117699384689331, 0.02264438010752201, -0.05580051243305206, -0.16866682469844818, 0.9765025973320007, 0.770965576171875, 0.9598835706710815, 0.9302486181259155, 0.9650787115097046, 1.003019094467163], [-0.18605022132396698, -0.08850694447755814, 0.9523237943649292, 0.9984354972839355, 0.18132250010967255, 0.7404821515083313, 0.10870899260044098, 0.09743738919496536, 0.9399974942207336, 0.10864975303411484, 0.7168469429016113, 0.012483268976211548, -0.20989888906478882, 0.9489364624023438, 0.7381607890129089, -0.1510910838842392, 0.6986297369003296, -0.06520704925060272, 0.9118198156356812, 0.06020026281476021, 0.6479595303535461, 0.8925305604934692, 0.0037302658893167973, -0.06891367584466934, 0.08201368153095245, 1.0682607889175415, 0.11781643331050873, 0.04677879065275192, 0.8622002005577087, 0.9341604113578796, 0.13429555296897888, 0.8955991864204407, 1.0410966873168945, 0.7952832579612732, 0.8318747878074646, -0.1267230212688446, -0.10039813816547394, -0.04451341927051544, 0.772203266620636, 0.9609998464584351, -0.17394128441810608, -0.10157386213541031, -0.1205902174115181, 0.1469125598669052, 0.7598377466201782, -0.14002524316310883, 0.8986145257949829, 1.0336620807647705, -0.20947988331317902, -0.09989598393440247, 0.826452910900116, -0.07887271046638489, 0.8304134607315063, 0.9013288021087646, -0.13867361843585968, -0.23871871829032898, -0.012521517463028431, 0.052750956267118454, 0.9742465019226074, 0.9218470454216003, 0.8040128946304321, 0.9396545886993408, 1.0084391832351685, 0.8603577613830566], [0.04381002485752106, -0.22800414264202118, 0.5495415925979614, 0.9225307703018188, 0.10375186055898666, 0.6786611676216125, 0.09965230524539948, -0.06688378751277924, 0.7139511704444885, 0.16527555882930756, 0.7517666816711426, 0.014158470556139946, 0.10614077001810074, 0.9014478325843811, 0.5713100433349609, 0.027310198172926903, 0.658876895904541, -0.13192126154899597, 0.8782188892364502, -0.19459135830402374, 0.8392937183380127, 0.5276492238044739, 0.10596363991498947, 0.06311622262001038, 0.1579355001449585, 0.6268842220306396, -0.0019998177886009216, -0.2040823996067047, 0.9207521080970764, 0.7979906797409058, -0.009145377203822136, 0.9164753556251526, 0.6419218182563782, 0.8895919322967529, 0.7101362347602844, -0.1830264925956726, -0.1808907389640808, -0.061412956565618515, 0.7050129175186157, 0.5976221561431885, 0.15720371901988983, -0.07940617203712463, -0.2265070080757141, 0.15498434007167816, 0.9021609425544739, 0.012349540367722511, 0.8573336601257324, 0.6091731190681458, 0.07546888291835785, -0.14910383522510529, 0.8498566746711731, 0.15837818384170532, 0.5917884707450867, 0.9233997464179993, -0.2121140956878662, -0.08932678401470184, 0.09852883219718933, 0.07781723886728287, 0.8395088315010071, 0.8973070979118347, 0.9228714108467102, 0.7769424915313721, 0.5476683974266052, 0.8898289203643799], [-0.03360084071755409, -0.017363829538226128, 0.49621644616127014, 0.6697875261306763, -0.14966067671775818, 0.5162149667739868, -0.17513708770275116, -0.04903208091855049, 0.8694096207618713, -0.15002350509166718, 0.7114715576171875, -0.14458854496479034, 0.14434538781642914, 0.9626871943473816, 0.850236177444458, 0.01063973642885685, 0.9357142448425293, 0.18609018623828888, 0.7874544262886047, 0.1292906552553177, 0.5933735370635986, 0.5007115602493286, -0.21779796481132507, -0.06529740244150162, 0.047024376690387726, 0.8385971188545227, -0.02946266159415245, -0.0437798947095871, 0.5073804259300232, 0.6116662621498108, -0.010646786540746689, 0.7775702476501465, 0.5345499515533447, 0.8825592398643494, 0.8251125812530518, 0.016488710418343544, -0.15021191537380219, -0.11374784260988235, 0.7692676186561584, 0.620751678943634, -0.1821202039718628, -0.0688968226313591, 0.007289445493370295, -0.14039459824562073, 0.708834707736969, -0.07117053866386414, 0.8515774011611938, 0.8824946880340576, 0.02284620888531208, -0.1349760890007019, 0.8964000344276428, -0.13524958491325378, 0.7022223472595215, 0.647473931312561, -0.03242505341768265, 0.1534167379140854, 0.12100066989660263, 0.18685679137706757, 0.5691402554512024, 0.5422661304473877, 0.68511563539505, 0.9051382541656494, 0.7808825373649597, 0.8289285898208618], [0.18005940318107605, -0.18932518362998962, 0.6886351108551025, 0.900077223777771, 0.046913810074329376, 0.8422921299934387, 0.09803377091884613, 0.09452475607395172, 0.6509261131286621, 0.03520645573735237, 0.671453595161438, -0.08676010370254517, -0.13190868496894836, 0.6732415556907654, 1.0149916410446167, -0.03383263200521469, 0.8164677023887634, -0.18591271340847015, 0.8008120059967041, 0.02698477730154991, 0.7503418326377869, 0.8798036575317383, 0.15606054663658142, 0.13176366686820984, 0.18334782123565674, 0.7269022464752197, -0.20025277137756348, -0.12884002923965454, 0.9686536192893982, 0.8346348404884338, 0.06986690312623978, 0.9378708600997925, 0.8323554992675781, 0.6753076910972595, 0.7588412761688232, 0.17973794043064117, -0.04780024290084839, -0.21156129240989685, 1.057155728340149, 0.9482511281967163, 0.11652813851833344, -0.20477443933486938, -0.03323376923799515, 0.10761241614818573, 0.6883420348167419, -0.10682724416255951, 0.6149399280548096, 0.8302204012870789, -0.1043378934264183, -0.007693886756896973, 0.7218213081359863, -0.22785250842571259, 0.712393581867218, 0.6792501211166382, 0.00898994691669941, -0.09722422063350677, -0.19322963058948517, -0.02639889530837536, 0.6813870072364807, 0.6381453275680542, 0.6127933859825134, 0.7859858274459839, 1.052870512008667, 0.5935316681861877], [0.030287129804491997, -0.12481195479631424, 0.6439708471298218, 0.748400092124939, 0.16162846982479095, 0.926686704158783, 0.0514448918402195, 0.08624526113271713, 0.806111216545105, -0.08390427380800247, 0.9852201342582703, 0.1913856416940689, -0.01801462098956108, 0.8204454779624939, 0.6280092597007751, 0.04571028798818588, 0.7759062051773071, -0.09272520989179611, 0.6355336904525757, 0.10759870707988739, 0.5314104557037354, 0.9016685485839844, 0.12533746659755707, 0.11363494396209717, -0.17853285372257233, 0.6988479495048523, 0.047207772731781006, 0.0026588591281324625, 0.7775844931602478, 0.6134811043739319, 0.08796475827693939, 0.6747398376464844, 0.8615310192108154, 0.664911150932312, 0.7393545508384705, -0.19214697182178497, -0.007901053875684738, 0.12136371433734894, 1.0219292640686035, 0.6404471397399902, 0.03532916679978371, 0.1552179455757141, 0.05447732284665108, 0.14504341781139374, 0.8957539200782776, -0.2006121277809143, 0.763313889503479, 0.8213105797767639, -0.23668882250785828, 0.16580329835414886, 0.8044543862342834, 0.1328311711549759, 0.7623461484909058, 0.918860673904419, -0.2210485190153122, 0.054423775523900986, 0.14020779728889465, -0.11648307740688324, 0.7320911288261414, 0.9541316032409668, 0.7121049165725708, 1.013590693473816, 1.0395481586456299, 0.8680860996246338], [-0.11619880795478821, -0.23302580416202545, 0.8901069164276123, 0.7701038122177124, -0.16269251704216003, 0.925713300704956, 0.022773098200559616, -0.12856942415237427, 0.5608485341072083, 0.16234621405601501, 0.5423032641410828, 0.04540048539638519, 0.11169113218784332, 0.7816029787063599, 0.8223266005516052, -0.18056707084178925, 0.6199765205383301, -0.2041783630847931, 0.7361452579498291, -0.10116776823997498, 0.7917479872703552, 0.8431696891784668, 0.0087518859654665, 0.07300678640604019, 0.08224081993103027, 0.9262910485267639, 0.06385451555252075, 0.14454291760921478, 0.5649415254592896, 0.7792468070983887, 0.009874546900391579, 0.9760282039642334, 0.7288962006568909, 0.6232014894485474, 0.8908941149711609, -0.1882629692554474, -0.13531425595283508, 0.011361458338797092, 0.8515254259109497, 0.8476994633674622, 0.1581219732761383, 0.007322192657738924, -0.15442931652069092, -0.02279774844646454, 0.6543332934379578, 0.12733322381973267, 0.7581408023834229, 0.5029961466789246, 0.1721772849559784, 0.12308640778064728, 0.5894043445587158, -0.18855294585227966, 0.7856062650680542, 0.5482938289642334, 0.004994742106646299, -0.1604745090007782, 0.158225879073143, -0.07318595796823502, 0.563299298286438, 0.7078760266304016, 0.8745800256729126, 0.6117350459098816, 0.8241857290267944, 0.47634372115135193], [-0.09172742068767548, -0.06406383961439133, 1.0629409551620483, 0.8621661067008972, -0.14543768763542175, 1.0164235830307007, 0.15331506729125977, -0.12994228303432465, 0.9045912027359009, -0.20598430931568146, 0.8819671869277954, 0.013075296767055988, 0.03748638927936554, 1.0903513431549072, 1.017222285270691, -0.06560458987951279, 0.9406436085700989, 0.19267122447490692, 1.0704801082611084, -0.20584721863269806, 0.805980920791626, 0.8126943111419678, 0.16935870051383972, -0.0016717276303097606, -0.11419118195772171, 1.0161582231521606, -0.06984063982963562, -0.05440378934144974, 0.8141772747039795, 0.8073096871376038, 0.16282205283641815, 1.029038667678833, 1.0034621953964233, 0.8864173293113708, 0.7999656200408936, 0.1368560642004013, -0.009379923343658447, -0.018436843529343605, 0.8168641924858093, 1.050628423690796, -0.17934980988502502, 0.022814050316810608, -0.01543583907186985, 0.20704792439937592, 0.6890246868133545, -0.04938804358243942, 0.7095651626586914, 0.9404301643371582, 0.07771378755569458, -0.20819881558418274, 0.8391568064689636, -0.15224771201610565, 0.8969254493713379, 0.8676251769065857, 0.1641753911972046, 0.08537041395902634, 0.18172839283943176, 0.15790779888629913, 0.8769285082817078, 1.084762692451477, 0.7312170267105103, 0.7016238570213318, 0.854984700679779, 0.7168284058570862], [-0.072505421936512, -0.07060005515813828, 0.7756304740905762, 0.836078405380249, -0.16310159862041473, 0.8993533253669739, 0.15345969796180725, -0.19378845393657684, 1.0159218311309814, 0.0745154321193695, 0.9915153384208679, -0.12929248809814453, -0.19944286346435547, 0.737726628780365, 0.7089506387710571, -0.20531849563121796, 1.03843092918396, 0.072202667593956, 0.8114809393882751, 0.10721728205680847, 1.0078994035720825, 1.0108367204666138, -0.11810877174139023, -0.06716600805521011, 0.18872076272964478, 1.009851336479187, -0.1933310627937317, 0.16679757833480835, 0.8401848077774048, 1.005104899406433, -0.012827497906982899, 1.1184495687484741, 0.7441158890724182, 0.7468013763427734, 0.6798771619796753, 0.12985138595104218, -0.17475472390651703, 0.046610865741968155, 0.8958223462104797, 1.0889509916305542, 0.15128707885742188, 0.16717898845672607, -0.20078007876873016, -0.07995763421058655, 0.8864357471466064, -0.021653302013874054, 1.0288305282592773, 0.7648619413375854, 0.10492356866598129, -0.20394250750541687, 0.7505560517311096, -0.1053825244307518, 0.8040218949317932, 0.8781687617301941, 0.03340982645750046, 0.025493692606687546, 0.04691573232412338, 0.1722618043422699, 0.926456093788147, 0.7178793549537659, 0.7642992734909058, 0.9340116381645203, 1.1005903482437134, 1.0333784818649292], [0.15086840093135834, 0.05399671941995621, 0.9179335832595825, 0.979415774345398, -0.01519822794944048, 1.0451292991638184, 0.11318378150463104, 0.08367958664894104, 0.7973208427429199, -0.08110491931438446, 0.9249724745750427, -0.06755061447620392, 0.06338030099868774, 0.6646548509597778, 1.0026060342788696, -0.02993188239634037, 0.9304428100585938, -0.15085625648498535, 0.8147162795066833, 0.0013054878218099475, 0.7149308919906616, 0.6609190106391907, 0.003283245023339987, 0.03556748852133751, -0.10272935777902603, 0.7544704675674438, 0.002139776712283492, -0.2406352460384369, 0.8949609398841858, 1.0378503799438477, 0.03318649157881737, 1.0100489854812622, 0.6643424034118652, 0.85650235414505, 0.8716403245925903, 0.20180729031562805, -0.03806968033313751, 0.11659245938062668, 1.0456364154815674, 0.9953554272651672, -0.19526518881320953, 0.1385856568813324, -0.06670184433460236, -0.1615820825099945, 0.7745034694671631, 0.10411220788955688, 0.716523289680481, 0.9136049151420593, 0.0587347187101841, -0.02778121829032898, 0.8337990045547485, -0.21021826565265656, 1.028925895690918, 0.7610072493553162, 0.08560952544212341, 0.07304740697145462, 0.0583813413977623, -0.00560869462788105, 0.804290771484375, 1.0236666202545166, 0.8901160359382629, 0.8557988405227661, 0.6596757173538208, 0.8642553687095642], [-0.010058020241558552, 0.039541713893413544, 0.6836842894554138, 1.017096996307373, 0.1560899019241333, 0.8268797397613525, -0.20362244546413422, 0.1613350659608841, 0.6918906569480896, -0.08860383927822113, 0.8143656253814697, -0.17763641476631165, -0.16431982815265656, 0.8794636130332947, 0.7823865413665771, -0.23225709795951843, 0.6993387341499329, 0.12036998569965363, 0.9367657899856567, 0.130219504237175, 0.8024187684059143, 0.9771394729614258, -0.0832194909453392, 0.0946303978562355, 0.13453692197799683, 0.8124905824661255, -0.18241818249225616, -0.06554187089204788, 0.8013222813606262, 0.9051174521446228, -0.17160210013389587, 0.87241131067276, 0.8047704100608826, 0.8973007202148438, 0.9161165356636047, -0.1498701274394989, 0.11316318809986115, -0.1941373348236084, 0.705219030380249, 0.8976075053215027, -0.03128288313746452, -0.15347516536712646, 0.13676148653030396, -0.0926288366317749, 0.636005163192749, -0.146108940243721, 1.0086289644241333, 0.7746415138244629, 0.13244353234767914, 0.028437703847885132, 0.9089753031730652, -0.05206107720732689, 0.9449206590652466, 0.8145105242729187, -0.02994837425649166, -0.14395354688167572, -0.19034257531166077, 0.05428580194711685, 0.9890703558921814, 0.8033121824264526, 0.8248543739318848, 0.8578094244003296, 1.011968731880188, 0.7700972557067871], [0.049525804817676544, 0.012043263763189316, 0.6615601181983948, 0.5976742506027222, 0.047369468957185745, 0.7040237784385681, -0.03081304393708706, 0.16975590586662292, 0.750841498374939, -0.18601125478744507, 0.49115481972694397, -0.0945967584848404, -0.22869761288166046, 0.8643059134483337, 0.8179212212562561, -0.1598396897315979, 0.7588324546813965, -0.09419960528612137, 0.7444496750831604, -0.17341452836990356, 0.5942233800888062, 0.7913229465484619, -0.11976061016321182, -0.06440087407827377, 0.06227008253335953, 0.703869640827179, -0.04934415593743324, 0.040550172328948975, 0.8981969356536865, 0.6521891951560974, 0.12174191325902939, 0.7239291071891785, 0.5256080627441406, 0.5107959508895874, 0.5039294362068176, 0.032368771731853485, 0.029028574004769325, -0.04578975588083267, 0.8109122514724731, 0.682953417301178, 0.14646662771701813, 0.13862454891204834, -0.12042544037103653, -0.21392802894115448, 0.6273888945579529, -0.1928558200597763, 0.6914257407188416, 0.7022140622138977, -0.2259790301322937, 0.11720676720142365, 0.8849222660064697, 0.028864817693829536, 0.6053759455680847, 0.7910681962966919, 0.18117602169513702, -0.18241794407367706, 0.008579046465456486, -0.23301194608211517, 0.5237664580345154, 0.8363920450210571, 0.6167557239532471, 0.9391428232192993, 0.6091811656951904, 0.8161073923110962], [0.06912647932767868, -0.004620492924004793, 0.6775497794151306, 0.6392654776573181, 0.07729308307170868, 0.9336867332458496, 0.03858911618590355, -0.13739685714244843, 0.6403516530990601, -0.15316997468471527, 0.7851240634918213, -0.2028355449438095, -0.017537012696266174, 0.7486404776573181, 0.9471561908721924, -0.1563170850276947, 0.7869195342063904, -0.1892600655555725, 0.6422499418258667, -0.1386711597442627, 0.6863163709640503, 0.813474178314209, -0.05165919288992882, -0.10166114568710327, -0.2016773521900177, 0.9048387408256531, 0.01098877564072609, 0.12021301686763763, 0.8604375123977661, 0.8471543192863464, -0.1991092711687088, 0.7703101634979248, 0.8492818474769592, 0.8799896836280823, 0.938737690448761, 0.13791446387767792, 0.06737346202135086, -0.193136066198349, 0.8966200947761536, 0.9992673993110657, 0.013411403633654118, -0.1778595745563507, -0.06350574642419815, 0.04542560875415802, 0.9313435554504395, -0.1809592992067337, 0.7510738968849182, 0.6576995253562927, 0.01607426069676876, -0.0810394138097763, 0.8260951638221741, -0.08222705125808716, 0.9001172780990601, 0.9298426508903503, 0.025558721274137497, 0.06726083904504776, 0.05731229856610298, -0.15364955365657806, 0.8066978454589844, 0.6704208850860596, 0.6307200789451599, 0.6040971875190735, 0.8588358759880066, 0.8384068608283997], [0.07746076583862305, -0.12352451682090759, 0.9848774075508118, 0.7179890871047974, 0.08641116321086884, 0.7441425323486328, 0.1204129010438919, -0.1837083399295807, 0.994659423828125, 0.15670031309127808, 0.6468767523765564, 0.14646072685718536, -0.21848024427890778, 0.8533852696418762, 0.8350061178207397, -0.1588727980852127, 0.9643331170082092, -0.15243807435035706, 0.9694386720657349, -0.24888385832309723, 0.8165249824523926, 0.7092561721801758, 0.07526136189699173, 0.1720944195985794, -0.19302619993686676, 0.8534104824066162, 0.05334620177745819, -0.0770680233836174, 0.8573426604270935, 0.5988227725028992, 0.01175663247704506, 0.8182283639907837, 0.758446991443634, 0.6213522553443909, 0.8555850386619568, -0.13766111433506012, -0.20500323176383972, 0.12158964574337006, 0.6320770382881165, 0.8859561085700989, -0.08715194463729858, -0.18323275446891785, 0.08360077440738678, -0.02961590886116028, 0.9724440574645996, 0.11233075708150864, 0.8326555490493774, 0.626240074634552, -0.11531271785497665, -0.10879145562648773, 0.7707234621047974, -0.006693569011986256, 0.785378634929657, 0.8583346009254456, 0.08263528347015381, -0.017597131431102753, 0.18511629104614258, -0.04869140684604645, 0.7233514189720154, 0.857913076877594, 0.6964882612228394, 0.6676076054573059, 1.0184543132781982, 0.6887621879577637], [0.19516900181770325, -0.10578078776597977, 0.9593615531921387, 0.9039199948310852, 0.17106717824935913, 0.9779820442199707, -0.07772345095872879, 0.11449568718671799, 0.8674198389053345, -0.026083169505000114, 0.9892582297325134, -0.011202588677406311, -0.23234659433364868, 0.906039297580719, 0.7302128672599792, 0.06630440801382065, 1.0772024393081665, 0.024235591292381287, 1.0454022884368896, 0.10481088608503342, 0.6132367849349976, 0.8536626696586609, -0.0009727919241413474, 0.006360015366226435, -0.14999762177467346, 0.7864453196525574, -0.1879778355360031, -0.02957376278936863, 0.7760109305381775, 0.948980450630188, 0.12042236328125, 1.0142371654510498, 0.7130944132804871, 0.714262068271637, 0.6730931997299194, 0.1675565391778946, 0.1495937556028366, 0.06932201236486435, 1.0610125064849854, 0.8015000820159912, 0.01157098077237606, -0.11068349331617355, -0.20509469509124756, -0.12086187303066254, 0.6273306608200073, -0.05207384005188942, 0.6263909935951233, 0.79193115234375, 0.16312997043132782, 0.008161753416061401, 0.7820550799369812, -0.058476611971855164, 0.7557002902030945, 0.8650079369544983, 0.1308455914258957, -0.08707157522439957, 0.1037394180893898, -0.17161265015602112, 0.9376254081726074, 0.9874666333198547, 1.0001555681228638, 0.8642491698265076, 0.9569511413574219, 0.6225714087486267], [0.10006393492221832, -0.13111186027526855, 0.7922706007957458, 0.9129312038421631, -0.058601826429367065, 0.7667603492736816, -0.10242185741662979, -0.06329049170017242, 0.6856434941291809, 0.1802041083574295, 0.7858443260192871, 0.1167803555727005, -0.11228587478399277, 0.8158244490623474, 0.8250137567520142, 0.07955896854400635, 1.1080708503723145, 0.08655162155628204, 0.7969323396682739, -0.15726760029792786, 0.8689947724342346, 0.7094814777374268, 0.11534062772989273, -0.05154993385076523, -0.14905473589897156, 0.8376641869544983, -0.18884968757629395, 0.020791199058294296, 0.9542191028594971, 1.01537024974823, -0.20830965042114258, 1.0592180490493774, 0.7452057600021362, 0.704490602016449, 0.954654335975647, 0.018297433853149414, 0.1935383528470993, 0.06881411373615265, 0.8644228577613831, 0.7720357179641724, -0.14911909401416779, -0.20920605957508087, 0.11007960885763168, 0.0196903795003891, 0.7822672724723816, -0.15539582073688507, 1.072471022605896, 0.9538388848304749, 0.01686859130859375, -0.11352002620697021, 1.0228327512741089, 0.061554864048957825, 0.9042104482650757, 0.8144001364707947, -0.1497546136379242, 0.04938146099448204, 0.10016854852437973, 0.1104508563876152, 0.9228560924530029, 0.6898455023765564, 1.0141946077346802, 1.0069949626922607, 1.0643826723098755, 0.7003193497657776], [0.11147874593734741, -0.024392416700720787, 0.859089195728302, 0.7939887046813965, -0.197737917304039, 0.9059416055679321, -0.17019139230251312, 0.024795861914753914, 0.9413110613822937, -0.16875553131103516, 0.7749849557876587, -0.15382342040538788, 0.132719486951828, 1.0508900880813599, 0.9805540442466736, -0.1786954253911972, 1.0037561655044556, -0.03557188808917999, 0.9455009698867798, 0.055886395275592804, 0.9791505932807922, 0.6889975666999817, 0.051750797778367996, 0.0629454180598259, 0.059498533606529236, 1.0483676195144653, 0.05542178824543953, -0.23032887279987335, 0.8239109516143799, 0.71589195728302, -0.23994284868240356, 0.9286009669303894, 0.6417974829673767, 0.8046391606330872, 1.0399800539016724, -0.018829628825187683, -0.06833438575267792, -0.14040814340114594, 0.925015389919281, 0.8178199529647827, 0.010299376212060452, 0.11127300560474396, 0.11892867088317871, -0.022549256682395935, 0.9949237108230591, -0.04189739376306534, 0.9105120301246643, 1.0204392671585083, -0.008634976111352444, -0.013378337025642395, 0.9302201271057129, -0.22735877335071564, 0.6402431726455688, 0.6968883872032166, -0.11032037436962128, 0.07469519227743149, -0.06133759394288063, 0.07458409667015076, 0.7168164253234863, 0.8917136788368225, 0.6499280333518982, 0.815201461315155, 0.7764719128608704, 0.8362124562263489], [-0.21425972878932953, -0.10684102028608322, 0.8263954520225525, 0.7896758913993835, 0.09530424326658249, 0.6684041619300842, -0.1821078062057495, -0.11958563327789307, 0.6558544635772705, 0.1777174174785614, 0.707040011882782, 0.15005217492580414, 0.11508242785930634, 0.7168590426445007, 1.003285527229309, -0.17532221972942352, 0.6275389790534973, 0.08460448682308197, 0.9147933125495911, -0.18953050673007965, 0.9356207847595215, 0.8484424948692322, -0.16088683903217316, -0.07453140616416931, -0.22330410778522491, 0.8073442578315735, -0.07592256367206573, -0.017949335277080536, 0.6265654563903809, 0.9971880912780762, -0.13800229132175446, 0.7947179675102234, 0.8287418484687805, 0.9175988435745239, 0.8273572325706482, -0.17698854207992554, -0.02834257483482361, -0.005722008179873228, 0.9093354940414429, 0.89570152759552, 0.024704743176698685, -0.1834842413663864, 0.20075058937072754, -0.11621305346488953, 0.9572294354438782, 0.13708092272281647, 0.9376059174537659, 0.9011455178260803, -0.1031157523393631, -0.17608210444450378, 0.747433066368103, -0.20684854686260223, 0.9286757111549377, 0.7556384801864624, -0.0695643499493599, 0.13445121049880981, 0.01439671404659748, 0.021724630147218704, 0.6685900092124939, 0.9298980236053467, 0.595140814781189, 0.8254579901695251, 0.6412439346313477, 0.7957410216331482], [-0.013575957156717777, 0.02344982512295246, 0.6786714792251587, 0.8564460873603821, 0.06324068456888199, 0.9112767577171326, -0.0778123065829277, -0.24484658241271973, 0.804779052734375, -0.1237795278429985, 0.7253280282020569, -0.13325457274913788, 0.15280385315418243, 0.9361518621444702, 0.6165876984596252, -0.009101158007979393, 0.7933681011199951, -0.12070680409669876, 0.5754194855690002, -0.22773735225200653, 0.7628785967826843, 0.5324859023094177, 0.14966551959514618, -0.07402636855840683, -0.09926097840070724, 1.0091692209243774, -0.23233813047409058, 0.03873626887798309, 0.7982097268104553, 0.5569654703140259, 0.08807703107595444, 0.8278830051422119, 0.8535527586936951, 0.6258337497711182, 0.9499810338020325, 0.1510884165763855, -0.10881853103637695, -0.14040930569171906, 0.8974445462226868, 0.6760762333869934, -0.17547732591629028, -0.020986920222640038, -0.1327127367258072, -0.21093007922172546, 0.6134392619132996, -0.20743295550346375, 0.8405694365501404, 0.5526522994041443, -0.18565429747104645, 0.030588418245315552, 0.9332252740859985, 0.12184826284646988, 0.6264321804046631, 0.6045652627944946, -0.09783317148685455, -0.09512452781200409, 0.06859264522790909, 0.17394204437732697, 0.9691911339759827, 0.7901005148887634, 0.9140552878379822, 0.9462646245956421, 0.8860741257667542, 0.8284891843795776], [0.12574177980422974, 0.14787954092025757, 0.8118141293525696, 1.0348575115203857, 0.0979870930314064, 0.7104250192642212, -0.048908986151218414, -0.11079429090023041, 0.9434316754341125, -0.21155096590518951, 1.040043592453003, -0.006473868619650602, -0.014858567155897617, 0.9214034080505371, 1.0314745903015137, -0.22579678893089294, 0.8761786222457886, 0.1923000067472458, 1.041837453842163, 0.12761905789375305, 0.9875311255455017, 0.7200399041175842, 0.13977015018463135, -0.13594500720500946, -0.051828574389219284, 0.8723270893096924, 0.21224574744701385, 0.06104164570569992, 0.8378856778144836, 0.7761744260787964, -0.1337810605764389, 1.0669403076171875, 0.9488372802734375, 0.808729350566864, 1.0663182735443115, -0.12242063879966736, 0.1795358657836914, 0.15468543767929077, 0.9588355422019958, 1.0364420413970947, -0.08830421417951584, 0.1827922910451889, 0.024555403739213943, -0.03112111985683441, 0.6292060613632202, 0.13729369640350342, 0.8643481135368347, 0.6498298048973083, -0.07057111710309982, 0.1985536366701126, 0.6147162914276123, -0.009384345263242722, 0.6869643926620483, 0.7670679688453674, 0.12066271901130676, -0.0777653157711029, -0.0034112136345356703, 0.1723538488149643, 0.6809684634208679, 0.9965763092041016, 0.8181735277175903, 0.8925172686576843, 0.7322874069213867, 0.8860623836517334], [-0.03296666964888573, 0.06339458376169205, 0.8718022704124451, 0.8815219402313232, -0.009738157503306866, 0.7231513261795044, -0.17812161147594452, -0.2323673963546753, 0.6750507950782776, -0.011625767685472965, 0.6818267107009888, 0.08998847752809525, 0.12405725568532944, 0.7183970212936401, 0.769146740436554, -0.215566486120224, 0.7513602375984192, -0.20204859972000122, 0.7384049296379089, -0.05542982742190361, 0.6355457305908203, 0.7490563988685608, 0.013537839986383915, -0.10763951390981674, -0.1429046094417572, 0.7389796376228333, -0.16291894018650055, -0.06172458082437515, 0.566444456577301, 0.8017586469650269, -0.08120157569646835, 0.826295793056488, 0.6211279630661011, 0.8094624876976013, 0.8978280425071716, 0.16329140961170197, -0.17858904600143433, 0.058997467160224915, 0.7080771923065186, 0.8446894288063049, -0.20031991600990295, 0.14035940170288086, -0.018872981891036034, 0.010442346334457397, 0.8714727163314819, -0.04311157017946243, 0.7871419787406921, 0.8189772963523865, 0.18687957525253296, -0.004198849201202393, 0.8075004816055298, -0.08453532308340073, 0.5088712573051453, 0.7856718897819519, -0.18118856847286224, 0.051649309694767, -0.19257476925849915, 0.10138992965221405, 0.6028259992599487, 0.6277421712875366, 0.8255326151847839, 0.7125646471977234, 0.823915958404541, 0.5889800190925598], [-0.10980548709630966, -0.07035849988460541, 0.5572443604469299, 0.8676902651786804, -0.12345284968614578, 0.716081976890564, 0.11560247093439102, -0.19773222506046295, 0.6161686778068542, 0.04980866238474846, 0.7010840177536011, -0.2130722552537918, -0.11743830889463425, 0.9054011106491089, 0.8104952573776245, -0.01870638318359852, 0.768185555934906, -0.06528715789318085, 0.7684246301651001, -0.1467534452676773, 0.6249691247940063, 0.4846034049987793, -0.08224637061357498, 0.06018209084868431, 0.172483891248703, 0.7273761034011841, 0.14814236760139465, 0.07043900340795517, 0.6113126277923584, 0.5702071785926819, 0.12048158049583435, 0.5491753220558167, 0.7365622520446777, 0.8167873620986938, 0.5353227853775024, -0.03778631240129471, -0.15568307042121887, -0.1120966225862503, 0.7419489026069641, 0.7997474074363708, 0.11958138644695282, -0.08862679451704025, 0.17309817671775818, -0.20687814056873322, 0.8779579401016235, -0.12164224684238434, 0.8691146373748779, 0.8686830997467041, -0.13348813354969025, -0.014344707131385803, 0.7643275260925293, -0.11553888767957687, 0.8371197581291199, 0.7834899425506592, -0.05422119051218033, -0.14821889996528625, 0.029294630512595177, 0.012730046175420284, 0.5885039567947388, 0.8902995586395264, 0.7272751927375793, 0.7137631177902222, 0.6128291487693787, 0.8033462762832642], [0.10209692269563675, -0.07246869057416916, 0.9109838604927063, 0.6214834451675415, 0.18134170770645142, 0.5900852084159851, 0.07731136679649353, -0.14011572301387787, 0.7555924654006958, -0.1059020459651947, 0.7342228889465332, 0.05931280925869942, -0.1956164687871933, 0.8724340200424194, 0.8410980701446533, -0.14335547387599945, 0.7317838668823242, 0.028706684708595276, 0.8278636336326599, 0.0360240638256073, 0.6017777323722839, 0.6017799377441406, 0.018515363335609436, -0.06635697185993195, -0.19845430552959442, 0.8932214975357056, 0.0530526377260685, 0.11843577027320862, 0.8729234933853149, 0.9257336258888245, -0.15837624669075012, 0.7801469564437866, 0.6891684532165527, 0.6942737102508545, 0.9055777788162231, 0.18994992971420288, 0.1604130119085312, 0.1656177043914795, 1.0334794521331787, 0.9397580623626709, -0.12295202910900116, -0.18589913845062256, -0.16802720725536346, 0.12621895968914032, 0.5980311036109924, -0.11844141781330109, 0.6561267375946045, 0.8410025238990784, -0.017639201134443283, -0.1314423382282257, 0.88864666223526, 0.13522666692733765, 0.8263013362884521, 0.7092993259429932, -0.03977729007601738, 0.042346782982349396, 0.12732085585594177, 0.1320672631263733, 0.7317996025085449, 0.8938131332397461, 0.7772059440612793, 0.9250949025154114, 0.6410853266716003, 0.6085643172264099], [-0.005099594127386808, -0.08080828189849854, 0.9730351567268372, 0.8780854344367981, 0.0038974431809037924, 0.6965132355690002, 0.07541928440332413, 0.10816778242588043, 0.876209557056427, 0.0825844258069992, 1.0849132537841797, -0.003183916211128235, -0.14403505623340607, 0.9979698061943054, 0.8544908165931702, -0.06200235337018967, 0.8026845455169678, 0.13874714076519012, 0.8384844064712524, 0.12915480136871338, 1.0145597457885742, 0.8513743281364441, 0.16663646697998047, 0.07332150638103485, -0.14338050782680511, 1.080413579940796, -0.11123102903366089, 0.10931791365146637, 0.8471951484680176, 0.7177881598472595, 0.047226302325725555, 0.6968854069709778, 0.8053308129310608, 0.7516204714775085, 0.7119892239570618, -0.03905019164085388, -0.1803693026304245, 0.05796508491039276, 1.0809905529022217, 0.8206061720848083, 0.08694106340408325, -0.026810362935066223, 0.10647759586572647, -0.18391743302345276, 0.752963125705719, -0.20445093512535095, 0.9666212797164917, 0.9781236052513123, -0.0007184541318565607, 0.1811331957578659, 0.7930550575256348, -0.037111129611730576, 0.8694544434547424, 0.9272454977035522, 0.04100964590907097, 0.054100655019283295, -0.22176317870616913, 0.15407796204090118, 0.6876775622367859, 0.8569468259811401, 0.8350641131401062, 0.6856511235237122, 0.9159101247787476, 0.8133342862129211], [0.19821888208389282, -0.020727377384901047, 0.6586169004440308, 0.784781277179718, -0.22953245043754578, 0.8192043900489807, -0.19446992874145508, -0.06357985734939575, 0.9531934857368469, 0.0735480859875679, 0.9211289882659912, -0.050341248512268066, 0.15020066499710083, 1.0387475490570068, 0.7579687237739563, 0.0966956689953804, 0.6488434076309204, 0.1398717612028122, 0.8183347582817078, -0.02320478856563568, 0.7001194357872009, 0.7986335754394531, -0.1282375305891037, -0.13339786231517792, 0.026641011238098145, 1.0116645097732544, -0.1934008002281189, 0.06641675531864166, 0.6621068120002747, 0.7095608115196228, -0.015616241842508316, 0.6946456432342529, 0.7623603940010071, 0.8287765383720398, 0.9543789029121399, -0.0020813941955566406, -0.13293099403381348, 0.044606223702430725, 0.9443554282188416, 0.8881545066833496, -0.05288441851735115, 0.112383171916008, -0.13427823781967163, 0.030425086617469788, 0.7265633940696716, 0.17659074068069458, 1.0065454244613647, 0.7429560422897339, -0.0529329888522625, -0.13177038729190826, 0.6265307068824768, 0.025406932458281517, 1.001447081565857, 0.8432850241661072, -0.0730128362774849, 0.08899559825658798, 0.08436901867389679, 0.11994919180870056, 0.952971339225769, 0.7937307357788086, 0.9195436835289001, 0.7976387143135071, 0.8692606091499329, 0.7122759819030762], [-0.07114026695489883, 0.0962274819612503, 0.902867317199707, 0.9473695755004883, 0.057305824011564255, 0.7969562411308289, -0.12884683907032013, -0.06852138787508011, 0.8253092765808105, 0.1399603635072708, 0.6396856307983398, 0.07614167779684067, -0.2537190020084381, 0.7696349024772644, 0.8360751867294312, 0.07117000222206116, 0.9995101094245911, -0.13309963047504425, 0.6703683733940125, 0.0294361412525177, 0.7120168805122375, 0.7640048861503601, 0.08153759688138962, -0.031496718525886536, 0.08533327281475067, 0.9654029607772827, 0.019146541133522987, -0.05674821510910988, 0.5653124451637268, 0.8610478043556213, 0.013822250999510288, 0.6663799285888672, 0.9115675687789917, 0.6214285492897034, 0.8131958246231079, 0.0578605979681015, 0.04814726486802101, 0.18360021710395813, 0.9282634258270264, 0.7238621115684509, 0.06038246303796768, -0.19845430552959442, 0.11793764680624008, 0.12261809408664703, 0.8728845119476318, -0.15541596710681915, 0.7534792423248291, 0.5555473566055298, -0.16338622570037842, -0.11426236480474472, 0.9402565956115723, 0.1355089247226715, 0.6380099058151245, 0.8837360143661499, 0.017145326361060143, -0.24898822605609894, 0.005130573641508818, 0.09980341047048569, 0.8145725131034851, 0.742558479309082, 0.9469825029373169, 0.7092012166976929, 0.8383955955505371, 0.5535419583320618], [0.08600606769323349, 0.05118989199399948, 0.6528093218803406, 0.6074435710906982, 0.00937701016664505, 0.8604446649551392, 0.03223014250397682, 0.10581919550895691, 0.9053436517715454, -0.18659193813800812, 0.7480904459953308, -0.1821514368057251, -0.12108816206455231, 1.0167337656021118, 0.8292761445045471, -0.06904344260692596, 0.7324607372283936, -0.12788304686546326, 0.8030140399932861, -0.01880118064582348, 0.5472877025604248, 0.7959539294242859, 0.1742236316204071, -0.07448156923055649, -0.08937886357307434, 0.8088503479957581, -0.15520578622817993, -0.037692729383707047, 0.8888785243034363, 0.7215133905410767, -0.12306800484657288, 0.6628062129020691, 0.6775329113006592, 0.6668074727058411, 0.8300331830978394, -0.087784543633461, -0.05191547051072121, -0.2293504923582077, 0.787247896194458, 0.8069121241569519, 0.09526994079351425, -0.13875192403793335, 0.032954875379800797, -0.04518362879753113, 0.7471486926078796, -0.01158030517399311, 0.8566031455993652, 0.6476263403892517, -0.2256447821855545, 0.1787838190793991, 0.6832044124603271, 0.13838818669319153, 0.7049570679664612, 0.9853766560554504, 0.062134213745594025, -0.011648331768810749, -0.11196871846914291, -0.23720751702785492, 0.8350832462310791, 0.7788493633270264, 0.8540786504745483, 0.9042541980743408, 0.8602426052093506, 0.8464787602424622], [-0.12002662569284439, -0.05930005759000778, 0.65948885679245, 0.6374458074569702, -0.03236322104930878, 0.6894369721412659, -0.04464435577392578, 0.026942968368530273, 0.6402122378349304, -0.009035816416144371, 0.9591606259346008, -0.0816030353307724, -0.219999298453331, 0.7897706031799316, 0.834791898727417, -0.12488139420747757, 0.9007782340049744, -0.05701184272766113, 0.6743016839027405, -0.1454547792673111, 0.9228532910346985, 0.8051854968070984, -0.09119538962841034, -0.01918899640440941, -0.09583207964897156, 0.7467201352119446, 0.06930699199438095, 0.13454373180866241, 0.7843878865242004, 0.6833547949790955, 0.12800341844558716, 0.7803568243980408, 0.9170328378677368, 0.6829777359962463, 0.8500465750694275, -0.13167829811573029, -0.16447713971138, 0.2082887440919876, 1.0859177112579346, 0.7847797870635986, 0.02049122378230095, -0.21904414892196655, 0.16873818635940552, 0.011454746127128601, 0.9202200770378113, 0.11609962582588196, 0.9561091661453247, 0.6360024213790894, -0.08051817864179611, -0.09236469864845276, 0.6917333602905273, -0.06262023746967316, 0.670127809047699, 0.9239148497581482, -0.011591382324695587, -0.051321011036634445, -0.04828815162181854, -0.039722245186567307, 0.6483755111694336, 0.7488600611686707, 1.0559643507003784, 0.9383089542388916, 0.8825134038925171, 0.7784426808357239]], "bias": [-0.019259439781308174, -0.03721386939287186, 1.0397955179214478, 1.09600031375885, -0.031819894909858704, 1.0579822063446045, -0.011406108736991882, -0.031180938705801964, 0.976280689239502, -0.01772237941622734, 1.0242178440093994, -0.013477220200002193, -0.04541774466633797, 1.1255691051483154, 1.0434141159057617, -0.03857855126261711, 1.097153663635254, 0.0, 1.099753499031067, -0.03436008095741272, 1.09297513961792, 1.0179688930511475, -0.035909269005060196, -0.026665769517421722, -0.014707203954458237, 1.1380280256271362, -0.022453561425209045, -0.03531044349074364, 1.0428766012191772, 1.087327241897583, -0.04980622977018356, 1.1330583095550537, 1.00119149684906, 0.9885321855545044, 1.049340009689331, -0.011282178573310375, -0.014125351794064045, -0.018051736056804657, 1.1157910823822021, 1.135536551475525, -0.042128466069698334, -0.017070073634386063, -0.024137374013662338, 0.0, 0.986794114112854, -0.023063085973262787, 0.98856121301651, 1.107540249824524, -0.022977426648139954, 0.0, 1.096286654472351, -0.04550951346755028, 1.0001519918441772, 1.0501786470413208, -0.03245793655514717, -0.04297837242484093, -0.04489517956972122, -0.027262508869171143, 1.0951521396636963, 1.0661396980285645, 1.0013961791992188, 1.107475757598877, 1.1131105422973633, 0.9694482088088989]}, {"tipo": "Dense", "activation": "linear", "weights": [[-0.14489565789699554], [-0.25023317337036133], [1.0397753715515137], [0.8148318529129028], [-0.012183242477476597], [0.9488924145698547], [-0.26603570580482483], [-0.04591943696141243], [1.1524949073791504], [-0.07904338836669922], [1.0639934539794922], [-0.23043584823608398], [-0.05216391384601593], [0.8564090132713318], [1.0006433725357056], [-0.2294379472732544], [0.9201751947402954], [-0.30249497294425964], [0.9083621501922607], [-0.0643276497721672], [0.7840649485588074], [1.0959233045578003], [-0.24934281408786774], [-0.17035555839538574], [-0.09601811319589615], [0.8626710772514343], [-0.17405258119106293], [-0.05380940064787865], [1.0476725101470947], [0.9513446092605591], [-0.03972218930721283], [0.850695788860321], [1.0696746110916138], [1.1106632947921753], [0.9717259407043457], [-0.2757822871208191], [-0.25234779715538025], [-0.16387802362442017], [0.8601473569869995], [0.8652467727661133], [-0.11676568537950516], [-0.252731591463089], [-0.18751724064350128], [0.2638500928878784], [1.113934874534607], [-0.07247750461101532], [1.0638377666473389], [0.8333402872085571], [-0.22983407974243164], [-0.29588019847869873], [0.8250510096549988], [-0.24141868948936462], [1.04539954662323], [0.9719269871711731], [-0.09331708401441574], [-0.11617599427700043], [-0.12276070564985275], [-0.047093749046325684], [0.9390245079994202], [0.9799573421478271], [1.0347037315368652], [0.8744828104972839], [0.8845928311347961], [1.1470916271209717]], "bias": [0.7435954809188843]}]}